DEPT,CAL_N,DPHI_N,DTC_N,SGR_N,NPHI_N,PE_N,POR_N,RESDEEP_N,RHOB_N,K_SDR_N,K_TIM_N,K_SDR_N_PRE
101,3.37,0.513,-999.25,157.19,-0.038,9.07,0,5.96,1.833,-999.25,-999.25,
101.5,3.39,0.513,-999.25,145.57,-0.038,9.07,0,5.96,1.833,-999.25,-999.25,
102,3.37,0.513,-999.25,137.49,-0.038,9.07,0,5.96,1.833,-999.25,-999.25,
102.5,3.39,0.513,-999.25,142.04,-0.037,9.07,0,5.96,1.833,-999.25,-999.25,
103,3.39,0.513,-999.25,150.13,-0.034,9.07,0,5.96,1.833,-999.25,-999.25,
103.5,3.39,0.513,-999.25,149.71,-0.037,9.07,0,5.96,1.833,-999.25,-999.25,
104,3.42,0.513,-999.25,148.61,-0.035,9.07,0,5.96,1.833,-999.25,-999.25,
104.5,3.42,0.513,-999.25,158.72,-0.038,9.07,0,5.96,1.833,-999.25,-999.25,
105,3.39,0.513,-999.25,164.67,-0.034,9.07,0,5.96,1.833,-999.25,-999.25,
105.5,3.37,0.513,-999.25,151.11,-0.036,9.07,0,5.96,1.833,-999.25,-999.25,
106,3.37,0.513,-999.25,132.41,-0.04,9.07,0,5.96,1.833,-999.25,-999.25,
106.5,3.37,0.513,-999.25,137.5,-0.032,9.07,0,5.96,1.833,-999.25,-999.25,
107,3.39,0.52,-999.25,151.54,-0.03,9.07,0,5.96,1.82,-999.25,-999.25,
107.5,3.39,0.532,-999.25,159.02,-0.036,9.08,0,5.96,1.801,-999.25,-999.25,
108,3.39,0.539,-999.25,156.57,-0.038,9.09,0,5.96,1.788,-999.25,-999.25,
108.5,3.37,0.532,-999.25,149.02,-0.034,9.1,0,5.96,1.8,-999.25,-999.25,
109,3.39,0.523,-999.25,152.14,-0.038,9.09,0,5.96,1.815,-999.25,-999.25,
109.5,3.37,0.524,-999.25,156.12,-0.03,9.14,0,5.96,1.814,-999.25,-999.25,
110,3.37,0.532,-999.25,159.75,-0.034,9.16,0,5.96,1.8,-999.25,-999.25,
110.5,3.39,0.532,-999.25,161.39,-0.04,9.2,0,5.96,1.8,-999.25,-999.25,
111,3.39,0.531,-999.25,165,-0.039,9.21,0,5.96,1.802,-999.25,-999.25,
111.5,3.37,0.537,-999.25,165.5,-0.031,9.25,0,5.96,1.792,-999.25,-999.25,
112,3.37,0.538,-999.25,163.79,-0.034,9.25,0,5.96,1.79,-999.25,-999.25,
112.5,3.37,0.536,-999.25,153.68,-0.04,9.25,0,5.96,1.793,-999.25,-999.25,
113,3.39,0.524,-999.25,143.45,-0.036,9.23,0,5.96,1.815,-999.25,-999.25,
113.5,3.39,0.533,-999.25,135.31,-0.033,9.24,0,5.96,1.799,-999.25,-999.25,
114,3.42,0.539,-999.25,140.36,-0.034,9.22,0,5.96,1.788,-999.25,-999.25,
114.5,3.39,0.55,-999.25,149.07,-0.037,9.2,0,5.96,1.761,-999.25,-999.25,
115,3.39,0.55,-999.25,150.13,-0.033,9.29,0,5.96,1.745,-999.25,-999.25,
115.5,3.37,0.55,-999.25,156.2,-0.029,9.55,0,5.96,1.719,-999.25,-999.25,
116,3.37,0.55,-999.25,159.64,-0.036,9.8,0,5.96,1.693,-999.25,-999.25,
116.5,3.39,0.55,-999.25,161.14,-0.035,9.84,0,5.96,1.684,-999.25,-999.25,
117,3.42,0.55,-999.25,167.22,-0.037,9.52,0,5.96,1.715,-999.25,-999.25,
117.5,3.39,0.55,-999.25,164.28,-0.035,9.22,0,5.96,1.752,-999.25,-999.25,
118,3.37,0.547,-999.25,158.16,-0.034,9.04,0,5.96,1.775,-999.25,-999.25,
118.5,3.37,0.547,-999.25,147.02,-0.032,9.09,0,5.96,1.775,-999.25,-999.25,
119,3.39,0.548,-999.25,147.29,-0.031,9.13,0,5.96,1.772,-999.25,-999.25,
119.5,3.42,0.545,-999.25,156.03,-0.032,9.11,0,5.96,1.778,-999.25,-999.25,
120,3.37,0.543,-999.25,154.3,-0.042,9.09,0,5.96,1.782,-999.25,-999.25,
120.5,3.37,0.539,-999.25,142.84,-0.038,9.1,0,5.96,1.789,-999.25,-999.25,
121,3.39,0.539,-999.25,136.19,-0.032,9.15,0,5.96,1.788,-999.25,-999.25,
121.5,3.37,0.536,-999.25,123.1,-0.027,9.19,0,5.96,1.793,-999.25,-999.25,
122,3.39,0.537,-999.25,121.66,-0.035,9.25,0,5.96,1.792,-999.25,-999.25,
122.5,3.39,0.538,-999.25,120.8,-0.037,9.28,0,5.96,1.791,-999.25,-999.25,
123,3.42,0.539,-999.25,129.96,-0.03,9.26,0,5.96,1.788,-999.25,-999.25,
123.5,3.39,0.537,-999.25,137.03,-0.034,9.22,0,5.96,1.792,-999.25,-999.25,
124,3.39,0.532,-999.25,133.93,-0.033,9.2,0,5.96,1.8,-999.25,-999.25,
124.5,3.37,0.53,-999.25,121.41,-0.034,9.18,0,5.96,1.803,-999.25,-999.25,
125,3.37,0.525,-999.25,118.71,-0.033,9.15,0,5.96,1.812,-999.25,-999.25,
125.5,3.39,0.526,-999.25,116.69,-0.03,9.14,0,5.96,1.811,-999.25,-999.25,
126,3.39,0.528,-999.25,130.23,-0.032,9.13,0,5.96,1.807,-999.25,-999.25,
126.5,3.37,0.53,-999.25,129.39,-0.039,9.1,0,5.96,1.804,-999.25,-999.25,
127,3.37,0.529,-999.25,134.45,-0.033,9.08,0,5.96,1.805,-999.25,-999.25,
127.5,3.39,0.525,-999.25,122.23,-0.036,9.11,0,5.96,1.813,-999.25,-999.25,
128,3.39,0.527,-999.25,129.3,-0.036,9.13,0,5.96,1.808,-999.25,-999.25,
128.5,3.39,0.532,-999.25,119.99,-0.039,9.14,0,5.96,1.8,-999.25,-999.25,
129,3.37,0.536,-999.25,117.66,-0.029,9.1,0,5.96,1.793,-999.25,-999.25,
129.5,3.39,0.538,-999.25,112.94,-0.035,9.12,0,5.96,1.789,-999.25,-999.25,
130,3.39,0.539,-999.25,118.21,-0.038,9.14,0,5.96,1.789,-999.25,-999.25,
130.5,3.39,0.544,-999.25,118,-0.03,9.18,0,5.96,1.779,-999.25,-999.25,
131,3.39,0.55,-999.25,110.47,-0.029,9.19,0,5.96,1.769,-999.25,-999.25,
131.5,3.39,0.55,-999.25,116.38,-0.034,9.46,0,5.96,1.766,-999.25,-999.25,
132,3.37,0.55,-999.25,121.98,-0.04,9.73,0,5.96,1.744,-999.25,-999.25,
132.5,3.37,0.55,-999.25,125.86,-0.038,9.9,0,5.96,1.733,-999.25,-999.25,
133,3.39,0.55,-999.25,120.18,-0.037,9.75,0,5.96,1.752,-999.25,-999.25,
133.5,3.37,0.513,-999.25,118.1,-0.03,9.75,0,5.96,1.833,-999.25,-999.25,
134,3.39,0.473,-999.25,126.52,-0.036,9.85,0,5.96,1.9,-999.25,-999.25,
134.5,3.37,0.466,-999.25,123.08,-0.036,9.98,0,5.96,1.913,-999.25,-999.25,
135,3.37,0.485,-999.25,124.96,-0.032,9.97,0,5.96,1.88,-999.25,-999.25,
135.5,3.37,0.485,-999.25,110.61,-0.042,9.9,0,5.96,1.881,-999.25,-999.25,
136,3.39,0.448,-999.25,108.59,-0.037,9.77,0,5.96,1.944,-999.25,-999.25,
136.5,3.37,0.451,-999.25,106.81,-0.015,9.53,0,5.96,1.939,-999.25,-999.25,
137,3.39,0.475,-999.25,124.06,-0.028,9.25,0,5.96,1.898,-999.25,-999.25,
137.5,3.37,0.525,-999.25,132.56,-0.04,9.11,0,5.96,1.812,-999.25,-999.25,
138,3.42,0.516,-999.25,135.33,-0.039,9.1,0,5.96,1.827,-999.25,-999.25,
138.5,3.37,0.512,-999.25,129.9,-0.033,9.18,0,5.96,1.835,-999.25,-999.25,
139,3.37,0.508,-999.25,134.6,-0.031,9.19,0,5.96,1.842,-999.25,-999.25,
139.5,3.42,0.52,-999.25,133.52,-0.035,9.2,0,5.96,1.821,-999.25,-999.25,
140,3.42,0.523,-999.25,132.01,-0.036,9.24,0,5.96,1.816,-999.25,-999.25,
140.5,3.39,0.526,-999.25,129.32,-0.031,9.27,0,5.96,1.811,-999.25,-999.25,
141,3.39,0.523,-999.25,124.55,-0.034,9.25,0,5.96,1.816,-999.25,-999.25,
141.5,3.39,0.516,-999.25,124,-0.031,9.18,0,5.96,1.828,-999.25,-999.25,
142,3.39,0.51,-999.25,114.66,-0.03,9.3,0,5.96,1.837,-999.25,-999.25,
142.5,3.39,0.507,-999.25,116.9,-0.036,9.52,0,5.96,1.843,-999.25,-999.25,
143,3.37,0.506,-999.25,121.7,-0.038,9.73,0,5.96,1.844,-999.25,-999.25,
143.5,3.37,0.505,-999.25,126.47,-0.036,9.76,0,5.96,1.847,-999.25,-999.25,
144,3.39,0.5,-999.25,133.92,-0.039,9.62,0,5.96,1.855,-999.25,-999.25,
144.5,3.37,0.493,-999.25,127.83,-0.041,9.32,0,5.96,1.867,-999.25,-999.25,
145,3.42,0.492,-999.25,135.43,-0.035,9.06,0,5.96,1.869,-999.25,-999.25,
145.5,3.37,0.492,-999.25,134.08,-0.029,8.93,0,5.96,1.868,-999.25,-999.25,
146,3.39,0.497,-999.25,132.04,-0.028,8.96,0,5.96,1.861,-999.25,-999.25,
146.5,3.37,0.51,-999.25,124,-0.037,9.25,0,5.96,1.838,-999.25,-999.25,
147,3.37,0.519,-999.25,122.65,-0.035,9.32,0,5.96,1.823,-999.25,-999.25,
147.5,3.37,0.538,-999.25,129.42,-0.034,9.36,0,5.96,1.79,-999.25,-999.25,
148,3.42,0.539,-999.25,139.34,-0.036,9.12,0,5.96,1.788,-999.25,-999.25,
148.5,3.39,0.545,-999.25,156.27,-0.035,9.09,0,5.96,1.777,-999.25,-999.25,
149,3.39,0.539,-999.25,153.09,-0.034,9.14,0,5.96,1.788,-999.25,-999.25,
149.5,3.42,0.532,-999.25,144.97,-0.043,9.23,0,5.96,1.8,-999.25,-999.25,
150,3.37,0.531,-999.25,134.81,-0.032,9.25,0,5.96,1.802,-999.25,-999.25,
150.5,3.39,0.533,-999.25,137.31,-0.027,9.24,0,5.96,1.799,-999.25,-999.25,
151,3.37,0.54,-999.25,133.5,-0.035,9.18,0,5.96,1.787,-999.25,-999.25,
151.5,3.37,0.538,-999.25,118.6,-0.035,9.22,0,5.96,1.79,-999.25,-999.25,
152,3.37,0.537,-999.25,104.38,-0.033,9.24,0,5.96,1.791,-999.25,-999.25,
152.5,3.42,0.535,-999.25,102.77,-0.037,9.26,0,5.96,1.796,-999.25,-999.25,
153,3.39,0.534,-999.25,97.36,-0.032,9.24,0,5.96,1.796,-999.25,-999.25,
153.5,3.39,0.549,-999.25,96.35,-0.034,9.39,0,5.96,1.772,-999.25,-999.25,
154,3.37,0.55,-999.25,97.7,-0.029,9.65,0,5.96,1.736,-999.25,-999.25,
154.5,3.37,0.55,-999.25,94.99,-0.037,9.89,0,5.96,1.696,-999.25,-999.25,
155,3.39,0.55,-999.25,97.36,-0.056,9.92,0,5.96,1.682,-999.25,-999.25,
155.5,3.39,0.55,-999.25,92.92,-0.023,9.68,0,5.96,1.698,-999.25,-999.25,
156,3.4,0.55,-999.25,93.6,0.758,9.38,0,5.96,1.715,-999.25,-999.25,
156.5,3.37,0.55,-999.25,92.92,0.846,9.11,0,5.96,1.743,-999.25,-999.25,
157,3.39,0.55,-999.25,89.91,0.339,9.15,0,5.96,1.724,-999.25,-999.25,
157.5,3.37,0.547,-999.25,89.23,0.311,9.23,0,5.96,1.774,-999.25,-999.25,
158,3.38,0.447,-999.25,97.6,0.351,9.02,0.402,5.96,1.946,-999.25,-999.25,
158.5,3.38,0.37,-999.25,87.44,0.336,8.35,0.353,5.96,2.078,-999.25,-999.25,
159,3.38,0.345,-999.25,86.77,0.287,7.54,0.317,5.96,2.121,-999.25,-999.25,
159.5,3.37,0.395,-999.25,72.02,0.32,7.01,0.359,5.96,2.034,-999.25,-999.25,
160,3.37,0.393,-999.25,80.14,0.281,6.81,0.342,5.96,2.037,-999.25,-999.25,
160.5,3.39,0.381,-999.25,86.91,0.347,6.81,0.364,5.96,2.058,-999.25,-999.25,
161,3.39,0.381,-999.25,88.56,0.432,6.83,0.407,5.96,2.059,-999.25,-999.25,
161.5,3.37,0.397,-999.25,85.85,0.33,6.9,0.365,5.96,2.031,-999.25,-999.25,
162,3.39,0.41,-999.25,83.82,0.344,6.92,0.378,5.96,2.008,-999.25,-999.25,
162.5,3.37,0.415,-999.25,93.57,0.342,6.91,0.38,5.96,2,-999.25,-999.25,
163,3.37,0.415,-999.25,95.6,0.281,6.83,0,5.96,2.001,-999.25,-999.25,
163.5,3.42,0.414,-999.25,92.89,0.359,6.75,0.387,5.96,2.003,-999.25,-999.25,
164,3.39,0.413,-999.25,81.5,0.36,6.7,0.387,5.96,2.004,-999.25,-999.25,
164.5,3.39,0.415,-999.25,84.88,0.252,6.71,0,5.96,2,-999.25,-999.25,
165,3.42,0.417,-999.25,95.04,0.2,6.76,0,5.96,1.997,-999.25,-999.25,
165.5,3.39,0.411,-999.25,101.42,0.19,6.8,0,5.96,2.007,-999.25,-999.25,
166,3.39,0.4,-999.25,102.1,0.148,6.83,0,5.96,2.026,-999.25,-999.25,
166.5,3.37,0.396,-999.25,87.88,0.146,6.85,0,5.96,2.033,-999.25,-999.25,
167,3.37,0.399,-999.25,76.13,0.138,6.87,0,5.96,2.028,-999.25,-999.25,
167.5,3.37,0.398,-999.25,73.42,0.158,6.86,0,5.96,2.03,-999.25,-999.25,
168,3.39,0.38,-999.25,78.84,0.215,6.79,0,5.96,2.059,-999.25,-999.25,
168.5,3.37,0.36,-999.25,87.56,0.167,6.7,0,5.96,2.095,-999.25,-999.25,
169,3.39,0.348,-999.25,84.17,0.111,6.63,0,5.96,2.115,-999.25,-999.25,
169.5,3.37,0.342,-999.25,80.11,0.09,6.59,0,5.96,2.126,-999.25,-999.25,
170,3.39,0.332,-999.25,74.34,0.087,6.59,0,5.96,2.143,-999.25,-999.25,
170.5,3.39,0.325,-999.25,80.43,0.091,6.6,0,5.96,2.154,-999.25,-999.25,
171,3.39,0.33,-999.25,82.46,0.083,6.64,0,5.96,2.146,-999.25,-999.25,
171.5,3.39,0.345,-999.25,81.53,0.136,6.7,0,5.96,2.12,-999.25,-999.25,
172,3.42,0.359,-999.25,74.76,0.106,6.76,0,5.96,2.096,-999.25,-999.25,
172.5,3.37,0.368,-999.25,74.76,0.135,6.78,0,5.96,2.081,-999.25,-999.25,
173,3.39,0.377,-999.25,75.43,0.137,6.72,0,5.96,2.065,-999.25,-999.25,
173.5,3.37,0.379,-999.25,80.17,0.119,6.71,0,5.96,2.063,-999.25,-999.25,
174,3.39,0.38,-999.25,73.4,0.115,6.72,0,5.96,2.06,-999.25,-999.25,
174.5,3.42,0.381,-999.25,81.11,0.138,6.75,0,5.96,2.058,-999.25,-999.25,
175,3.37,0.381,-999.25,73.66,0.22,6.77,0,5.96,2.058,-999.25,-999.25,
175.5,3.37,0.38,-999.25,78.78,0.197,6.8,0,5.96,2.061,-999.25,-999.25,
176,3.37,0.371,-999.25,77.43,0.279,6.87,0.328,5.96,2.076,-999.25,-999.25,
176.5,3.39,0.37,-999.25,77.43,0.31,6.91,0.341,5.96,2.077,-999.25,-999.25,
177,3.39,0.366,-999.25,69.66,0.307,6.91,0.338,5.96,2.085,-999.25,-999.25,
177.5,3.39,0.348,-999.25,62.42,0.388,6.87,0.369,5.96,2.116,-999.25,-999.25,
178,3.37,0.315,-999.25,59.71,0.345,6.78,0.33,5.96,2.171,-999.25,-999.25,
178.5,3.42,0.304,-999.25,56.94,0.322,6.66,0.313,5.96,2.191,-999.25,-999.25,
179,3.39,0.325,-999.25,55.93,0.276,6.53,0.301,5.96,2.153,-999.25,-999.25,
179.5,3.39,0.362,-999.25,49.84,0.377,6.48,0.37,5.96,2.092,-999.25,-999.25,
180,3.39,0.383,-999.25,54.58,0.411,6.54,0.397,5.96,2.055,-999.25,-999.25,
180.5,3.39,0.388,-999.25,60.8,0.688,6.66,0.559,5.96,2.046,-999.25,-999.25,
181,3.39,0.387,-999.25,64.86,0.757,6.73,0.601,5.96,2.049,-999.25,-999.25,
181.5,3.37,0.385,-999.25,65.29,0.658,6.71,0.539,5.96,2.051,-999.25,-999.25,
182,3.42,0.385,-999.25,55.81,0.456,6.71,0.422,5.96,2.051,-999.25,-999.25,
182.5,3.42,0.386,-999.25,59.2,0.473,6.7,0.432,5.96,2.049,-999.25,-999.25,
183,3.42,0.388,-999.25,61.88,1.04,6.73,0.785,5.96,2.047,-999.25,-999.25,
183.5,3.39,0.392,-999.25,62.56,1.192,6.67,0.887,5.96,2.04,-999.25,-999.25,
184,3.39,0.393,-999.25,60.53,1.091,6.65,0.82,5.96,2.037,-999.25,-999.25,
184.5,3.37,0.394,-999.25,55.38,0.556,6.66,0.482,5.96,2.036,-999.25,-999.25,
185,3.39,0.391,-999.25,61.47,0.58,6.74,0.495,5.96,2.041,-999.25,-999.25,
185.5,3.39,0.391,-999.25,58.76,0.645,6.84,0.533,5.96,2.042,-999.25,-999.25,
186,3.37,0.385,-999.25,58.55,0.586,6.91,0.496,5.96,2.051,-999.25,-999.25,
186.5,3.37,0.384,-999.25,55.16,0.582,6.93,0.493,5.96,2.053,-999.25,-999.25,
187,3.37,0.379,-999.25,58.55,0.568,6.93,0.483,5.96,2.061,-999.25,-999.25,
187.5,3.37,0.383,-999.25,54.53,0.658,6.91,0.538,5.96,2.055,-999.25,-999.25,
188,3.39,0.379,-999.25,48.43,0.829,6.89,0.645,5.96,2.062,-999.25,-999.25,
188.5,3.37,0.375,-999.25,55.88,1.103,6.89,0.824,5.96,2.069,-999.25,-999.25,
189,3.37,0.366,-999.25,66.75,1.228,6.89,0.906,5.96,2.085,-999.25,-999.25,
189.5,3.39,0.366,-999.25,74.2,1.465,6.91,1.068,5.96,2.085,-999.25,-999.25,
190,3.39,0.369,-999.25,62.01,0.716,6.92,0.57,5.96,2.079,-999.25,-999.25,
190.5,3.37,0.379,-999.25,59.44,0.506,6.93,0.447,5.96,2.061,-999.25,-999.25,
191,3.37,0.387,-999.25,66.21,0.403,6.92,0.395,5.96,2.048,-999.25,-999.25,
191.5,3.39,0.393,-999.25,67.36,0.445,6.87,0.42,5.96,2.038,-999.25,-999.25,
192,3.39,0.389,-999.25,68.72,0.749,6.79,0.597,5.96,2.044,-999.25,-999.25,
192.5,3.39,0.39,-999.25,63.98,0.622,6.77,0.519,5.96,2.043,-999.25,-999.25,
193,3.39,0.393,-999.25,65.99,0.964,6.78,0.736,5.96,2.037,-999.25,-999.25,
193.5,3.39,0.405,-999.25,61.25,1.193,6.84,0.891,5.96,2.017,-999.25,-999.25,
194,3.37,0.413,-999.25,52.45,0.797,6.91,0.635,5.96,2.004,-999.25,-999.25,
194.5,3.39,0.42,-999.25,48.61,0.679,6.97,0.565,5.96,1.991,-999.25,-999.25,
195,3.39,0.428,-999.25,45.22,0.913,7.02,0.713,5.96,1.978,-999.25,-999.25,
195.5,3.37,0.426,-999.25,43.87,1.63,7.01,1.191,5.96,1.981,-999.25,-999.25,
196,3.39,0.409,-999.25,46.3,1.108,6.99,0.835,5.96,2.01,-999.25,-999.25,
196.5,3.37,0.387,-999.25,57.66,0.656,6.96,0.539,5.96,2.049,-999.25,-999.25,
197,3.37,0.373,-999.25,68.5,0.886,6.97,0.68,5.96,2.073,-999.25,-999.25,
197.5,3.39,0.372,-999.25,69.9,0.73,6.99,0.579,5.96,2.074,-999.25,-999.25,
198,3.39,0.376,-999.25,67.07,0.566,6.94,0.48,5.96,2.068,-999.25,-999.25,
198.5,3.37,0.373,-999.25,67.07,0.451,6.87,0.414,5.96,2.072,-999.25,-999.25,
199,3.39,0.36,-999.25,71.77,0.456,6.81,0.411,5.96,2.095,-999.25,-999.25,
199.5,3.39,0.349,-999.25,72.71,0.639,6.84,0.515,5.96,2.113,-999.25,-999.25,
200,3.42,0.347,-999.25,73.39,0.53,6.88,0.448,5.96,2.117,-999.25,-999.25,
200.5,3.39,0.351,-999.25,76.37,0.546,6.89,0.459,5.96,2.109,-999.25,-999.25,
201,3.37,0.356,-999.25,82.46,0.867,6.88,0.663,5.96,2.102,-999.25,-999.25,
201.5,3.39,0.357,-999.25,91.56,0.611,6.86,0.5,5.96,2.099,-999.25,-999.25,
202,3.42,0.357,-999.25,94.94,0.467,6.86,0.416,5.96,2.099,-999.25,-999.25,
202.5,3.37,0.348,-999.25,84.11,0.56,6.84,0.466,5.96,2.115,-999.25,-999.25,
203,3.37,0.34,-999.25,79.08,0.629,6.81,0.506,5.96,2.128,-999.25,-999.25,
203.5,3.37,0.341,-999.25,68.69,0.42,6.78,0.383,5.96,2.128,-999.25,-999.25,
204,3.37,0.344,-999.25,82.91,0.487,6.77,0.422,5.96,2.122,-999.25,-999.25,
204.5,3.39,0.349,-999.25,80.88,0.492,6.76,0.427,5.96,2.114,-999.25,-999.25,
205,3.39,0.357,-999.25,81.78,0.655,6.73,0.527,5.96,2.1,-999.25,-999.25,
205.5,3.37,0.361,-999.25,74.34,0.475,6.72,0.422,5.96,2.093,-999.25,-999.25,
206,3.37,0.357,-999.25,72.02,0.555,6.7,0.467,5.96,2.099,-999.25,-999.25,
206.5,3.37,0.348,-999.25,70.66,0.341,6.67,0.345,5.96,2.116,-999.25,-999.25,
207,3.42,0.346,-999.25,68.7,0.468,6.62,0.412,5.96,2.118,-999.25,-999.25,
207.5,3.37,0.346,-999.25,64.01,0.441,6.61,0.396,5.96,2.119,-999.25,-999.25,
208,3.37,0.339,-999.25,71.46,0.5,6.63,0.427,5.96,2.13,-999.25,-999.25,
208.5,3.42,0.33,-999.25,74.1,0.611,6.65,0.491,5.96,2.146,-999.25,-999.25,
209,3.39,0.326,-999.25,76.78,0.73,6.65,0.565,5.96,2.152,-999.25,-999.25,
209.5,3.37,0.328,-999.25,75.42,0.598,6.64,0.482,5.96,2.15,-999.25,-999.25,
210,3.37,0.33,-999.25,78.81,0.591,6.68,0.479,5.96,2.146,-999.25,-999.25,
210.5,3.39,0.335,-999.25,73.66,0.47,6.74,0.408,5.96,2.137,-999.25,-999.25,
211,3.39,0.343,-999.25,70.27,0.465,6.76,0.409,5.96,2.123,-999.25,-999.25,
211.5,3.37,0.348,-999.25,60.8,0.496,6.73,0.428,5.96,2.115,-999.25,-999.25,
212,3.39,0.345,-999.25,72.65,0.574,6.71,0.474,5.96,2.12,-999.25,-999.25,
212.5,3.37,0.346,-999.25,77.39,0.428,6.76,0.389,5.96,2.119,-999.25,-999.25,
213,3.39,0.348,-999.25,78.74,0.585,6.86,0.481,5.96,2.114,-999.25,-999.25,
213.5,3.37,0.347,-999.25,71.37,0.683,6.89,0.542,5.96,2.116,-999.25,-999.25,
214,3.37,0.339,-999.25,69.34,0.56,6.89,0.463,5.96,2.131,-999.25,-999.25,
214.5,3.37,0.334,-999.25,65.95,0.847,6.91,0.644,5.96,2.139,-999.25,-999.25,
215,3.37,0.337,-999.25,66.89,0.571,6.96,0.469,5.96,2.134,-999.25,-999.25,
215.5,3.37,0.344,-999.25,66.21,0.521,6.99,0.441,5.96,2.121,-999.25,-999.25,
216,3.37,0.35,-999.25,70.68,0.538,7,0.454,5.96,2.111,-999.25,-999.25,
216.5,3.37,0.349,-999.25,66.61,0.592,6.96,0.486,5.96,2.113,-999.25,-999.25,
217,3.39,0.341,-999.25,64.98,0.563,6.9,0.465,5.96,2.127,-999.25,-999.25,
217.5,3.37,0.33,-999.25,67.67,0.6,6.85,0.484,5.96,2.147,-999.25,-999.25,
218,3.39,0.317,-999.25,79.18,0.368,6.82,0.343,5.96,2.169,-999.25,-999.25,
218.5,3.37,0.312,-999.25,80.81,0.357,6.81,0.335,5.96,2.176,-999.25,-999.25,
219,3.39,0.303,-999.25,82.82,0.585,6.8,0.466,5.96,2.192,-999.25,-999.25,
219.5,3.39,0.286,-999.25,69.28,0.839,6.79,0.627,5.96,2.22,-999.25,-999.25,
220,3.39,0.26,-999.25,71.98,0.803,6.73,0.597,5.96,2.265,-999.25,-999.25,
220.5,3.37,0.254,-999.25,56.05,0.777,6.56,0.578,5.96,2.276,-999.25,-999.25,
221,3.37,0.285,-999.25,63.5,0.535,6.37,0.429,5.96,2.223,-999.25,-999.25,
221.5,3.37,0.32,-999.25,68.24,0.534,6.32,0.44,5.96,2.162,-999.25,-999.25,
222,3.39,0.337,-999.25,78.81,0.754,6.39,0.584,5.96,2.133,-999.25,-999.25,
222.5,3.42,0.333,-999.25,81.52,0.878,6.52,0.664,5.96,2.141,-999.25,-999.25,
223,3.37,0.333,-999.25,78.13,0.616,6.57,0.495,5.96,2.14,-999.25,-999.25,
223.5,3.39,0.341,-999.25,82.15,0.822,6.57,0.629,5.96,2.127,-999.25,-999.25,
224,3.37,0.347,-999.25,78.77,0.672,6.51,0.535,5.96,2.117,-999.25,-999.25,
224.5,3.39,0.351,-999.25,73.35,0.555,6.44,0.464,5.96,2.11,-999.25,-999.25,
225,3.39,0.357,-999.25,69.6,0.844,6.37,0.648,5.96,2.1,-999.25,-999.25,
225.5,3.42,0.363,-999.25,68.24,0.892,6.33,0.681,5.96,2.089,-999.25,-999.25,
226,3.39,0.368,-999.25,72.31,0.545,6.31,0.465,5.96,2.081,-999.25,-999.25,
226.5,3.37,0.369,-999.25,76.06,0.377,6.31,0.373,5.96,2.078,-999.25,-999.25,
227,3.39,0.371,-999.25,78.09,0.433,6.36,0.403,5.96,2.076,-999.25,-999.25,
227.5,3.39,0.371,-999.25,77.61,0.526,6.41,0.455,5.96,2.075,-999.25,-999.25,
228,3.37,0.369,-999.25,73.17,0.648,6.5,0.527,5.96,2.079,-999.25,-999.25,
228.5,3.37,0.369,-999.25,73.85,0.522,6.54,0.452,5.96,2.08,-999.25,-999.25,
229,3.37,0.365,-999.25,75.69,0.574,6.57,0.481,5.96,2.085,-999.25,-999.25,
229.5,3.42,0.36,-999.25,76.77,0.586,6.55,0.486,5.96,2.095,-999.25,-999.25,
230,3.39,0.353,-999.25,72.71,0.403,6.54,0.379,5.96,2.107,-999.25,-999.25,
230.5,3.37,0.352,-999.25,74.06,0.409,6.56,0.382,5.96,2.108,-999.25,-999.25,
231,3.37,0.354,-999.25,72.31,0.437,6.61,0.398,5.96,2.105,-999.25,-999.25,
231.5,3.39,0.356,-999.25,79.08,0.545,6.67,0.46,5.96,2.101,-999.25,-999.25,
232,3.37,0.358,-999.25,75.4,0.633,6.73,0.514,5.96,2.098,-999.25,-999.25,
232.5,3.39,0.362,-999.25,78.11,0.741,6.75,0.583,5.96,2.091,-999.25,-999.25,
233,3.39,0.367,-999.25,76.08,0.831,6.8,0.642,5.96,2.082,-999.25,-999.25,
233.5,3.39,0.368,-999.25,75.01,0.748,6.83,0.589,5.96,2.081,-999.25,-999.25,
234,3.42,0.364,-999.25,84.12,0.641,6.85,0.521,5.96,2.088,-999.25,-999.25,
234.5,3.37,0.358,-999.25,84.12,0.554,6.88,0.466,5.96,2.098,-999.25,-999.25,
235,3.39,0.36,-999.25,84.15,0.618,6.89,0.506,5.96,2.095,-999.25,-999.25,
235.5,3.39,0.365,-999.25,65.56,0.556,6.94,0.47,5.96,2.086,-999.25,-999.25,
236,3.37,0.367,-999.25,70.3,0.664,6.95,0.536,5.96,2.082,-999.25,-999.25,
236.5,3.39,0.359,-999.25,75.01,0.527,6.98,0.451,5.96,2.097,-999.25,-999.25,
237,3.39,0.35,-999.25,79.08,0.629,7,0.509,5.96,2.112,-999.25,-999.25,
237.5,3.39,0.352,-999.25,76.37,0.686,7.04,0.545,5.96,2.108,-999.25,-999.25,
238,3.37,0.362,-999.25,71.35,0.789,7.02,0.614,5.96,2.091,-999.25,-999.25,
238.5,3.39,0.37,-999.25,83.54,0.463,7.03,0.419,5.96,2.078,-999.25,-999.25,
239,3.37,0.373,-999.25,74.74,0.478,7.02,0.429,5.96,2.072,-999.25,-999.25,
239.5,3.39,0.363,-999.25,75.41,0.474,7.01,0.422,5.96,2.089,-999.25,-999.25,
240,3.37,0.353,-999.25,63.22,0.611,6.99,0.499,5.96,2.106,-999.25,-999.25,
240.5,3.37,0.342,-999.25,68.64,0.671,6.96,0.533,5.96,2.125,-999.25,-999.25,
241,3.37,0.338,-999.25,68.92,0.973,6.94,0.728,5.96,2.133,-999.25,-999.25,
241.5,3.39,0.344,-999.25,82.46,0.71,6.92,0.558,5.96,2.123,-999.25,-999.25,
242,3.39,0.346,-999.25,82.85,1.146,6.86,0.846,5.96,2.119,-999.25,-999.25,
242.5,3.42,0.35,-999.25,91.65,1.016,6.8,0.76,5.96,2.112,-999.25,-999.25,
243,3.37,0.349,-999.25,81.5,0.793,6.74,0.613,5.96,2.113,-999.25,-999.25,
243.5,3.37,0.353,-999.25,89.91,0.538,6.68,0.455,5.96,2.106,-999.25,-999.25,
244,3.42,0.357,-999.25,83.51,0.864,6.63,0.661,5.96,2.099,-999.25,-999.25,
244.5,3.37,0.356,-999.25,80.01,0.62,6.57,0.506,5.96,2.101,-999.25,-999.25,
245,3.39,0.352,-999.25,70.93,0.48,6.56,0.421,5.96,2.108,-999.25,-999.25,
245.5,3.39,0.357,-999.25,69.2,0.529,6.59,0.451,5.96,2.099,-999.25,-999.25,
246,3.39,0.363,-999.25,80.15,0.675,6.64,0.542,5.96,2.089,-999.25,-999.25,
246.5,3.39,0.363,-999.25,81.11,0.467,6.66,0.418,5.96,2.089,-999.25,-999.25,
247,3.39,0.356,-999.25,74.34,0.5,6.66,0.434,5.96,2.101,-999.25,-999.25,
247.5,3.37,0.352,-999.25,68.92,0.498,6.65,0.431,5.96,2.108,-999.25,-999.25,
248,3.39,0.357,-999.25,69.97,0.719,6.59,0.568,5.96,2.099,-999.25,-999.25,
248.5,3.39,0.361,-999.25,69.3,0.481,6.53,0.425,5.96,2.093,-999.25,-999.25,
249,3.37,0.355,-999.25,74.71,0.474,6.49,0.419,5.96,2.102,-999.25,-999.25,
249.5,3.39,0.345,-999.25,74.04,0.507,6.47,0.434,5.96,2.12,-999.25,-999.25,
250,3.37,0.34,-999.25,87.58,0.535,6.49,0.448,5.96,2.128,-999.25,-999.25,
250.5,3.39,0.341,-999.25,79.69,0.603,6.54,0.49,5.96,2.128,-999.25,-999.25,
251,3.39,0.342,-999.25,86.4,0.493,6.61,0.424,5.96,2.126,-999.25,-999.25,
251.5,3.37,0.339,-999.25,81.66,0.536,6.64,0.448,5.96,2.13,-999.25,-999.25,
252,3.39,0.34,-999.25,83.45,0.471,6.64,0.411,5.96,2.129,-999.25,-999.25,
252.5,3.39,0.344,-999.25,77.05,0.697,6.65,0.55,5.96,2.121,-999.25,-999.25,
253,3.37,0.352,-999.25,66.89,0.492,6.69,0.428,5.96,2.109,-999.25,-999.25,
253.5,3.39,0.355,-999.25,69.97,0.56,6.74,0.469,5.96,2.103,-999.25,-999.25,
254,3.37,0.353,-999.25,68.61,0.473,6.8,0.417,5.96,2.107,-999.25,-999.25,
254.5,3.37,0.345,-999.25,78.77,0.519,6.78,0.441,5.96,2.121,-999.25,-999.25,
255,3.39,0.339,-999.25,74.34,0.899,6.77,0.679,5.96,2.13,-999.25,-999.25,
255.5,3.37,0.337,-999.25,81.43,0.884,6.78,0.669,5.96,2.134,-999.25,-999.25,
256,3.37,0.331,-999.25,77.37,0.529,6.85,0.441,5.96,2.144,-999.25,-999.25,
256.5,3.37,0.332,-999.25,74.66,0.387,6.92,0.361,5.96,2.142,-999.25,-999.25,
257,3.37,0.331,-999.25,65.53,0.359,6.97,0.345,5.96,2.145,-999.25,-999.25,
257.5,3.39,0.336,-999.25,70.27,0.448,6.97,0.396,5.96,2.136,-999.25,-999.25,
258,3.39,0.333,-999.25,75.4,0.588,6.95,0.478,5.96,2.14,-999.25,-999.25,
258.5,3.37,0.331,-999.25,84.88,0.768,6.91,0.591,5.96,2.144,-999.25,-999.25,
259,3.37,0.33,-999.25,80.72,0.774,6.88,0.595,5.96,2.146,-999.25,-999.25,
259.5,3.39,0.328,-999.25,79.38,0.459,6.84,0.399,5.96,2.149,-999.25,-999.25,
260,3.39,0.335,-999.25,71.25,0.55,6.8,0.455,5.96,2.137,-999.25,-999.25,
260.5,3.39,0.336,-999.25,67.29,0.458,6.76,0.402,5.96,2.135,-999.25,-999.25,
261,3.37,0.341,-999.25,67.96,0.416,6.7,0.38,5.96,2.127,-999.25,-999.25,
261.5,3.37,0.326,-999.25,70.67,0.532,6.68,0.441,5.96,2.153,-999.25,-999.25,
262,3.37,0.306,-999.25,73.38,0.686,6.63,0.531,5.96,2.186,-999.25,-999.25,
262.5,3.37,0.29,-999.25,72.31,0.514,6.57,0.417,5.96,2.215,-999.25,-999.25,
263,3.37,0.311,-999.25,64.86,0.494,6.48,0.413,5.96,2.178,-999.25,-999.25,
263.5,3.39,0.341,-999.25,72.31,0.487,6.4,0.42,5.96,2.126,-999.25,-999.25,
264,3.39,0.368,-999.25,83.43,0.491,6.43,0.434,5.96,2.081,-999.25,-999.25,
264.5,3.37,0.371,-999.25,89.53,0.401,6.57,0.386,5.96,2.075,-999.25,-999.25,
265,3.39,0.374,-999.25,84.79,0.404,6.78,0.389,5.96,2.07,-999.25,-999.25,
265.5,3.39,0.375,-999.25,81.44,0.623,6.93,0.514,5.96,2.069,-999.25,-999.25,
266,3.37,0.373,-999.25,83.47,0.837,6.97,0.648,5.96,2.072,-999.25,-999.25,
266.5,3.39,0.367,-999.25,80.76,1.305,7,0.959,5.96,2.083,-999.25,-999.25,
267,3.39,0.361,-999.25,72.31,1.118,7.02,0.831,5.96,2.093,-999.25,-999.25,
267.5,3.42,0.357,-999.25,69.6,0.765,7.04,0.597,5.96,2.1,-999.25,-999.25,
268,3.39,0.353,-999.25,70.01,0.537,7.06,0.454,5.96,2.107,-999.25,-999.25,
268.5,3.37,0.351,-999.25,70.01,0.604,7.09,0.494,5.96,2.11,-999.25,-999.25,
269,3.37,0.352,-999.25,71.1,0.596,7.12,0.489,5.96,2.108,-999.25,-999.25,
269.5,3.39,0.359,-999.25,80.49,0.426,7.11,0.394,5.96,2.096,-999.25,-999.25,
270,3.37,0.362,-999.25,75.75,0.43,7.09,0.397,5.96,2.091,-999.25,-999.25,
270.5,3.39,0.36,-999.25,63.82,0.439,7.09,0.401,5.96,2.095,-999.25,-999.25,
271,3.39,0.352,-999.25,61.14,0.509,7.1,0.438,5.96,2.107,-999.25,-999.25,
271.5,3.37,0.355,-999.25,67.24,0.48,7.05,0.422,5.96,2.103,-999.25,-999.25,
272,3.37,0.363,-999.25,74.01,0.51,6.99,0.443,5.96,2.089,-999.25,-999.25,
272.5,3.37,0.372,-999.25,73.66,0.453,6.93,0.414,5.96,2.075,-999.25,-999.25,
273,3.37,0.374,-999.25,75.69,0.501,6.92,0.442,5.96,2.07,-999.25,-999.25,
273.5,3.37,0.371,-999.25,85.85,0.547,6.91,0.467,5.96,2.076,-999.25,-999.25,
274,3.42,0.365,-999.25,76.81,0.747,6.93,0.588,5.96,2.086,-999.25,-999.25,
274.5,3.39,0.359,-999.25,76.81,0.824,6.97,0.636,5.96,2.096,-999.25,-999.25,
275,3.39,0.351,-999.25,61.24,0.577,7.03,0.478,5.96,2.109,-999.25,-999.25,
275.5,3.37,0.351,-999.25,60.57,0.523,7.09,0.445,5.96,2.11,-999.25,-999.25,
276,3.39,0.347,-999.25,58.54,0.478,7.14,0.418,5.96,2.117,-999.25,-999.25,
276.5,3.39,0.347,-999.25,61.47,0.57,7.17,0.472,5.96,2.117,-999.25,-999.25,
277,3.37,0.344,-999.25,68.84,0.483,7.17,0.419,5.96,2.122,-999.25,-999.25,
277.5,3.39,0.338,-999.25,70.2,0.519,7.16,0.438,5.96,2.132,-999.25,-999.25,
278,3.39,0.341,-999.25,82.84,0.624,7.15,0.503,5.96,2.127,-999.25,-999.25,
278.5,3.37,0.344,-999.25,79.75,0.661,7.15,0.527,5.96,2.121,-999.25,-999.25,
279,3.37,0.353,-999.25,83.99,0.724,7.16,0.57,5.96,2.107,-999.25,-999.25,
279.5,3.37,0.349,-999.25,79.93,0.751,7.14,0.586,5.96,2.114,-999.25,-999.25,
280,3.37,0.348,-999.25,88.72,0.504,7.11,0.433,5.96,2.115,-999.25,-999.25,
280.5,3.39,0.346,-999.25,75,0.492,7.09,0.425,5.96,2.118,-999.25,-999.25,
281,3.37,0.346,-999.25,70.26,0.517,7.03,0.44,5.96,2.119,-999.25,-999.25,
281.5,3.37,0.344,-999.25,65.23,0.386,6.95,0.366,5.96,2.121,-999.25,-999.25,
282,3.37,0.343,-999.25,68.61,0.419,6.84,0.383,5.96,2.124,-999.25,-999.25,
282.5,3.37,0.346,-999.25,73.35,0.603,6.75,0.492,5.96,2.118,-999.25,-999.25,
283,3.39,0.345,-999.25,70.95,0.41,6.68,0.379,5.96,2.12,-999.25,-999.25,
283.5,3.39,0.349,-999.25,77.72,0.396,6.62,0.373,5.96,2.113,-999.25,-999.25,
284,3.37,0.353,-999.25,82.78,0.674,6.53,0.538,5.96,2.106,-999.25,-999.25,
284.5,3.39,0.364,-999.25,78.72,0.595,6.45,0.493,5.96,2.088,-999.25,-999.25,
285,3.39,0.368,-999.25,85.49,0.845,6.43,0.652,5.96,2.081,-999.25,-999.25,
285.5,3.37,0.37,-999.25,87.2,0.464,6.48,0.42,5.96,2.077,-999.25,-999.25,
286,3.39,0.368,-999.25,90.31,0.404,6.57,0.386,5.96,2.08,-999.25,-999.25,
286.5,3.39,0.365,-999.25,83.28,0.436,6.65,0.402,5.96,2.085,-999.25,-999.25,
287,3.37,0.363,-999.25,73.52,0.667,6.73,0.537,5.96,2.089,-999.25,-999.25,
287.5,3.37,0.361,-999.25,72.44,0.574,6.78,0.479,5.96,2.093,-999.25,-999.25,
288,3.37,0.36,-999.25,67.29,0.707,6.76,0.561,5.96,2.094,-999.25,-999.25,
288.5,3.37,0.358,-999.25,70.95,0.531,6.74,0.453,5.96,2.098,-999.25,-999.25,
289,3.39,0.351,-999.25,70.82,0.625,6.74,0.507,5.96,2.11,-999.25,-999.25,
289.5,3.37,0.35,-999.25,80.98,0.648,6.77,0.521,5.96,2.112,-999.25,-999.25,
290,3.39,0.348,-999.25,76.1,0.93,6.79,0.702,5.96,2.115,-999.25,-999.25,
290.5,3.37,0.355,-999.25,75.56,0.817,6.84,0.63,5.96,2.102,-999.25,-999.25,
291,3.37,0.356,-999.25,68.11,0.96,6.85,0.724,5.96,2.101,-999.25,-999.25,
291.5,3.37,0.358,-999.25,69.32,0.683,6.86,0.545,5.96,2.098,-999.25,-999.25,
292,3.39,0.356,-999.25,74.74,0.583,6.84,0.483,5.96,2.102,-999.25,-999.25,
292.5,3.37,0.358,-999.25,75.42,0.634,6.83,0.515,5.96,2.098,-999.25,-999.25,
293,3.39,0.359,-999.25,74.34,0.528,6.8,0.451,5.96,2.096,-999.25,-999.25,
293.5,3.39,0.361,-999.25,77.72,0.783,6.75,0.61,5.96,2.092,-999.25,-999.25,
294,3.37,0.36,-999.25,78.12,0.619,6.68,0.506,5.96,2.095,-999.25,-999.25,
294.5,3.39,0.362,-999.25,80.15,0.653,6.62,0.528,5.96,2.091,-999.25,-999.25,
295,3.37,0.364,-999.25,79.47,0.582,6.63,0.485,5.96,2.087,-999.25,-999.25,
295.5,3.39,0.364,-999.25,72.98,0.648,6.68,0.526,5.96,2.088,-999.25,-999.25,
296,3.39,0.363,-999.25,69.35,0.576,6.78,0.481,5.96,2.09,-999.25,-999.25,
296.5,3.39,0.36,-999.25,65.53,0.628,6.86,0.512,5.96,2.094,-999.25,-999.25,
297,3.37,0.354,-999.25,72.69,0.552,6.91,0.464,5.96,2.105,-999.25,-999.25,
297.5,3.37,0.343,-999.25,76.32,0.487,6.97,0.421,5.96,2.123,-999.25,-999.25,
298,3.37,0.336,-999.25,80.14,0.678,7.03,0.535,5.96,2.135,-999.25,-999.25,
298.5,3.39,0.334,-999.25,81.78,0.657,7.1,0.521,5.96,2.139,-999.25,-999.25,
299,3.37,0.337,-999.25,79.08,0.691,7.13,0.544,5.96,2.133,-999.25,-999.25,
299.5,3.39,0.339,-999.25,80.43,0.697,7.13,0.548,5.96,2.131,-999.25,-999.25,
300,3.39,0.343,-999.25,86.83,0.698,7.13,0.55,5.96,2.124,-999.25,-999.25,
300.5,3.37,0.341,-999.25,90.22,0.748,7.11,0.581,5.96,2.127,-999.25,-999.25,
301,3.37,0.342,-999.25,84.8,0.734,7.11,0.573,5.96,2.126,-999.25,-999.25,
301.5,3.42,0.351,-999.25,76.09,0.53,7.09,0.45,5.96,2.11,-999.25,-999.25,
302,3.37,0.358,-999.25,69.99,0.491,7.04,0.43,5.96,2.097,-999.25,-999.25,
302.5,3.37,0.361,-999.25,72.7,0.594,6.95,0.492,5.96,2.093,-999.25,-999.25,
303,3.39,0.347,-999.25,73.66,0.408,6.86,0.379,5.96,2.117,-999.25,-999.25,
303.5,3.37,0.326,-999.25,81.11,0.428,6.82,0.38,5.96,2.152,-999.25,-999.25,
304,3.37,0.297,-999.25,73.66,0.443,6.76,0.377,5.96,2.201,-999.25,-999.25,
304.5,3.39,0.275,-999.25,70.02,0.52,6.64,0.416,5.96,2.239,-999.25,-999.25,
305,3.37,0.284,-999.25,67.31,0.445,6.5,0.373,5.96,2.225,-999.25,-999.25,
305.5,3.39,0.318,-999.25,66.63,0.441,6.41,0.384,5.96,2.166,-999.25,-999.25,
306,3.37,0.349,-999.25,71.33,0.517,6.46,0.441,5.96,2.113,-999.25,-999.25,
306.5,3.37,0.358,-999.25,74.62,0.526,6.58,0.45,5.96,2.098,-999.25,-999.25,
307,3.39,0.346,-999.25,86.13,0.598,6.72,0.489,5.96,2.119,-999.25,-999.25,
307.5,3.37,0.334,-999.25,94.18,0.6,6.81,0.486,5.96,2.138,-999.25,-999.25,
308,3.39,0.332,-999.25,92.24,0.511,6.89,0.431,5.96,2.142,-999.25,-999.25,
308.5,3.42,0.341,-999.25,89.53,0.498,6.89,0.427,5.96,2.127,-999.25,-999.25,
309,3.39,0.352,-999.25,83.82,0.42,6.86,0.387,5.96,2.109,-999.25,-999.25,
309.5,3.39,0.353,-999.25,87.88,0.496,6.79,0.43,5.96,2.107,-999.25,-999.25,
310,3.39,0.352,-999.25,76.15,0.534,6.71,0.452,5.96,2.108,-999.25,-999.25,
310.5,3.37,0.351,-999.25,66.67,0.479,6.66,0.42,5.96,2.11,-999.25,-999.25,
311,3.37,0.351,-999.25,63.29,0.496,6.68,0.43,5.96,2.11,-999.25,-999.25,
311.5,3.37,0.351,-999.25,62.15,0.434,6.78,0.395,5.96,2.11,-999.25,-999.25,
312,3.37,0.351,-999.25,62.59,0.574,6.89,0.476,5.96,2.11,-999.25,-999.25,
312.5,3.39,0.36,-999.25,61.24,0.486,6.92,0.428,5.96,2.094,-999.25,-999.25,
313,3.39,0.361,-999.25,68.01,0.492,6.92,0.432,5.96,2.093,-999.25,-999.25,
313.5,3.37,0.363,-999.25,70.27,0.547,6.87,0.464,5.96,2.089,-999.25,-999.25,
314,3.39,0.365,-999.25,77.05,0.779,6.82,0.608,5.96,2.087,-999.25,-999.25,
314.5,3.37,0.373,-999.25,76.11,0.619,6.77,0.511,5.96,2.073,-999.25,-999.25,
315,3.37,0.373,-999.25,76.78,0.544,6.73,0.466,5.96,2.072,-999.25,-999.25,
315.5,3.37,0.364,-999.25,71.37,0.554,6.74,0.469,5.96,2.088,-999.25,-999.25,
316,3.37,0.35,-999.25,74.05,0.601,6.78,0.492,5.96,2.112,-999.25,-999.25,
316.5,3.39,0.345,-999.25,80.82,0.471,6.82,0.413,5.96,2.12,-999.25,-999.25,
317,3.39,0.346,-999.25,80.14,0.6,6.79,0.49,5.96,2.118,-999.25,-999.25,
317.5,3.37,0.356,-999.25,81.63,0.576,6.72,0.479,5.96,2.102,-999.25,-999.25,
318,3.37,0.362,-999.25,74.18,0.367,6.67,0.365,5.96,2.092,-999.25,-999.25,
318.5,3.39,0.365,-999.25,76.89,0.49,6.66,0.432,5.96,2.086,-999.25,-999.25,
319,3.39,0.358,-999.25,77.05,0.701,6.65,0.557,5.96,2.097,-999.25,-999.25,
319.5,3.37,0.353,-999.25,81.78,0.661,6.61,0.53,5.96,2.106,-999.25,-999.25,
320,3.39,0.35,-999.25,74.1,0.458,6.59,0.408,5.96,2.111,-999.25,-999.25,
320.5,3.37,0.353,-999.25,63.26,0.481,6.61,0.422,5.96,2.107,-999.25,-999.25,
321,3.39,0.358,-999.25,61.23,0.928,6.66,0.703,5.96,2.097,-999.25,-999.25,
321.5,3.39,0.362,-999.25,69.6,1.714,6.71,1.239,5.96,2.09,-999.25,-999.25,
322,3.37,0.36,-999.25,73.42,0.893,6.77,0.681,5.96,2.095,-999.25,-999.25,
322.5,3.37,0.353,-999.25,74.1,0.587,6.81,0.484,5.96,2.106,-999.25,-999.25,
323,3.37,0.348,-999.25,70.72,0.481,6.86,0.42,5.96,2.115,-999.25,-999.25,
323.5,3.37,0.347,-999.25,72.98,0.485,6.89,0.422,5.96,2.116,-999.25,-999.25,
324,3.39,0.348,-999.25,71.63,0.572,6.89,0.473,5.96,2.115,-999.25,-999.25,
324.5,3.37,0.353,-999.25,74.69,0.46,6.88,0.41,5.96,2.107,-999.25,-999.25,
325,3.39,0.363,-999.25,79.51,0.457,6.85,0.413,5.96,2.09,-999.25,-999.25,
325.5,3.37,0.37,-999.25,71.38,0.553,6.82,0.47,5.96,2.077,-999.25,-999.25,
326,3.37,0.366,-999.25,66.69,0.612,6.81,0.504,5.96,2.084,-999.25,-999.25,
326.5,3.39,0.358,-999.25,75.56,0.697,6.76,0.554,5.96,2.099,-999.25,-999.25,
327,3.39,0.35,-999.25,86.98,0.505,6.76,0.434,5.96,2.112,-999.25,-999.25,
327.5,3.39,0.35,-999.25,87.65,0.388,6.74,0.369,5.96,2.111,-999.25,-999.25,
328,3.37,0.353,-999.25,89.54,0.479,6.77,0.421,5.96,2.106,-999.25,-999.25,
328.5,3.39,0.353,-999.25,86.24,0.371,6.8,0.362,5.96,2.106,-999.25,-999.25,
329,3.37,0.353,-999.25,87.88,0.472,6.79,0.417,5.96,2.107,-999.25,-999.25,
329.5,3.39,0.353,-999.25,81.11,0.524,6.81,0.447,5.96,2.107,-999.25,-999.25,
330,3.39,0.36,-999.25,85.17,0.746,6.82,0.586,5.96,2.095,-999.25,-999.25,
330.5,3.37,0.365,-999.25,81.52,1.07,6.83,0.799,5.96,2.085,-999.25,-999.25,
331,3.37,0.364,-999.25,79.49,1.101,6.81,0.82,5.96,2.087,-999.25,-999.25,
331.5,3.39,0.358,-999.25,76.11,1.299,6.79,0.953,5.96,2.097,-999.25,-999.25,
332,3.39,0.355,-999.25,80.13,0.888,6.75,0.676,5.96,2.102,-999.25,-999.25,
332.5,3.39,0.354,-999.25,72,0.945,6.73,0.714,5.96,2.104,-999.25,-999.25,
333,3.37,0.357,-999.25,77.42,0.56,6.71,0.47,5.96,2.1,-999.25,-999.25,
333.5,3.39,0.356,-999.25,75.01,0.621,6.74,0.506,5.96,2.101,-999.25,-999.25,
334,3.39,0.358,-999.25,75.01,0.492,6.79,0.43,5.96,2.099,-999.25,-999.25,
334.5,3.37,0.358,-999.25,68.95,0.509,6.82,0.44,5.96,2.097,-999.25,-999.25,
335,3.37,0.357,-999.25,72.34,0.658,6.83,0.529,5.96,2.1,-999.25,-999.25,
335.5,3.39,0.354,-999.25,74.37,0.568,6.81,0.473,5.96,2.104,-999.25,-999.25,
336,3.37,0.349,-999.25,74.73,0.434,6.83,0.394,5.96,2.113,-999.25,-999.25,
336.5,3.37,0.341,-999.25,70.67,0.52,6.83,0.44,5.96,2.126,-999.25,-999.25,
337,3.37,0.334,-999.25,69.32,0.584,6.82,0.476,5.96,2.14,-999.25,-999.25,
337.5,3.39,0.328,-999.25,70.27,0.661,6.8,0.522,5.96,2.149,-999.25,-999.25,
338,3.37,0.333,-999.25,80.06,0.618,6.8,0.496,5.96,2.14,-999.25,-999.25,
338.5,3.37,0.346,-999.25,76,0.622,6.8,0.503,5.96,2.118,-999.25,-999.25,
339,3.37,0.355,-999.25,73.29,0.441,6.79,0.4,5.96,2.104,-999.25,-999.25,
339.5,3.37,0.354,-999.25,68.92,0.4,6.74,0.378,5.96,2.105,-999.25,-999.25,
340,3.37,0.35,-999.25,71.63,0.493,6.69,0.428,5.96,2.112,-999.25,-999.25,
340.5,3.39,0.352,-999.25,74.05,0.498,6.65,0.431,5.96,2.109,-999.25,-999.25,
341,3.39,0.358,-999.25,76.76,0.476,6.68,0.421,5.96,2.098,-999.25,-999.25,
341.5,3.37,0.358,-999.25,80.14,0.404,6.71,0.382,5.96,2.099,-999.25,-999.25,
342,3.39,0.358,-999.25,85.51,0.579,6.75,0.481,5.96,2.098,-999.25,-999.25,
342.5,3.37,0.354,-999.25,82.12,0.592,6.77,0.488,5.96,2.105,-999.25,-999.25,
343,3.37,0.355,-999.25,82.12,0.698,6.81,0.554,5.96,2.103,-999.25,-999.25,
343.5,3.39,0.352,-999.25,77.72,0.461,6.83,0.41,5.96,2.108,-999.25,-999.25,
344,3.37,0.354,-999.25,74.7,0.432,6.82,0.395,5.96,2.105,-999.25,-999.25,
344.5,3.37,0.354,-999.25,73.35,0.52,6.82,0.445,5.96,2.104,-999.25,-999.25,
345,3.39,0.351,-999.25,75.38,0.556,6.8,0.465,5.96,2.11,-999.25,-999.25,
345.5,3.39,0.337,-999.25,78.4,0.442,6.8,0.393,5.96,2.134,-999.25,-999.25,
346,3.39,0.307,-999.25,78.14,0.506,6.77,0.419,5.96,2.186,-999.25,-999.25,
346.5,3.39,0.277,-999.25,71.37,0.677,6.72,0.517,5.96,2.236,-999.25,-999.25,
347,3.37,0.269,-999.25,71.37,0.456,6.63,0.374,5.96,2.25,-999.25,-999.25,
347.5,3.39,0.297,-999.25,78.4,0.404,6.52,0.355,5.96,2.203,-999.25,-999.25,
348,3.37,0.329,-999.25,84.18,0.545,6.45,0.45,5.96,2.147,-999.25,-999.25,
348.5,3.37,0.351,-999.25,78.09,0.433,6.48,0.394,5.96,2.11,-999.25,-999.25,
349,3.37,0.352,-999.25,76.06,0.391,6.59,0.372,5.96,2.108,-999.25,-999.25,
349.5,3.37,0.355,-999.25,68.24,0.386,6.71,0.371,5.96,2.104,-999.25,-999.25,
350,3.37,0.356,-999.25,70.27,0.5,6.74,0.434,5.96,2.102,-999.25,-999.25,
350.5,3.42,0.363,-999.25,65.95,0.433,6.78,0.4,5.96,2.089,-999.25,-999.25,
351,3.39,0.366,-999.25,78.14,0.564,6.8,0.475,5.96,2.084,-999.25,-999.25,
351.5,3.37,0.368,-999.25,77.46,0.777,6.8,0.608,5.96,2.081,-999.25,-999.25,
352,3.39,0.361,-999.25,77.05,0.519,6.77,0.447,5.96,2.092,-999.25,-999.25,
352.5,3.37,0.359,-999.25,80.72,0.645,6.77,0.522,5.96,2.096,-999.25,-999.25,
353,3.39,0.361,-999.25,78.01,0.717,6.8,0.568,5.96,2.094,-999.25,-999.25,
353.5,3.37,0.363,-999.25,77.33,0.704,6.82,0.56,5.96,2.09,-999.25,-999.25,
354,3.37,0.365,-999.25,65.53,0.846,6.85,0.652,5.96,2.086,-999.25,-999.25,
354.5,3.37,0.365,-999.25,70.95,0.794,6.91,0.618,5.96,2.086,-999.25,-999.25,
355,3.37,0.361,-999.25,70.7,0.485,6.97,0.428,5.96,2.093,-999.25,-999.25,
355.5,3.39,0.358,-999.25,66.64,0.625,6.99,0.509,5.96,2.098,-999.25,-999.25,
356,3.39,0.36,-999.25,63.93,0.57,6.98,0.477,5.96,2.094,-999.25,-999.25,
356.5,3.37,0.369,-999.25,60.58,0.83,7,0.642,5.96,2.08,-999.25,-999.25,
357,3.39,0.371,-999.25,67.09,0.952,7.02,0.722,5.96,2.076,-999.25,-999.25,
357.5,3.37,0.368,-999.25,63.7,1.41,7.04,1.03,5.96,2.08,-999.25,-999.25,
358,3.39,0.362,-999.25,70.4,0.875,7.02,0.67,5.96,2.091,-999.25,-999.25,
358.5,3.37,0.361,-999.25,63.22,0.736,6.99,0.58,5.96,2.092,-999.25,-999.25,
359,3.39,0.364,-999.25,63.9,0.721,6.96,0.571,5.96,2.088,-999.25,-999.25,
359.5,3.37,0.371,-999.25,64.86,0.783,6.95,0.613,5.96,2.076,-999.25,-999.25,
360,3.37,0.374,-999.25,66.21,0.522,6.92,0.454,5.96,2.071,-999.25,-999.25,
360.5,3.39,0.373,-999.25,74.34,0.855,6.9,0.66,5.96,2.072,-999.25,-999.25,
361,3.37,0.369,-999.25,64.66,0.713,6.88,0.568,5.96,2.08,-999.25,-999.25,
361.5,3.37,0.363,-999.25,64.66,0.546,6.86,0.464,5.96,2.088,-999.25,-999.25,
362,3.39,0.359,-999.25,66.02,0.561,6.84,0.471,5.96,2.097,-999.25,-999.25,
362.5,3.37,0.361,-999.25,74.58,0.484,6.78,0.427,5.96,2.093,-999.25,-999.25,
363,3.37,0.366,-999.25,75.64,0.525,6.75,0.453,5.96,2.084,-999.25,-999.25,
363.5,3.37,0.372,-999.25,70.08,0.609,6.76,0.505,5.96,2.074,-999.25,-999.25,
364,3.37,0.377,-999.25,71.87,0.502,6.84,0.444,5.96,2.066,-999.25,-999.25,
364.5,3.37,0.377,-999.25,69.85,0.562,6.9,0.479,5.96,2.066,-999.25,-999.25,
365,3.37,0.381,-999.25,68.54,0.486,6.92,0.437,5.96,2.059,-999.25,-999.25,
365.5,3.39,0.381,-999.25,66.53,0.618,6.91,0.513,5.96,2.059,-999.25,-999.25,
366,3.37,0.385,-999.25,67.31,0.439,6.9,0.413,5.96,2.051,-999.25,-999.25,
366.5,3.37,0.384,-999.25,65.59,0.53,6.91,0.463,5.96,2.053,-999.25,-999.25,
367,3.37,0.382,-999.25,67.84,0.659,6.88,0.539,5.96,2.058,-999.25,-999.25,
367.5,3.39,0.38,-999.25,63.53,0.677,6.82,0.549,5.96,2.06,-999.25,-999.25,
368,3.37,0.383,-999.25,61.92,0.648,6.75,0.532,5.96,2.055,-999.25,-999.25,
368.5,3.37,0.383,-999.25,59.84,0.725,6.71,0.58,5.96,2.055,-999.25,-999.25,
369,3.39,0.379,-999.25,64.56,0.589,6.66,0.495,5.96,2.061,-999.25,-999.25,
369.5,3.37,0.374,-999.25,68.32,0.541,6.61,0.465,5.96,2.07,-999.25,-999.25,
370,3.39,0.377,-999.25,71.85,0.53,6.56,0.46,5.96,2.065,-999.25,-999.25,
370.5,3.37,0.375,-999.25,67.13,0.542,6.53,0.466,5.96,2.069,-999.25,-999.25,
371,3.37,0.376,-999.25,65.44,0.441,6.53,0.41,5.96,2.067,-999.25,-999.25,
371.5,3.37,0.376,-999.25,60.9,0.493,6.53,0.438,5.96,2.067,-999.25,-999.25,
372,3.39,0.38,-999.25,70.82,0.406,6.53,0.393,5.96,2.06,-999.25,-999.25,
372.5,3.37,0.379,-999.25,68.78,0.395,6.51,0.387,5.96,2.062,-999.25,-999.25,
373,3.37,0.379,-999.25,67.1,0.46,6.52,0.421,5.96,2.063,-999.25,-999.25,
373.5,3.37,0.378,-999.25,60.89,0.502,6.57,0.444,5.96,2.064,-999.25,-999.25,
374,3.37,0.377,-999.25,64.95,0.592,6.66,0.496,5.96,2.066,-999.25,-999.25,
374.5,3.37,0.376,-999.25,62.03,0.554,6.72,0.473,5.96,2.066,-999.25,-999.25,
375,3.37,0.378,-999.25,67.76,0.693,6.74,0.558,5.96,2.064,-999.25,-999.25,
375.5,3.37,0.381,-999.25,63.02,0.644,6.76,0.529,5.96,2.059,-999.25,-999.25,
376,3.39,0.377,-999.25,65.6,0.538,6.78,0.465,5.96,2.066,-999.25,-999.25,
376.5,3.39,0.369,-999.25,63.72,0.633,6.8,0.518,5.96,2.08,-999.25,-999.25,
377,3.37,0.361,-999.25,65.96,0.666,6.81,0.536,5.96,2.093,-999.25,-999.25,
377.5,3.37,0.358,-999.25,65.75,0.546,6.79,0.462,5.96,2.097,-999.25,-999.25,
378,3.37,0.36,-999.25,61.57,0.413,6.77,0.387,5.96,2.095,-999.25,-999.25,
378.5,3.37,0.357,-999.25,63.73,0.538,6.72,0.457,5.96,2.099,-999.25,-999.25,
379,3.37,0.357,-999.25,64.07,0.558,6.68,0.468,5.96,2.1,-999.25,-999.25,
379.5,3.37,0.357,-999.25,68.45,0.688,6.65,0.548,5.96,2.1,-999.25,-999.25,
380,3.39,0.361,-999.25,58.88,0.578,6.64,0.482,5.96,2.093,-999.25,-999.25,
380.5,3.35,0.366,-999.25,60.57,0.554,6.62,0.47,5.96,2.084,-999.25,-999.25,
381,3.37,0.367,-999.25,57.66,0.483,6.6,0.429,5.96,2.083,-999.25,-999.25,
381.5,3.39,0.368,-999.25,68.44,0.523,6.57,0.452,5.96,2.081,-999.25,-999.25,
382,3.37,0.367,-999.25,74.87,0.502,6.6,0.44,5.96,2.083,-999.25,-999.25,
382.5,3.37,0.367,-999.25,74.75,0.584,6.66,0.488,5.96,2.083,-999.25,-999.25,
383,3.37,0.363,-999.25,78.96,0.558,6.74,0.471,5.96,2.089,-999.25,-999.25,
383.5,3.37,0.359,-999.25,74.22,0.609,6.8,0.5,5.96,2.097,-999.25,-999.25,
384,3.37,0.356,-999.25,71.52,0.63,6.86,0.512,5.96,2.102,-999.25,-999.25,
384.5,3.37,0.355,-999.25,62.26,0.596,6.96,0.491,5.96,2.102,-999.25,-999.25,
385,3.39,0.353,-999.25,58.54,0.576,7.05,0.478,5.96,2.107,-999.25,-999.25,
385.5,3.39,0.349,-999.25,61.02,0.588,7.13,0.484,5.96,2.112,-999.25,-999.25,
386,3.37,0.343,-999.25,62.03,0.605,7.21,0.492,5.96,2.124,-999.25,-999.25,
386.5,3.39,0.342,-999.25,65.41,0.634,7.28,0.509,5.96,2.125,-999.25,-999.25,
387,3.37,0.341,-999.25,75.4,0.554,7.35,0.46,5.96,2.127,-999.25,-999.25,
387.5,3.37,0.336,-999.25,71.46,0.514,7.39,0.434,5.96,2.135,-999.25,-999.25,
388,3.38,0.304,-999.25,68.96,0.459,7.45,0.389,5.96,2.19,-999.25,-999.25,
388.5,3.39,0.263,-999.25,54.57,0.581,7.42,0.451,5.96,2.26,-999.25,-999.25,
389,3.39,0.236,-999.25,53.79,0.62,7.31,0.469,5.96,2.306,-999.25,-999.25,
389.5,3.39,0.26,-999.25,58.32,0.595,7.13,0.459,5.96,2.266,-999.25,-999.25,
390,3.39,0.306,-999.25,61.59,0.512,6.97,0.422,5.96,2.187,-999.25,-999.25,
390.5,3.37,0.346,-999.25,74.4,0.677,6.91,0.538,5.96,2.119,-999.25,-999.25,
391,3.37,0.361,-999.25,69.66,0.654,6.89,0.528,5.96,2.092,-999.25,-999.25,
391.5,3.37,0.363,-999.25,75.19,0.517,6.92,0.447,5.96,2.09,-999.25,-999.25,
392,3.37,0.363,-999.25,69.13,0.578,6.9,0.483,5.96,2.09,-999.25,-999.25,
392.5,3.39,0.362,-999.25,76.91,0.568,6.86,0.476,5.96,2.091,-999.25,-999.25,
393,3.39,0.365,-999.25,72.73,0.594,6.8,0.493,5.96,2.085,-999.25,-999.25,
393.5,3.37,0.371,-999.25,70.49,0.585,6.76,0.49,5.96,2.075,-999.25,-999.25,
394,3.37,0.377,-999.25,63.59,0.569,6.71,0.483,5.96,2.065,-999.25,-999.25,
394.5,3.39,0.379,-999.25,62.02,0.538,6.66,0.465,5.96,2.062,-999.25,-999.25,
395,3.37,0.379,-999.25,57.52,0.542,6.6,0.468,5.96,2.061,-999.25,-999.25,
395.5,3.39,0.376,-999.25,54.26,0.568,6.59,0.482,5.96,2.067,-999.25,-999.25,
396,3.37,0.378,-999.25,53.25,0.462,6.6,0.422,5.96,2.063,-999.25,-999.25,
396.5,3.37,0.38,-999.25,61.67,0.461,6.63,0.422,5.96,2.06,-999.25,-999.25,
397,3.39,0.384,-999.25,64.59,0.487,6.67,0.439,5.96,2.053,-999.25,-999.25,
397.5,3.37,0.383,-999.25,63.23,0.496,6.7,0.443,5.96,2.056,-999.25,-999.25,
398,3.37,0.376,-999.25,59.82,0.461,6.71,0.421,5.96,2.068,-999.25,-999.25,
398.5,3.37,0.37,-999.25,52.53,0.469,6.69,0.422,5.96,2.077,-999.25,-999.25,
399,3.35,0.369,-999.25,65.4,0.46,6.66,0.417,5.96,2.078,-999.25,-999.25,
399.5,3.37,0.372,-999.25,67.8,0.482,6.62,0.431,5.96,2.073,-999.25,-999.25,
400,3.35,0.376,-999.25,77.25,0.597,6.6,0.499,5.96,2.066,-999.25,-999.25,
400.5,3.37,0.376,-999.25,71.83,0.564,6.61,0.479,5.96,2.066,-999.25,-999.25,
401,3.35,0.378,-999.25,68.8,0.627,6.65,0.518,5.96,2.064,-999.25,-999.25,
401.5,3.35,0.376,-999.25,68.66,0.608,6.67,0.505,5.96,2.067,-999.25,-999.25,
402,3.37,0.377,-999.25,72.04,0.785,6.68,0.616,5.96,2.066,-999.25,-999.25,
402.5,3.37,0.378,-999.25,70.47,0.569,6.7,0.483,5.96,2.063,-999.25,-999.25,
403,3.37,0.384,-999.25,65.76,0.488,6.76,0.439,5.96,2.053,-999.25,-999.25,
403.5,3.35,0.388,-999.25,60.34,0.606,6.81,0.509,5.96,2.047,-999.25,-999.25,
404,3.35,0.387,-999.25,61.24,0.527,6.8,0.462,5.96,2.049,-999.25,-999.25,
404.5,3.37,0.384,-999.25,64.4,0.498,6.76,0.445,5.96,2.054,-999.25,-999.25,
405,3.37,0.382,-999.25,66.3,0.532,6.7,0.463,5.96,2.056,-999.25,-999.25,
405.5,3.35,0.381,-999.25,68.11,0.583,6.69,0.492,5.96,2.059,-999.25,-999.25,
406,3.37,0.381,-999.25,61.24,0.633,6.71,0.522,5.96,2.059,-999.25,-999.25,
406.5,3.37,0.377,-999.25,57.99,0.715,6.76,0.572,5.96,2.065,-999.25,-999.25,
407,3.37,0.373,-999.25,56.97,0.673,6.77,0.544,5.96,2.072,-999.25,-999.25,
407.5,3.35,0.369,-999.25,61.69,0.536,6.77,0.46,5.96,2.08,-999.25,-999.25,
408,3.37,0.366,-999.25,57.29,0.529,6.77,0.455,5.96,2.085,-999.25,-999.25,
408.5,3.35,0.365,-999.25,60.54,0.447,6.77,0.408,5.96,2.086,-999.25,-999.25,
409,3.35,0.366,-999.25,63.03,0.598,6.78,0.496,5.96,2.084,-999.25,-999.25,
409.5,3.35,0.366,-999.25,69.67,0.505,6.79,0.441,5.96,2.085,-999.25,-999.25,
410,3.37,0.364,-999.25,69.47,0.602,6.82,0.497,5.96,2.088,-999.25,-999.25,
410.5,3.35,0.357,-999.25,69.67,0.501,6.84,0.435,5.96,2.1,-999.25,-999.25,
411,3.37,0.354,-999.25,66.75,0.58,6.86,0.48,5.96,2.105,-999.25,-999.25,
411.5,3.35,0.356,-999.25,62.01,0.512,6.89,0.441,5.96,2.102,-999.25,-999.25,
412,3.37,0.357,-999.25,58.98,0.669,6.91,0.536,5.96,2.099,-999.25,-999.25,
412.5,3.44,0.353,-999.25,66.95,0.53,6.96,0.45,5.96,2.107,-999.25,-999.25,
413,3.46,0.344,-999.25,68.31,0.45,7.02,0.401,5.96,2.122,-999.25,-999.25,
413.5,3.51,0.332,-999.25,73.5,0.485,7.09,0.416,5.96,2.142,-999.25,-999.25,
414,3.66,0.323,-999.25,68.79,0.558,7.15,0.456,5.96,2.158,-999.25,-999.25,
414.5,3.78,0.314,-999.25,71.83,0.487,7.23,0.41,5.96,2.173,-999.25,-999.25,
415,3.89,0.304,-999.25,63.27,0.465,7.38,0.393,5.96,2.19,-999.25,-999.25,
415.5,3.95,0.286,-999.25,63.4,0.493,7.54,0.403,5.96,2.222,-999.25,-999.25,
416,4.07,0.247,-999.25,66.45,0.478,7.68,0.38,5.96,2.287,-999.25,-999.25,
416.5,4.16,0.19,-999.25,70.83,0.476,7.75,0.362,5.96,2.386,-999.25,-999.25,
417,4.25,0.12,-999.25,64.29,0.463,7.87,0.338,5.96,2.505,-999.25,-999.25,
417.5,4.38,0.062,-999.25,57.86,0.465,7.97,0.332,5.96,2.604,-999.25,-999.25,
418,4.52,0.032,-999.25,64.08,0.461,8.11,0.327,5.96,2.655,-999.25,-999.25,
418.5,4.61,0.028,-999.25,67.45,0.513,8.19,0.363,5.96,2.662,-999.25,-999.25,
419,4.67,0.034,-999.25,72.53,0.464,8.25,0.329,5.96,2.652,-999.25,-999.25,
419.5,4.79,0.031,-999.25,70.01,0.618,8.27,0.438,5.96,2.656,-999.25,-999.25,
420,4.94,0.026,-999.25,74.53,0.703,8.28,0.497,5.96,2.666,-999.25,-999.25,
420.5,5.06,0.024,-999.25,71.02,0.673,8.28,0.476,5.96,2.67,-999.25,-999.25,
421,5.19,0.024,-999.25,71.5,0.526,8.28,0.372,5.96,2.67,-999.25,-999.25,
421.5,5.33,0.024,-999.25,68.67,0.437,8.31,0.309,5.96,2.67,-999.25,-999.25,
422,5.46,0.024,-999.25,71.16,0.439,8.36,0.311,5.96,2.67,-999.25,-999.25,
422.5,5.6,0.021,-999.25,63.04,0.501,8.43,0.355,5.96,2.673,-999.25,-999.25,
423,5.78,0.019,-999.25,65.4,0.493,8.52,0.349,5.96,2.678,-999.25,-999.25,
423.5,5.91,0.014,-999.25,64.25,0.415,8.62,0.294,5.96,2.686,-999.25,-999.25,
424,6.04,0.012,-999.25,64.25,0.511,8.76,0.361,5.96,2.689,-999.25,-999.25,
424.5,6.16,0.011,-999.25,63.71,0.486,8.92,0.344,5.96,2.691,-999.25,-999.25,
425,6.32,0.015,-999.25,68.43,0.527,9.13,0.373,5.96,2.684,-999.25,-999.25,
425.5,6.47,0.028,-999.25,73.16,0.496,9.37,0.351,5.96,2.663,-999.25,-999.25,
426,6.61,0.049,-999.25,72.02,0.476,9.61,0.338,5.96,2.626,-999.25,-999.25,
426.5,6.72,0.068,-999.25,67.44,0.48,9.81,0.343,5.96,2.594,-999.25,-999.25,
427,6.88,0.104,-999.25,66.76,0.44,9.93,0.32,5.96,2.532,-999.25,-999.25,
427.5,7.01,0.162,-999.25,64.06,0.465,10,0.348,5.96,2.433,-999.25,-999.25,
428,7.15,0.206,-999.25,62.92,0.496,10,0.38,5.96,2.358,-999.25,-999.25,
428.5,7.28,0.192,-999.25,62.58,0.542,10,0.407,5.96,2.382,-999.25,-999.25,
429,7.44,0.103,-999.25,62.7,0.748,10,0.534,5.96,2.534,-999.25,-999.25,
429.5,7.57,-0.043,-999.25,59.67,0.662,10,0,5.96,2.783,-999.25,-999.25,
430,7.72,-0.2,-999.25,54.93,0.74,10,0,5.96,3.17,-999.25,-999.25,
430.5,7.78,-0.2,-999.25,50.77,0.779,10,0,5.96,3.707,-999.25,-999.25,
431,7.87,-0.2,-999.25,47.83,0.602,10,0,5.96,4.086,-999.25,-999.25,
431.5,7.96,-0.2,-999.25,50.77,0.609,10,0,5.96,4.04,-999.25,-999.25,
432,8.01,-0.2,-999.25,57.97,0.545,10,0,5.96,3.63,-999.25,-999.25,
432.5,8.08,-0.2,-999.25,61.48,0.515,10,0,5.96,3.215,-999.25,-999.25,
433,8.11,-0.177,-999.25,58.45,0.442,10,0,5.96,3.013,-999.25,-999.25,
433.5,8.07,-0.149,-999.25,56.46,0.5,10,0,5.96,2.964,-999.25,-999.25,
434,8.07,-0.15,-999.25,57.23,0.597,10,0,5.96,2.966,-999.25,-999.25,
434.5,8.08,-0.16,-999.25,60.71,0.743,10,0,5.96,2.983,-999.25,-999.25,
435,8.09,-0.158,-999.25,59.45,0.665,10,0,5.96,2.981,-999.25,-999.25,
435.5,8.09,-0.152,-999.25,60.71,0.691,10,0,5.96,2.97,-999.25,-999.25,
436,8.07,-0.145,-999.25,57.66,0.481,10,0,5.96,2.958,-999.25,-999.25,
436.5,8.09,-0.139,-999.25,64.31,0.482,10,0,5.96,2.948,-999.25,-999.25,
437,8.09,-0.134,-999.25,65.18,0.505,10,0,5.96,2.94,-999.25,-999.25,
437.5,8.07,-0.129,-999.25,69.17,0.418,10,0,5.96,2.931,-999.25,-999.25,
438,8.09,-0.124,-999.25,62.7,0.472,10,0,5.96,2.922,-999.25,-999.25,
438.5,8.09,-0.12,-999.25,65.02,0.563,10,0,5.96,2.916,-999.25,-999.25,
439,8.09,-0.118,-999.25,63.03,0.712,10,0,5.96,2.912,-999.25,-999.25,
439.5,8.09,-0.116,-999.25,68.63,0.637,10,0,5.96,2.909,-999.25,-999.25,
440,8.07,-0.116,-999.25,68.07,0.463,10,0,5.96,2.908,-999.25,-999.25,
440.5,8.07,-0.118,-999.25,65.53,0.531,10,0,5.96,2.911,-999.25,-999.25,
441,8.07,-0.12,-999.25,64.26,0.642,10,0,5.96,2.915,-999.25,-999.25,
441.5,8.07,-0.119,-999.25,59.27,0.649,10,0,5.96,2.913,-999.25,-999.25,
442,8.07,-0.113,-999.25,65.64,0.622,10,0,5.96,2.903,-999.25,-999.25,
442.5,8.07,-0.105,-999.25,65.19,0.581,10,0,5.96,2.89,-999.25,-999.25,
443,8.07,-0.1,-999.25,66.11,0.485,10,0,5.96,2.882,-999.25,-999.25,
443.5,8.05,-0.1,-999.25,64.93,0.487,10,0,5.96,2.88,-999.25,-999.25,
444,8.07,-0.1,-999.25,67.05,0.501,10,0,5.96,2.881,-999.25,-999.25,
444.5,8.07,-0.099,-999.25,71.71,0.593,10,0,5.96,2.879,-999.25,-999.25,
445,8.09,-0.098,-999.25,75.31,0.563,10,0,5.96,2.877,-999.25,-999.25,
445.5,8.08,-0.1,-999.25,73.75,0.549,10,0,5.96,2.882,-999.25,-999.25,
446,8.07,-0.105,-999.25,71.72,0.495,10,0,5.96,2.889,-999.25,-999.25,
446.5,8.07,-0.108,-999.25,64.97,0.535,10,0,5.96,2.894,-999.25,-999.25,
447,8.07,-0.11,-999.25,59.02,0.498,10,0,5.96,2.897,-999.25,-999.25,
447.5,8.09,-0.112,-999.25,58,0.523,10,0,5.96,2.902,-999.25,-999.25,
448,8.07,-0.118,-999.25,59.35,0.54,10,0,5.96,2.911,-999.25,-999.25,
448.5,8.05,-0.124,-999.25,63.08,0.526,10,0,5.96,2.922,-999.25,-999.25,
449,8.05,-0.129,-999.25,63.69,0.449,10,0,5.96,2.93,-999.25,-999.25,
449.5,8.07,-0.129,-999.25,69.54,0.486,10,0,5.96,2.93,-999.25,-999.25,
450,8.07,-0.125,-999.25,68.93,0.478,10,0,5.96,2.924,-999.25,-999.25,
450.5,8.05,-0.122,-999.25,66.37,0.491,10,0,5.96,2.919,-999.25,-999.25,
451,8.07,-0.123,-999.25,60.06,0.571,10,0,5.96,2.92,-999.25,-999.25,
451.5,8.07,-0.126,-999.25,61.53,0.552,10,0,5.96,2.925,-999.25,-999.25,
452,8.07,-0.128,-999.25,64.69,0.684,10,0,5.96,2.929,-999.25,-999.25,
452.5,8.07,-0.128,-999.25,66.28,0.742,10,0,5.96,2.93,-999.25,-999.25,
453,8.07,-0.128,-999.25,68.66,0.576,10,0,5.96,2.93,-999.25,-999.25,
453.5,8.08,-0.129,-999.25,70,0.499,10,0,5.96,2.93,-999.25,-999.25,
454,8.09,-0.129,-999.25,75.04,0.527,10,0,5.96,2.931,-999.25,-999.25,
454.5,8.05,-0.13,-999.25,72.73,0.563,10,0,5.96,2.932,-999.25,-999.25,
455,8.05,-0.129,-999.25,69.89,0.548,10,0,5.96,2.93,-999.25,-999.25,
455.5,8.07,-0.125,-999.25,66.65,0.505,10,0,5.96,2.925,-999.25,-999.25,
456,8.05,-0.121,-999.25,66.93,0.598,10,0,5.96,2.916,-999.25,-999.25,
456.5,8.05,-0.119,-999.25,67.01,0.594,10,0,5.96,2.914,-999.25,-999.25,
457,8.05,-0.11,-999.25,71.51,0.545,10,0,5.96,2.897,-999.25,-999.25,
457.5,8.07,-0.114,-999.25,73.14,0.631,10,0,5.96,2.904,-999.25,-999.25,
458,8.05,-0.109,-999.25,75.89,0.596,10,0,5.96,2.896,-999.25,-999.25,
458.5,8.05,-0.122,-999.25,70.12,0.585,10,0,5.96,2.919,-999.25,-999.25,
459,8.07,-0.127,-999.25,67.49,0.464,10,0,5.96,2.927,-999.25,-999.25,
459.5,8.05,-0.141,-999.25,65.01,0.403,10,0,5.96,2.951,-999.25,-999.25,
460,8.06,-0.148,-999.25,67.18,0.448,10,0,5.96,2.962,-999.25,-999.25,
460.5,8.09,-0.149,-999.25,66.78,0.491,10,0,5.96,2.966,-999.25,-999.25,
461,8.07,-0.148,-999.25,71.37,0.476,10,0,5.96,2.963,-999.25,-999.25,
461.5,8.06,-0.145,-999.25,71.06,0.507,10,0,5.96,2.957,-999.25,-999.25,
462,8.07,-0.136,-999.25,72.58,0.494,10,0,5.96,2.942,-999.25,-999.25,
462.5,8.07,-0.135,-999.25,67.08,0.55,10,0,5.96,2.941,-999.25,-999.25,
463,8.07,-0.138,-999.25,67.77,0.535,10,0,5.96,2.946,-999.25,-999.25,
463.5,8.09,-0.149,-999.25,67,0.468,10,0,5.96,2.965,-999.25,-999.25,
464,8.07,-0.154,-999.25,71.28,0.549,10,0,5.96,2.973,-999.25,-999.25,
464.5,8.08,-0.156,-999.25,72.29,0.499,10,0,5.96,2.977,-999.25,-999.25,
465,8.07,-0.156,-999.25,71.93,0.438,10,0,5.96,2.976,-999.25,-999.25,
465.5,8.07,-0.155,-999.25,70.1,0.475,10,0,5.96,2.974,-999.25,-999.25,
466,8.07,-0.154,-999.25,66.01,0.534,10,0,5.96,2.973,-999.25,-999.25,
466.5,8.09,-0.152,-999.25,65.21,0.557,10,0,5.96,2.97,-999.25,-999.25,
467,8.08,-0.151,-999.25,63.22,0.543,10,0,5.96,2.968,-999.25,-999.25,
467.5,8.09,-0.15,-999.25,68.04,0.606,10,0,5.96,2.967,-999.25,-999.25,
468,8.08,-0.152,-999.25,72.3,0.624,10,0,5.96,2.97,-999.25,-999.25,
468.5,8.06,-0.153,-999.25,73.65,0.493,10,0,5.96,2.972,-999.25,-999.25,
469,8.07,-0.155,-999.25,70.48,0.556,10,0,5.96,2.974,-999.25,-999.25,
469.5,8.05,-0.155,-999.25,66.26,0.548,10,0,5.96,2.975,-999.25,-999.25,
470,8.06,-0.159,-999.25,68.73,0.491,10,0,5.96,2.982,-999.25,-999.25,
470.5,8.06,-0.19,-999.25,63.47,0.54,10,0,5.96,3.035,-999.25,-999.25,
471,8.06,-0.2,-999.25,63.47,0.6,10,0,5.96,3.227,-999.25,-999.25,
471.5,8.07,-0.2,-999.25,53.95,0.592,10,0,5.96,3.567,-999.25,-999.25,
472,8.06,-0.2,-999.25,54.24,0.461,10,0,5.96,3.855,-999.25,-999.25,
472.5,8.05,-0.2,-999.25,50.96,0.478,10,0,5.96,3.839,-999.25,-999.25,
473,8.09,-0.2,-999.25,58.02,0.522,10,0,5.96,3.543,-999.25,-999.25,
473.5,8.09,-0.2,-999.25,67.18,0.56,10,0,5.96,3.199,-999.25,-999.25,
474,8.09,-0.172,-999.25,79.34,0.51,10,0,5.96,3.004,-999.25,-999.25,
474.5,8.08,-0.13,-999.25,78.52,0.398,10,0,5.96,2.932,-999.25,-999.25,
475,8.08,-0.12,-999.25,74.53,0.467,10,0,5.96,2.915,-999.25,-999.25,
475.5,8.08,-0.125,-999.25,67.45,0.506,10,0,5.96,2.923,-999.25,-999.25,
476,8.08,-0.132,-999.25,63.09,0.518,10,0,5.96,2.935,-999.25,-999.25,
476.5,8.07,-0.137,-999.25,65.52,0.566,10,0,5.96,2.945,-999.25,-999.25,
477,8.07,-0.133,-999.25,61.55,0.613,10,0,5.96,2.937,-999.25,-999.25,
477.5,8.07,-0.127,-999.25,64.7,0.551,10,0,5.96,2.927,-999.25,-999.25,
478,8.07,-0.12,-999.25,60.16,0.508,10,0,5.96,2.915,-999.25,-999.25,
478.5,8.09,-0.126,-999.25,66.03,0.6,10,0,5.96,2.926,-999.25,-999.25,
479,8.07,-0.122,-999.25,69.92,0.55,10,0,5.96,2.918,-999.25,-999.25,
479.5,8.07,-0.123,-999.25,74.88,0.51,10,0,5.96,2.92,-999.25,-999.25,
480,8.08,-0.114,-999.25,76.83,0.472,10,0,5.96,2.906,-999.25,-999.25,
480.5,8.09,-0.12,-999.25,73.17,0.598,10,0,5.96,2.915,-999.25,-999.25,
481,8.08,-0.121,-999.25,69.21,0.525,10,0,5.96,2.917,-999.25,-999.25,
481.5,8.07,-0.129,-999.25,61.71,0.405,10,0,5.96,2.93,-999.25,-999.25,
482,8.07,-0.133,-999.25,62.15,0.365,10,0,5.96,2.938,-999.25,-999.25,
482.5,8.09,-0.135,-999.25,65.28,0.402,10,0,5.96,2.94,-999.25,-999.25,
483,8.07,-0.134,-999.25,67.81,0.544,10,0,5.96,2.938,-999.25,-999.25,
483.5,8.09,-0.132,-999.25,70.82,0.61,10,0,5.96,2.936,-999.25,-999.25,
484,8.08,-0.129,-999.25,69.95,0.561,10,0,5.96,2.931,-999.25,-999.25,
484.5,8.1,-0.122,-999.25,69.05,0.466,10,0,5.96,2.918,-999.25,-999.25,
485,8.09,-0.115,-999.25,67.43,0.429,10,0,5.96,2.906,-999.25,-999.25,
485.5,8.09,-0.112,-999.25,64.64,0.475,10,0,5.96,2.902,-999.25,-999.25,
486,8.13,-0.116,-999.25,62.17,0.635,10,0,5.96,2.908,-999.25,-999.25,
486.5,8.11,-0.119,-999.25,65,0.532,10,0,5.96,2.913,-999.25,-999.25,
487,8.14,-0.118,-999.25,63.65,0.481,10,0,5.96,2.912,-999.25,-999.25,
487.5,8.14,-0.115,-999.25,71.39,0.491,10,0,5.96,2.907,-999.25,-999.25,
488,8.11,-0.115,-999.25,71.08,0.46,10,0,5.96,2.906,-999.25,-999.25,
488.5,8.11,-0.118,-999.25,73.33,0.471,10,0,5.96,2.912,-999.25,-999.25,
489,8.11,-0.122,-999.25,72.12,0.437,10,0,5.96,2.919,-999.25,-999.25,
489.5,8.1,-0.132,-999.25,65.53,0.446,10,0,5.96,2.935,-999.25,-999.25,
490,8.09,-0.155,-999.25,64.72,0.495,10,0,5.96,2.976,-999.25,-999.25,
490.5,8.09,-0.19,-999.25,57.82,0.485,10,0,5.96,3.035,-999.25,-999.25,
491,8.08,-0.2,-999.25,56.89,0.437,10,0,5.96,3.083,-999.25,-999.25,
491.5,8.07,-0.2,-999.25,60.26,0.517,10,0,5.96,3.094,-999.25,-999.25,
492,8.09,-0.2,-999.25,65.14,0.503,10,0,5.96,3.085,-999.25,-999.25,
492.5,8.1,-0.2,-999.25,69.5,0.468,10,0,5.96,3.084,-999.25,-999.25,
493,8.11,-0.2,-999.25,67.39,0.468,10,0,5.96,3.094,-999.25,-999.25,
493.5,8.1,-0.2,-999.25,64.32,0.43,10,0,5.96,3.099,-999.25,-999.25,
494,8.09,-0.2,-999.25,63.86,0.431,10,0,5.96,3.092,-999.25,-999.25,
494.5,8.11,-0.2,-999.25,62.36,0.437,10,0,5.96,3.071,-999.25,-999.25,
495,8.1,-0.199,-999.25,63.86,0.451,10,0,5.96,3.05,-999.25,-999.25,
495.5,8.11,-0.188,-999.25,61.91,0.414,10,0,5.96,3.031,-999.25,-999.25,
496,8.11,-0.183,-999.25,67.45,0.398,10,0,5.96,3.023,-999.25,-999.25,
496.5,8.1,-0.181,-999.25,71.37,0.414,10,0,5.96,3.02,-999.25,-999.25,
497,8.09,-0.181,-999.25,73.8,0.566,10,0,5.96,3.019,-999.25,-999.25,
497.5,8.11,-0.181,-999.25,70.2,0.582,10,0,5.96,3.019,-999.25,-999.25,
498,8.11,-0.18,-999.25,66.73,0.558,10,0,5.96,3.018,-999.25,-999.25,
498.5,8.09,-0.178,-999.25,63.89,0.574,10,0,5.96,3.015,-999.25,-999.25,
499,8.09,-0.176,-999.25,64.88,0.478,10,0,5.96,3.011,-999.25,-999.25,
499.5,8.1,-0.175,-999.25,63.77,0.506,10,0,5.96,3.009,-999.25,-999.25,
500,8.09,-0.172,-999.25,64.48,0.424,10,0,5.96,3.005,-999.25,-999.25,
500.5,8.09,-0.168,-999.25,69.34,0.5,10,0,5.96,2.998,-999.25,-999.25,
501,8.09,-0.164,-999.25,74.41,0.475,10,0,5.96,2.991,-999.25,-999.25,
501.5,8.09,-0.164,-999.25,76.66,0.478,10,0,5.96,2.99,-999.25,-999.25,
502,8.11,-0.166,-999.25,75.64,0.525,10,0,5.96,2.994,-999.25,-999.25,
502.5,8.09,-0.166,-999.25,68.68,0.564,10,0,5.96,2.994,-999.25,-999.25,
503,8.11,-0.159,-999.25,69.66,0.536,10,0,5.96,2.982,-999.25,-999.25,
503.5,8.09,-0.15,-999.25,62.03,0.524,10,0,5.96,2.966,-999.25,-999.25,
504,8.09,-0.144,-999.25,64.59,0.595,10,0,5.96,2.957,-999.25,-999.25,
504.5,8.09,-0.144,-999.25,62.87,0.549,10,0,5.96,2.956,-999.25,-999.25,
505,8.1,-0.14,-999.25,68.15,0.486,10,0,5.96,2.95,-999.25,-999.25,
505.5,8.09,-0.129,-999.25,71.84,0.503,10,0,5.96,2.931,-999.25,-999.25,
506,8.1,-0.114,-999.25,74.07,0.613,10,0,5.96,2.904,-999.25,-999.25,
506.5,8.09,-0.099,-999.25,68.67,0.572,10,0,5.96,2.879,-999.25,-999.25,
507,8.08,-0.088,-999.25,63.71,0.526,10,0,5.96,2.86,-999.25,-999.25,
507.5,8.08,-0.081,-999.25,63.11,0.532,10,0,5.97,2.849,-999.25,-999.25,
508,8.09,-0.082,-999.25,65.89,0.573,10,0,5.97,2.85,-999.25,-999.25,
508.5,8.07,-0.082,-999.25,65.62,0.52,10,0,5.97,2.849,-999.25,-999.25,
509,8.06,-0.085,-999.25,61.2,0.482,10,0,5.97,2.855,-999.25,-999.25,
509.5,8.05,-0.076,-999.25,57.51,0.497,10,0,5.97,2.839,-999.25,-999.25,
510,8.06,-0.066,-999.25,59,0.546,10,0,5.97,2.822,-999.25,-999.25,
510.5,8.05,-0.056,-999.25,65.45,0.551,10,0,5.97,2.806,-999.25,-999.25,
511,8.07,-0.064,-999.25,66.57,0.525,10,0,5.97,2.82,-999.25,-999.25,
511.5,8.06,-0.081,-999.25,65.15,0.489,10,0,5.97,2.849,-999.25,-999.25,
512,8.02,-0.091,-999.25,62.54,0.501,10,0,5.97,2.866,-999.25,-999.25,
512.5,8.06,-0.107,-999.25,65.24,0.608,10,0,5.97,2.892,-999.25,-999.25,
513,8.05,-0.094,-999.25,65.44,0.602,10,0,5.97,2.87,-999.25,-999.25,
513.5,8.13,0.008,-999.25,67.61,0.509,9.69,0.36,5.97,2.697,-999.25,-999.25,
514,8.14,0.154,-999.25,69.06,0.515,8.05,0.38,5.96,2.446,-999.25,-999.25,
514.5,8.29,0.29,-999.25,76.74,0.607,5.83,0.476,5.95,2.214,-999.25,-999.25,
515,9.29,0.335,-999.25,80.34,0.542,3.73,0.451,5.94,2.137,-999.25,-999.25,
515.5,9.83,0.344,-999.25,82.48,0.474,2.97,0.414,5.92,2.122,-999.25,-999.25,
516,10.09,0.34,-999.25,82.1,0.436,2.8,0.391,5.9,2.129,-999.25,-999.25,
516.5,10.17,0.337,-999.25,79.73,0.462,2.81,0.404,5.88,2.133,-999.25,-999.25,
517,10.15,0.343,-999.25,78.83,0.429,2.84,0.388,5.85,2.123,-999.25,-999.25,
517.5,9.96,0.35,-999.25,86.12,0.41,2.88,0.381,5.83,2.112,-999.25,-999.25,
518,9.96,0.351,-999.25,84.68,0.434,2.91,0.395,5.82,2.11,-999.25,-999.25,
518.5,9.98,0.345,-999.25,82.43,0.467,2.93,0.411,5.82,2.12,-999.25,-999.25,
519,10.46,0.333,-999.25,72.35,0.413,2.91,0.375,5.88,2.14,-999.25,-999.25,
519.5,11.16,0.33,-999.25,68.52,0.456,2.85,0.398,5.85,2.146,-999.25,-999.25,
520,11.44,0.332,-999.25,67.4,0.545,2.76,0.451,6.13,2.143,-999.25,-999.25,
520.5,12.67,0.331,-999.25,67.11,0.55,2.69,0.454,6.59,2.145,-999.25,-999.25,
521,12.26,0.321,-999.25,72.49,0.524,2.66,0.435,6.59,2.16,-999.25,-999.25,
521.5,11.4,0.34,-999.25,74.23,0.525,2.68,0.442,7.14,2.129,-999.25,-999.25,
522,11.44,0.387,-999.25,77.62,0.613,2.71,0.513,12.99,2.048,-999.25,-999.25,
522.5,11.08,0.411,-999.25,82.67,0.558,2.74,0.49,7.03,2.007,-999.25,-999.25,
523,9.89,0.403,-999.25,87.4,0.569,2.77,0.493,4.6,2.021,-999.25,-999.25,
523.5,8.63,0.351,-999.25,88.7,0.398,2.83,0.375,5.33,2.11,-999.25,-999.25,
524,8.33,0.328,-999.25,86.66,0.341,2.86,0.335,6.82,2.148,-999.25,-999.25,
524.5,8.37,0.315,-999.25,86.08,0.36,2.91,0.338,7.51,2.171,-999.25,-999.25,
525,8.38,0.318,-999.25,84.05,0.336,2.9,0.327,6.82,2.166,-999.25,-999.25,
525.5,8.36,0.315,-999.25,84.94,0.332,2.88,0.324,5.99,2.171,-999.25,-999.25,
526,8.32,0.306,-999.25,85.73,0.346,2.81,0.327,6.03,2.186,-999.25,-999.25,
526.5,8.36,0.304,-999.25,88.78,0.398,2.78,0.354,6.11,2.19,-999.25,-999.25,
527,8.46,0.3,-999.25,89.94,0.353,2.71,0.328,6.16,2.197,-999.25,-999.25,
527.5,8.4,0.3,-999.25,85.02,0.348,2.69,0.325,6.78,2.196,-999.25,-999.25,
528,8.38,0.302,-999.25,83.84,0.362,2.7,0.333,7.01,2.194,-999.25,-999.25,
528.5,8.32,0.304,-999.25,77.56,0.408,2.73,0.36,6.22,2.191,-999.25,-999.25,
529,8.36,0.303,-999.25,84.16,0.359,2.73,0.332,5.97,2.192,-999.25,-999.25,
529.5,8.43,0.303,-999.25,83.6,0.376,2.74,0.341,5.69,2.192,-999.25,-999.25,
530,8.41,0.307,-999.25,90.71,0.373,2.76,0.342,5.02,2.185,-999.25,-999.25,
530.5,8.43,0.312,-999.25,85.47,0.378,2.78,0.347,4.76,2.177,-999.25,-999.25,
531,8.43,0.312,-999.25,83.33,0.463,2.77,0.395,4.72,2.176,-999.25,-999.25,
531.5,8.37,0.312,-999.25,83.49,0.466,2.76,0.397,5.51,2.177,-999.25,-999.25,
532,8.38,0.311,-999.25,90.94,0.392,2.77,0.354,5.99,2.178,-999.25,-999.25,
532.5,8.44,0.313,-999.25,96.84,0.387,2.8,0.352,6.49,2.174,-999.25,-999.25,
533,8.41,0.314,-999.25,92.8,0.375,2.8,0.346,5.91,2.174,-999.25,-999.25,
533.5,8.42,0.312,-999.25,85.69,0.376,2.78,0.345,5.33,2.176,-999.25,-999.25,
534,8.43,0.315,-999.25,81.13,0.427,2.78,0.375,5.75,2.172,-999.25,-999.25,
534.5,8.43,0.317,-999.25,81.97,0.534,2.79,0.439,5.57,2.168,-999.25,-999.25,
535,8.27,0.319,-999.25,83.32,0.495,2.79,0.416,4.63,2.165,-999.25,-999.25,
535.5,8.35,0.315,-999.25,85,0.416,2.75,0.369,4.99,2.171,-999.25,-999.25,
536,8.37,0.31,-999.25,82.82,0.362,2.74,0.337,5.4,2.18,-999.25,-999.25,
536.5,8.38,0.308,-999.25,80.45,0.411,2.73,0.363,5.77,2.184,-999.25,-999.25,
537,8.34,0.31,-999.25,80.96,0.444,2.73,0.383,6.26,2.181,-999.25,-999.25,
537.5,8.43,0.316,-999.25,78.26,0.467,2.76,0.399,6.5,2.17,-999.25,-999.25,
538,8.36,0.317,-999.25,84.69,0.397,2.78,0.359,6.1,2.167,-999.25,-999.25,
538.5,8.32,0.315,-999.25,84.53,0.36,2.78,0.338,5.86,2.171,-999.25,-999.25,
539,8.31,0.315,-999.25,90.08,0.414,2.77,0.368,6.23,2.171,-999.25,-999.25,
539.5,8.32,0.317,-999.25,91.93,0.357,2.74,0.338,5.5,2.168,-999.25,-999.25,
540,8.24,0.318,-999.25,90.07,0.362,2.71,0.341,4.84,2.166,-999.25,-999.25,
540.5,8.18,0.323,-999.25,85.82,0.362,2.73,0.343,4.76,2.158,-999.25,-999.25,
541,8.2,0.327,-999.25,81.45,0.389,2.75,0.359,5.08,2.151,-999.25,-999.25,
541.5,8.18,0.33,-999.25,79.08,0.454,2.77,0.397,5.29,2.145,-999.25,-999.25,
542,8.2,0.329,-999.25,83.66,0.441,2.76,0.389,5.27,2.148,-999.25,-999.25,
542.5,8.23,0.327,-999.25,79.61,0.445,2.75,0.39,5.19,2.15,-999.25,-999.25,
543,8.2,0.33,-999.25,86.38,0.355,2.76,0.343,5.21,2.146,-999.25,-999.25,
543.5,8.23,0.331,-999.25,87.57,0.417,2.74,0.376,5.31,2.144,-999.25,-999.25,
544,8.18,0.334,-999.25,91.09,0.43,2.75,0.385,5.34,2.139,-999.25,-999.25,
544.5,8.2,0.335,-999.25,86.2,0.47,2.75,0.408,5.49,2.136,-999.25,-999.25,
545,8.29,0.337,-999.25,86.03,0.44,2.77,0.392,5.4,2.133,-999.25,-999.25,
545.5,8.36,0.338,-999.25,83.85,0.406,2.77,0.374,4.96,2.132,-999.25,-999.25,
546,8.23,0.339,-999.25,80.62,0.379,2.77,0.36,5.62,2.131,-999.25,-999.25,
546.5,8.23,0.334,-999.25,83.67,0.421,2.74,0.38,6.17,2.139,-999.25,-999.25,
547,8.25,0.331,-999.25,86.7,0.361,2.75,0.346,5.34,2.143,-999.25,-999.25,
547.5,8.27,0.326,-999.25,88.73,0.344,2.75,0.335,4.39,2.153,-999.25,-999.25,
548,8.27,0.328,-999.25,84.72,0.388,2.85,0.359,5.79,2.15,-999.25,-999.25,
548.5,8.27,0.323,-999.25,84.38,0.354,2.91,0.339,8.13,2.157,-999.25,-999.25,
549,8.25,0.32,-999.25,85.06,0.284,2.94,0.303,9.23,2.162,-999.25,-999.25,
549.5,8.27,0.321,-999.25,79.26,0.3,2.89,0.311,5.97,2.161,-999.25,-999.25,
550,8.29,0.329,-999.25,74.54,0.374,2.85,0.352,4.97,2.148,-999.25,-999.25,
550.5,8.29,0.341,-999.25,69.33,0.386,2.88,0.364,4.28,2.128,-999.25,-999.25,
551,8.23,0.346,-999.25,76.1,0.387,2.91,0.367,4.49,2.118,-999.25,-999.25,
551.5,8.23,0.346,-999.25,80.98,0.371,2.93,0.359,5.09,2.118,-999.25,-999.25,
552,8.25,0.341,-999.25,89.07,0.428,2.9,0.387,5.07,2.127,-999.25,-999.25,
552.5,8.25,0.331,-999.25,82.97,0.436,2.89,0.387,5.09,2.143,-999.25,-999.25,
553,8.25,0.318,-999.25,84.83,0.384,2.96,0.353,13.4,2.166,-999.25,-999.25,
553.5,8.2,0.302,-999.25,88.72,0.305,3.01,0.304,11.76,2.193,-999.25,-999.25,
554,8.14,0.296,-999.25,86.22,0.303,2.97,0.3,7.75,2.204,-999.25,-999.25,
554.5,8.14,0.31,-999.25,76.91,0.405,2.89,0.361,2.93,2.179,-999.25,-999.25,
555,8.18,0.331,-999.25,74.71,0.423,2.83,0.38,2.42,2.144,-999.25,-999.25,
555.5,8.2,0.34,-999.25,77.21,0.353,2.79,0.347,2.7,2.128,-999.25,-999.25,
556,8.25,0.34,-999.25,91.09,0.362,2.79,0.351,2.95,2.129,-999.25,-999.25,
556.5,8.29,0.337,-999.25,89.74,0.336,2.79,0.337,3.33,2.133,-999.25,-999.25,
557,8.34,0.35,-999.25,96.85,0.342,2.81,0.346,4.42,2.112,-999.25,-999.25,
557.5,8.36,0.367,-999.25,97.33,0.362,2.8,0.365,3.67,2.082,-999.25,-999.25,
558,8.41,0.378,-999.25,100.55,0.465,2.76,0.424,2.98,2.064,-999.25,-999.25,
558.5,8.59,0.37,-999.25,101.72,0.462,2.72,0.419,2.6,2.077,-999.25,-999.25,
559,8.36,0.35,-999.25,95.14,0.468,2.7,0.413,3.27,2.111,-999.25,-999.25,
559.5,8.27,0.333,-999.25,93.54,0.374,2.69,0.354,3.92,2.14,-999.25,-999.25,
560,8.29,0.324,-999.25,87.14,0.359,2.7,0.342,4.12,2.156,-999.25,-999.25,
560.5,8.25,0.323,-999.25,92.22,0.403,2.69,0.365,4.8,2.158,-999.25,-999.25,
561,8.25,0.324,-999.25,94.84,0.408,2.69,0.368,5.75,2.156,-999.25,-999.25,
561.5,8.24,0.325,-999.25,93.83,0.404,2.66,0.367,6.65,2.155,-999.25,-999.25,
562,8.34,0.324,-999.25,99.24,0.399,2.7,0.363,6.25,2.156,-999.25,-999.25,
562.5,8.32,0.321,-999.25,95.35,0.455,2.74,0.394,5.9,2.162,-999.25,-999.25,
563,8.36,0.319,-999.25,103.28,0.42,2.78,0.373,5.76,2.164,-999.25,-999.25,
563.5,8.36,0.321,-999.25,94.98,0.389,2.8,0.357,5.77,2.161,-999.25,-999.25,
564,8.36,0.327,-999.25,90.75,0.393,2.81,0.362,5.63,2.151,-999.25,-999.25,
564.5,8.32,0.331,-999.25,81.13,0.39,2.78,0.362,5.56,2.144,-999.25,-999.25,
565,8.36,0.328,-999.25,80.29,0.424,2.72,0.379,5.51,2.149,-999.25,-999.25,
565.5,8.38,0.324,-999.25,81.99,0.383,2.68,0.355,5.43,2.157,-999.25,-999.25,
566,8.36,0.321,-999.25,90.41,0.419,2.71,0.373,5.19,2.161,-999.25,-999.25,
566.5,8.32,0.317,-999.25,90.91,0.386,2.73,0.353,5.34,2.167,-999.25,-999.25,
567,8.32,0.314,-999.25,93.62,0.347,2.72,0.331,5.91,2.173,-999.25,-999.25,
567.5,8.41,0.312,-999.25,89.74,0.358,2.7,0.336,6.01,2.177,-999.25,-999.25,
568,8.34,0.314,-999.25,86.63,0.343,2.65,0.329,6.17,2.173,-999.25,-999.25,
568.5,8.34,0.317,-999.25,84.94,0.422,2.64,0.373,6.01,2.167,-999.25,-999.25,
569,8.27,0.317,-999.25,90.84,0.404,2.64,0.363,5.87,2.169,-999.25,-999.25,
569.5,8.29,0.312,-999.25,87.55,0.368,2.68,0.341,5.76,2.176,-999.25,-999.25,
570,8.27,0.31,-999.25,90.53,0.339,2.76,0.325,5.59,2.179,-999.25,-999.25,
570.5,8.25,0.311,-999.25,84.88,0.341,2.84,0.326,5.18,2.178,-999.25,-999.25,
571,8.27,0.312,-999.25,93.97,0.325,2.85,0.319,5.04,2.176,-999.25,-999.25,
571.5,8.27,0.307,-999.25,92,0.368,2.79,0.339,5.31,2.185,-999.25,-999.25,
572,8.27,0.298,-999.25,91.93,0.388,2.74,0.346,5.95,2.201,-999.25,-999.25,
572.5,8.32,0.288,-999.25,86.7,0.394,2.76,0.345,6.74,2.218,-999.25,-999.25,
573,8.32,0.285,-999.25,82.83,0.317,2.81,0.301,6.45,2.222,-999.25,-999.25,
573.5,8.32,0.295,-999.25,80.62,0.329,2.85,0.312,5.49,2.205,-999.25,-999.25,
574,8.32,0.306,-999.25,74.4,0.386,2.85,0.348,4.75,2.186,-999.25,-999.25,
574.5,8.32,0.312,-999.25,75.56,0.395,2.84,0.356,4.52,2.177,-999.25,-999.25,
575,8.34,0.308,-999.25,83.35,0.323,2.83,0.316,4.96,2.183,-999.25,-999.25,
575.5,8.43,0.304,-999.25,83.35,0.314,2.85,0.309,5.96,2.191,-999.25,-999.25,
576,8.5,0.304,-999.25,78.48,0.334,2.86,0.319,7.14,2.19,-999.25,-999.25,
576.5,8.54,0.309,-999.25,72.05,0.391,2.83,0.352,8.52,2.182,-999.25,-999.25,
577,8.41,0.313,-999.25,79.62,0.437,2.76,0.38,7.54,2.175,-999.25,-999.25,
577.5,8.27,0.315,-999.25,88.04,0.408,2.71,0.364,6.68,2.172,-999.25,-999.25,
578,8.23,0.311,-999.25,88.72,0.383,2.71,0.349,6.63,2.178,-999.25,-999.25,
578.5,8.25,0.313,-999.25,90.24,0.303,2.78,0.308,6.68,2.175,-999.25,-999.25,
579,8.27,0.316,-999.25,88.38,0.384,2.86,0.352,6.25,2.17,-999.25,-999.25,
579.5,8.32,0.318,-999.25,92.11,0.353,2.92,0.336,6.02,2.167,-999.25,-999.25,
580,8.32,0.315,-999.25,91.1,0.392,2.93,0.356,5.72,2.171,-999.25,-999.25,
580.5,8.34,0.309,-999.25,97.37,0.394,2.88,0.354,5.45,2.182,-999.25,-999.25,
581,8.34,0.307,-999.25,91.95,0.425,2.82,0.371,5.38,2.185,-999.25,-999.25,
581.5,8.34,0.308,-999.25,91.61,0.403,2.78,0.359,5.34,2.183,-999.25,-999.25,
582,8.32,0.312,-999.25,83.99,0.39,2.78,0.353,5.09,2.177,-999.25,-999.25,
582.5,8.32,0.302,-999.25,94.28,0.415,2.81,0.363,4.49,2.193,-999.25,-999.25,
583,8.27,0.279,-999.25,91.06,0.341,2.88,0.312,7.63,2.233,-999.25,-999.25,
583.5,8.29,0.255,-999.25,90.23,0.279,2.96,0.267,15.06,2.274,-999.25,-999.25,
584,8.27,0.251,-999.25,80.96,0.238,3,0.245,13.82,2.281,-999.25,-999.25,
584.5,8.32,0.268,-999.25,81.97,0.305,2.96,0.287,4.64,2.251,-999.25,-999.25,
585,8.29,0.292,-999.25,81.97,0.319,2.9,0.306,3.32,2.211,-999.25,-999.25,
585.5,8.32,0.303,-999.25,81.81,0.35,2.82,0.327,3.75,2.192,-999.25,-999.25,
586,8.32,0.31,-999.25,84.52,0.331,2.79,0.321,4.48,2.18,-999.25,-999.25,
586.5,8.27,0.311,-999.25,86.37,0.404,2.74,0.361,5.26,2.178,-999.25,-999.25,
587,8.27,0.314,-999.25,84.68,0.391,2.72,0.355,5.92,2.174,-999.25,-999.25,
587.5,8.27,0.314,-999.25,85.36,0.367,2.74,0.342,8.02,2.173,-999.25,-999.25,
588,8.32,0.317,-999.25,83.52,0.362,2.79,0.34,7.44,2.167,-999.25,-999.25,
588.5,8.29,0.321,-999.25,87.39,0.382,2.84,0.353,6.49,2.162,-999.25,-999.25,
589,8.36,0.318,-999.25,87.05,0.392,2.83,0.357,6.32,2.166,-999.25,-999.25,
589.5,8.38,0.318,-999.25,87.39,0.352,2.81,0.335,6.25,2.167,-999.25,-999.25,
590,8.36,0.313,-999.25,87.22,0.401,2.75,0.36,6.5,2.176,-999.25,-999.25,
590.5,8.34,0.311,-999.25,88.24,0.394,2.71,0.355,6.68,2.177,-999.25,-999.25,
591,8.34,0.31,-999.25,91.44,0.441,2.68,0.381,7.15,2.179,-999.25,-999.25,
591.5,8.32,0.316,-999.25,90.76,0.369,2.7,0.344,6.57,2.169,-999.25,-999.25,
592,8.27,0.323,-999.25,85.68,0.374,2.73,0.349,6.27,2.158,-999.25,-999.25,
592.5,8.32,0.321,-999.25,75.75,0.454,2.7,0.393,6.01,2.16,-999.25,-999.25,
593,8.32,0.323,-999.25,79.3,0.477,2.72,0.407,6.08,2.158,-999.25,-999.25,
593.5,8.29,0.322,-999.25,81.17,0.459,2.76,0.396,5.74,2.16,-999.25,-999.25,
594,8.32,0.321,-999.25,87.38,0.443,2.8,0.387,5.34,2.16,-999.25,-999.25,
594.5,8.36,0.32,-999.25,83.56,0.413,2.8,0.369,5.17,2.162,-999.25,-999.25,
595,8.38,0.323,-999.25,78.85,0.39,2.81,0.358,5.11,2.158,-999.25,-999.25,
595.5,8.38,0.324,-999.25,86.3,0.386,2.8,0.356,5,2.155,-999.25,-999.25,
596,8.43,0.321,-999.25,89.77,0.371,2.77,0.347,5.01,2.162,-999.25,-999.25,
596.5,8.41,0.316,-999.25,95.5,0.385,2.74,0.352,5.14,2.17,-999.25,-999.25,
597,8.41,0.312,-999.25,86.7,0.378,2.73,0.347,5.48,2.176,-999.25,-999.25,
597.5,8.45,0.313,-999.25,84.5,0.38,2.73,0.348,6.17,2.175,-999.25,-999.25,
598,8.41,0.317,-999.25,81.95,0.375,2.72,0.347,6.69,2.167,-999.25,-999.25,
598.5,8.43,0.324,-999.25,83.31,0.428,2.74,0.38,5.53,2.156,-999.25,-999.25,
599,8.41,0.33,-999.25,81.29,0.382,2.79,0.357,5.44,2.146,-999.25,-999.25,
599.5,8.43,0.328,-999.25,84.84,0.419,2.83,0.376,5.77,2.149,-999.25,-999.25,
600,8.38,0.328,-999.25,88.57,0.368,2.87,0.349,5.79,2.148,-999.25,-999.25,
600.5,8.34,0.329,-999.25,91.77,0.368,2.89,0.349,5.55,2.148,-999.25,-999.25,
601,8.32,0.327,-999.25,87.73,0.37,2.84,0.349,5.96,2.15,-999.25,-999.25,
601.5,8.36,0.327,-999.25,82.65,0.411,2.8,0.371,6.72,2.151,-999.25,-999.25,
602,8.25,0.324,-999.25,70.35,0.407,2.74,0.368,7.41,2.156,-999.25,-999.25,
602.5,8.25,0.326,-999.25,66.1,0.418,2.75,0.375,6.66,2.153,-999.25,-999.25,
603,8.23,0.324,-999.25,71.01,0.429,2.74,0.38,5.78,2.156,-999.25,-999.25,
603.5,8.25,0.326,-999.25,72.27,0.373,2.76,0.35,5.55,2.153,-999.25,-999.25,
604,8.27,0.328,-999.25,84.6,0.365,2.81,0.347,5.16,2.149,-999.25,-999.25,
604.5,8.27,0.328,-999.25,81.57,0.442,2.84,0.389,4.65,2.149,-999.25,-999.25,
605,8.29,0.324,-999.25,92.01,0.434,2.84,0.383,4.83,2.155,-999.25,-999.25,
605.5,8.28,0.319,-999.25,85.94,0.457,2.81,0.394,5.09,2.164,-999.25,-999.25,
606,8.29,0.317,-999.25,86.28,0.454,2.81,0.392,5.03,2.167,-999.25,-999.25,
606.5,8.29,0.313,-999.25,88.24,0.388,2.83,0.353,4.36,2.174,-999.25,-999.25,
607,8.29,0.3,-999.25,88.74,0.402,2.87,0.355,6.23,2.197,-999.25,-999.25,
607.5,8.29,0.289,-999.25,88.13,0.391,2.93,0.344,11.74,2.215,-999.25,-999.25,
608,8.36,0.292,-999.25,81.36,0.296,2.99,0.294,8.64,2.211,-999.25,-999.25,
608.5,8.34,0.308,-999.25,81.2,0.355,2.96,0.332,3.65,2.184,-999.25,-999.25,
609,8.27,0.318,-999.25,80.8,0.382,2.85,0.351,3.16,2.167,-999.25,-999.25,
609.5,8.2,0.312,-999.25,82.83,0.441,2.76,0.382,3.93,2.176,-999.25,-999.25,
610,8.25,0.305,-999.25,84.01,0.355,2.79,0.331,5.46,2.188,-999.25,-999.25,
610.5,8.27,0.303,-999.25,86.7,0.352,2.87,0.328,5.9,2.192,-999.25,-999.25,
611,8.32,0.313,-999.25,84.33,0.4,2.93,0.359,5.01,2.175,-999.25,-999.25,
611.5,8.32,0.321,-999.25,78.1,0.341,2.92,0.331,4.89,2.162,-999.25,-999.25,
612,8.34,0.33,-999.25,83,0.292,2.92,0.312,5.11,2.146,-999.25,-999.25,
612.5,8.36,0.329,-999.25,84.54,0.315,2.88,0.322,4.97,2.147,-999.25,-999.25,
613,8.32,0.329,-999.25,88.4,0.384,2.88,0.358,4.87,2.148,-999.25,-999.25,
613.5,8.32,0.324,-999.25,86.87,0.351,2.85,0.338,4.95,2.157,-999.25,-999.25,
614,8.32,0.324,-999.25,88.38,0.376,2.86,0.351,5.1,2.157,-999.25,-999.25,
614.5,8.34,0.32,-999.25,87.02,0.398,2.83,0.361,5.29,2.163,-999.25,-999.25,
615,8.36,0.323,-999.25,81.97,0.411,2.85,0.37,5.64,2.158,-999.25,-999.25,
615.5,8.36,0.327,-999.25,77.77,0.391,2.87,0.36,5.62,2.151,-999.25,-999.25,
616,8.29,0.325,-999.25,78.44,0.394,2.83,0.361,5.47,2.154,-999.25,-999.25,
616.5,8.32,0.32,-999.25,82.32,0.391,2.77,0.357,5.25,2.162,-999.25,-999.25,
617,8.29,0.32,-999.25,93.44,0.301,2.75,0.311,5.6,2.163,-999.25,-999.25,
617.5,8.27,0.323,-999.25,90.05,0.323,2.76,0.323,5.9,2.158,-999.25,-999.25,
618,8.27,0.327,-999.25,86.17,0.36,2.78,0.344,5.89,2.152,-999.25,-999.25,
618.5,8.27,0.326,-999.25,78.24,0.454,2.76,0.395,5.85,2.153,-999.25,-999.25,
619,8.29,0.326,-999.25,81.83,0.438,2.77,0.386,5.73,2.152,-999.25,-999.25,
619.5,8.27,0.326,-999.25,80.97,0.385,2.77,0.357,5.56,2.152,-999.25,-999.25,
620,8.29,0.324,-999.25,80.48,0.404,2.76,0.366,5.31,2.155,-999.25,-999.25,
620.5,8.32,0.326,-999.25,84.34,0.451,2.77,0.393,4.68,2.153,-999.25,-999.25,
621,8.29,0.321,-999.25,85.2,0.44,2.74,0.385,4.91,2.161,-999.25,-999.25,
621.5,8.32,0.319,-999.25,81.97,0.367,2.72,0.344,5.32,2.165,-999.25,-999.25,
622,8.32,0.318,-999.25,77.42,0.401,2.69,0.362,5.05,2.166,-999.25,-999.25,
622.5,8.34,0.324,-999.25,77.57,0.354,2.74,0.339,4.58,2.156,-999.25,-999.25,
623,8.32,0.312,-999.25,83.16,0.408,2.74,0.363,4.81,2.176,-999.25,-999.25,
623.5,8.34,0.295,-999.25,77.9,0.369,2.75,0.334,7.37,2.205,-999.25,-999.25,
624,8.36,0.284,-999.25,79.25,0.316,2.76,0.3,10.53,2.225,-999.25,-999.25,
624.5,8.32,0.299,-999.25,70.15,0.354,2.83,0.328,5.8,2.199,-999.25,-999.25,
625,8.29,0.315,-999.25,74.07,0.38,2.83,0.349,4.01,2.172,-999.25,-999.25,
625.5,8.36,0.326,-999.25,71.7,0.433,2.8,0.383,3.96,2.153,-999.25,-999.25,
626,8.34,0.322,-999.25,76.9,0.414,2.71,0.371,4.56,2.159,-999.25,-999.25,
626.5,8.34,0.324,-999.25,83.98,0.336,2.74,0.33,4.97,2.156,-999.25,-999.25,
627,8.38,0.324,-999.25,89.39,0.394,2.78,0.361,5.01,2.157,-999.25,-999.25,
627.5,8.38,0.325,-999.25,91.94,0.335,2.84,0.33,4.94,2.154,-999.25,-999.25,
628,8.41,0.328,-999.25,88.06,0.378,2.86,0.354,5.42,2.149,-999.25,-999.25,
628.5,8.41,0.329,-999.25,86.03,0.436,2.85,0.386,5.87,2.148,-999.25,-999.25,
629,8.41,0.326,-999.25,86.7,0.408,2.78,0.369,6.02,2.153,-999.25,-999.25,
629.5,8.43,0.323,-999.25,87.22,0.368,2.75,0.346,5.94,2.158,-999.25,-999.25,
630,8.43,0.322,-999.25,87.55,0.307,2.75,0.315,5.96,2.16,-999.25,-999.25,
630.5,8.41,0.326,-999.25,84.67,0.351,2.81,0.339,6.28,2.153,-999.25,-999.25,
631,8.41,0.324,-999.25,87.03,0.357,2.84,0.341,5.61,2.155,-999.25,-999.25,
631.5,8.36,0.324,-999.25,81.27,0.35,2.87,0.337,5.25,2.155,-999.25,-999.25,
632,8.34,0.326,-999.25,88.54,0.404,2.9,0.367,4.81,2.153,-999.25,-999.25,
632.5,8.36,0.324,-999.25,83.29,0.365,2.88,0.345,4.53,2.156,-999.25,-999.25,
633,8.32,0.327,-999.25,83.84,0.446,2.85,0.391,4.45,2.151,-999.25,-999.25,
633.5,8.29,0.328,-999.25,78.27,0.388,2.81,0.359,4.31,2.149,-999.25,-999.25,
634,8.27,0.329,-999.25,78.12,0.322,2.84,0.326,3.95,2.147,-999.25,-999.25,
634.5,8.27,0.32,-999.25,78.78,0.347,2.9,0.334,5.43,2.163,-999.25,-999.25,
635,8.27,0.313,-999.25,80.48,0.338,3,0.326,10,2.175,-999.25,-999.25,
635.5,8.32,0.314,-999.25,80.28,0.343,3.05,0.329,7.47,2.173,-999.25,-999.25,
636,8.29,0.322,-999.25,77.59,0.442,2.98,0.387,4.02,2.16,-999.25,-999.25,
636.5,8.29,0.323,-999.25,74.54,0.428,2.84,0.379,3.53,2.157,-999.25,-999.25,
637,8.27,0.324,-999.25,78.78,0.378,2.77,0.352,4.21,2.156,-999.25,-999.25,
637.5,8.32,0.325,-999.25,81.96,0.348,2.81,0.337,4.91,2.154,-999.25,-999.25,
638,8.29,0.332,-999.25,85.68,0.374,2.91,0.354,5.12,2.143,-999.25,-999.25,
638.5,8.29,0.331,-999.25,79.95,0.385,2.93,0.359,5.12,2.145,-999.25,-999.25,
639,8.32,0.328,-999.25,84.18,0.378,2.89,0.354,5.12,2.149,-999.25,-999.25,
639.5,8.29,0.325,-999.25,86.89,0.394,2.82,0.361,5.13,2.154,-999.25,-999.25,
640,8.27,0.324,-999.25,89.4,0.416,2.78,0.373,5.14,2.155,-999.25,-999.25,
640.5,8.29,0.324,-999.25,91.09,0.467,2.77,0.402,5.12,2.156,-999.25,-999.25,
641,8.27,0.323,-999.25,90.41,0.433,2.77,0.382,5.11,2.158,-999.25,-999.25,
641.5,8.32,0.322,-999.25,91.61,0.352,2.81,0.337,5.18,2.16,-999.25,-999.25,
642,8.38,0.322,-999.25,90.77,0.393,2.87,0.359,4.97,2.159,-999.25,-999.25,
642.5,8.43,0.321,-999.25,87.56,0.382,2.89,0.353,4.74,2.162,-999.25,-999.25,
643,8.45,0.323,-999.25,81.62,0.452,2.92,0.393,4.35,2.158,-999.25,-999.25,
643.5,8.43,0.323,-999.25,74.11,0.424,2.91,0.377,4.44,2.157,-999.25,-999.25,
644,8.43,0.327,-999.25,70.81,0.45,2.91,0.393,4.62,2.151,-999.25,-999.25,
644.5,8.43,0.33,-999.25,83.92,0.423,2.91,0.379,4.75,2.145,-999.25,-999.25,
645,8.41,0.33,-999.25,83.92,0.413,2.89,0.374,5.11,2.146,-999.25,-999.25,
645.5,8.47,0.327,-999.25,85.27,0.378,2.88,0.353,4.99,2.15,-999.25,-999.25,
646,8.5,0.317,-999.25,75.48,0.44,2.81,0.383,4.66,2.168,-999.25,-999.25,
646.5,8.5,0.318,-999.25,76.9,0.515,2.83,0.428,4.57,2.166,-999.25,-999.25,
647,8.45,0.322,-999.25,81.54,0.491,2.86,0.415,4.65,2.16,-999.25,-999.25,
647.5,8.43,0.327,-999.25,81.95,0.337,2.91,0.332,4.62,2.15,-999.25,-999.25,
648,8.43,0.328,-999.25,83.83,0.409,2.91,0.371,5.17,2.15,-999.25,-999.25,
648.5,8.41,0.326,-999.25,77.91,0.361,2.89,0.344,5.81,2.153,-999.25,-999.25,
649,8.45,0.325,-999.25,80.2,0.387,2.88,0.357,5.13,2.154,-999.25,-999.25,
649.5,8.45,0.324,-999.25,79.35,0.416,2.87,0.373,4.67,2.155,-999.25,-999.25,
650,8.43,0.325,-999.25,79.61,0.447,2.87,0.391,4.28,2.154,-999.25,-999.25,
650.5,8.45,0.326,-999.25,79.01,0.441,2.88,0.388,4.13,2.152,-999.25,-999.25,
651,8.45,0.329,-999.25,78.32,0.381,2.9,0.356,4.15,2.147,-999.25,-999.25,
651.5,8.43,0.328,-999.25,80,0.435,2.9,0.385,4.19,2.148,-999.25,-999.25,
652,8.45,0.324,-999.25,77.97,0.372,2.92,0.349,3.94,2.155,-999.25,-999.25,
652.5,8.5,0.313,-999.25,79.25,0.362,2.92,0.338,5.01,2.175,-999.25,-999.25,
653,8.5,0.299,-999.25,72.5,0.373,2.94,0.338,10.16,2.198,-999.25,-999.25,
653.5,8.5,0.297,-999.25,78.17,0.429,2.91,0.369,8.43,2.203,-999.25,-999.25,
654,8.47,0.306,-999.25,78.51,0.347,2.9,0.327,3.82,2.186,-999.25,-999.25,
654.5,8.47,0.324,-999.25,93.71,0.413,2.93,0.371,3.15,2.155,-999.25,-999.25,
655,8.47,0.33,-999.25,96.75,0.451,2.94,0.395,3.69,2.145,-999.25,-999.25,
655.5,8.52,0.331,-999.25,104.18,0.435,2.94,0.387,4.09,2.144,-999.25,-999.25,
656,8.52,0.327,-999.25,97.51,0.549,2.9,0.452,4.21,2.152,-999.25,-999.25,
656.5,8.56,0.323,-999.25,93.01,0.531,2.87,0.439,4.68,2.157,-999.25,-999.25,
657,8.56,0.32,-999.25,91.41,0.413,2.83,0.369,4.97,2.162,-999.25,-999.25,
657.5,8.56,0.323,-999.25,94.95,0.396,2.82,0.361,4.55,2.158,-999.25,-999.25,
658,8.56,0.326,-999.25,95.48,0.429,2.83,0.381,4.29,2.152,-999.25,-999.25,
658.5,8.59,0.326,-999.25,88.98,0.507,2.84,0.426,4.51,2.152,-999.25,-999.25,
659,8.65,0.32,-999.25,85.69,0.42,2.8,0.373,4.68,2.163,-999.25,-999.25,
659.5,8.68,0.321,-999.25,85.27,0.388,2.78,0.356,4.68,2.161,-999.25,-999.25,
660,8.68,0.322,-999.25,91.68,0.443,2.74,0.387,4.64,2.159,-999.25,-999.25,
660.5,8.68,0.326,-999.25,97.09,0.498,2.73,0.421,4.59,2.152,-999.25,-999.25,
661,8.65,0.327,-999.25,98.1,0.437,2.73,0.386,4.92,2.15,-999.25,-999.25,
661.5,8.65,0.329,-999.25,90.41,0.436,2.77,0.386,5.48,2.147,-999.25,-999.25,
662,8.61,0.329,-999.25,84.58,0.396,2.8,0.364,6.23,2.148,-999.25,-999.25,
662.5,8.59,0.326,-999.25,80.94,0.348,2.82,0.337,6.36,2.153,-999.25,-999.25,
663,8.56,0.326,-999.25,88.89,0.411,2.81,0.371,5.9,2.153,-999.25,-999.25,
663.5,8.56,0.327,-999.25,92.1,0.411,2.83,0.371,5.41,2.151,-999.25,-999.25,
664,8.5,0.331,-999.25,91.34,0.369,2.84,0.351,4.67,2.143,-999.25,-999.25,
664.5,8.5,0.335,-999.25,87.72,0.391,2.86,0.364,4.46,2.137,-999.25,-999.25,
665,8.45,0.335,-999.25,83.58,0.393,2.86,0.365,3.99,2.137,-999.25,-999.25,
665.5,8.5,0.335,-999.25,93.71,0.371,2.91,0.353,3.19,2.138,-999.25,-999.25,
666,8.54,0.32,-999.25,101.48,0.365,2.9,0.343,3.07,2.163,-999.25,-999.25,
666.5,8.61,0.296,-999.25,102.49,0.424,2.9,0.366,3.68,2.205,-999.25,-999.25,
667,8.63,0.273,-999.25,101.24,0.344,2.91,0.311,7.57,2.244,-999.25,-999.25,
667.5,8.59,0.275,-999.25,91.7,0.302,3,0.289,7.43,2.241,-999.25,-999.25,
668,8.63,0.304,-999.25,93.82,0.401,3.07,0.356,3.63,2.19,-999.25,-999.25,
668.5,8.7,0.332,-999.25,90.59,0.407,3.02,0.371,3.18,2.141,-999.25,-999.25,
669,8.7,0.353,-999.25,92.78,0.53,2.97,0.45,2.38,2.107,-999.25,-999.25,
669.5,8.7,0.35,-999.25,89.32,0.447,2.93,0.401,1.95,2.111,-999.25,-999.25,
670,8.61,0.338,-999.25,88.05,0.401,2.98,0.371,2.34,2.132,-999.25,-999.25,
670.5,8.56,0.319,-999.25,82.9,0.357,2.99,0.339,3.43,2.164,-999.25,-999.25,
671,8.54,0.312,-999.25,83.68,0.376,3.02,0.345,5.12,2.176,-999.25,-999.25,
671.5,8.54,0.315,-999.25,81.92,0.434,3.03,0.379,4.43,2.172,-999.25,-999.25,
672,8.56,0.322,-999.25,88.42,0.371,3.06,0.347,4.23,2.16,-999.25,-999.25,
672.5,8.54,0.324,-999.25,90.93,0.348,3.04,0.336,5.25,2.157,-999.25,-999.25,
673,8.56,0.323,-999.25,93.8,0.339,3.02,0.331,6.22,2.158,-999.25,-999.25,
673.5,8.61,0.321,-999.25,94.61,0.371,2.98,0.347,5.72,2.161,-999.25,-999.25,
674,8.61,0.323,-999.25,93.26,0.451,2.99,0.392,5.06,2.157,-999.25,-999.25,
674.5,8.59,0.328,-999.25,94.61,0.407,3.04,0.37,4.53,2.149,-999.25,-999.25,
675,8.56,0.327,-999.25,91.69,0.352,3.04,0.34,4.28,2.15,-999.25,-999.25,
675.5,8.54,0.325,-999.25,89.41,0.472,3.02,0.405,4.47,2.154,-999.25,-999.25,
676,8.59,0.315,-999.25,89.02,0.417,2.95,0.37,5.13,2.171,-999.25,-999.25,
676.5,8.61,0.313,-999.25,90.79,0.362,2.96,0.338,5.87,2.175,-999.25,-999.25,
677,8.65,0.313,-999.25,94.76,0.42,2.98,0.37,5.72,2.176,-999.25,-999.25,
677.5,8.63,0.314,-999.25,95.83,0.441,3,0.383,4.72,2.173,-999.25,-999.25,
678,8.61,0.313,-999.25,93.97,0.36,2.98,0.337,4.14,2.175,-999.25,-999.25,
678.5,8.56,0.311,-999.25,90.08,0.351,2.94,0.332,4.27,2.179,-999.25,-999.25,
679,8.59,0.313,-999.25,85.94,0.37,2.96,0.343,4.69,2.175,-999.25,-999.25,
679.5,8.61,0.316,-999.25,88.39,0.354,2.98,0.336,4.93,2.17,-999.25,-999.25,
680,8.63,0.314,-999.25,84.93,0.318,2.96,0.316,5.3,2.173,-999.25,-999.25,
680.5,8.61,0.311,-999.25,83.58,0.361,2.92,0.337,5.25,2.179,-999.25,-999.25,
681,8.63,0.307,-999.25,92.7,0.417,2.88,0.366,4.86,2.185,-999.25,-999.25,
681.5,8.59,0.306,-999.25,99.11,0.425,2.89,0.37,4.98,2.187,-999.25,-999.25,
682,8.59,0.303,-999.25,94.79,0.329,2.93,0.316,6.35,2.192,-999.25,-999.25,
682.5,8.55,0.296,-999.25,89.63,0.321,2.97,0.309,8.22,2.204,-999.25,-999.25,
683,8.54,0.292,-999.25,93.1,0.375,3.01,0.336,11.71,2.211,-999.25,-999.25,
683.5,8.56,0.29,-999.25,103.74,0.394,2.99,0.346,8.67,2.214,-999.25,-999.25,
684,8.56,0.298,-999.25,103.94,0.439,2.95,0.375,4.14,2.201,-999.25,-999.25,
684.5,8.59,0.305,-999.25,95.07,0.387,2.89,0.348,3.53,2.189,-999.25,-999.25,
685,8.61,0.315,-999.25,96.17,0.414,2.89,0.368,3.8,2.172,-999.25,-999.25,
685.5,8.61,0.314,-999.25,94.72,0.345,2.88,0.33,4.5,2.174,-999.25,-999.25,
686,8.7,0.311,-999.25,103.17,0.383,2.87,0.349,5.3,2.179,-999.25,-999.25,
686.5,8.77,0.303,-999.25,95.74,0.385,2.86,0.346,6.4,2.192,-999.25,-999.25,
687,8.81,0.308,-999.25,97.43,0.422,2.92,0.369,8.9,2.184,-999.25,-999.25,
687.5,8.81,0.314,-999.25,94.13,0.398,2.95,0.358,11.53,2.173,-999.25,-999.25,
688,8.79,0.319,-999.25,92.71,0.331,2.96,0.325,6.89,2.164,-999.25,-999.25,
688.5,8.79,0.315,-999.25,88.74,0.323,2.91,0.319,3.9,2.172,-999.25,-999.25,
689,8.86,0.304,-999.25,90.48,0.397,2.87,0.354,3.37,2.19,-999.25,-999.25,
689.5,8.97,0.298,-999.25,95.28,0.391,2.9,0.348,4,2.201,-999.25,-999.25,
690,9.04,0.297,-999.25,90.8,0.4,2.96,0.352,4.58,2.202,-999.25,-999.25,
690.5,9.06,0.298,-999.25,94.72,0.345,3.01,0.322,4.78,2.201,-999.25,-999.25,
691,9.1,0.299,-999.25,92.02,0.356,3.02,0.329,5.34,2.199,-999.25,-999.25,
691.5,9.13,0.301,-999.25,92.1,0.28,3.03,0.291,5.83,2.195,-999.25,-999.25,
692,9.13,0.305,-999.25,83.24,0.369,3.06,0.339,7.32,2.188,-999.25,-999.25,
692.5,9.1,0.307,-999.25,86.03,0.406,3.09,0.36,9.25,2.186,-999.25,-999.25,
693,9.06,0.304,-999.25,91.94,0.326,3.12,0.315,7.66,2.19,-999.25,-999.25,
693.5,9.06,0.301,-999.25,104.96,0.371,3.1,0.338,6.29,2.195,-999.25,-999.25,
694,9.01,0.3,-999.25,99.47,0.414,3.07,0.362,6.2,2.198,-999.25,-999.25,
694.5,9.01,0.3,-999.25,92.81,0.394,3.03,0.35,6.32,2.197,-999.25,-999.25,
695,8.97,0.303,-999.25,80.88,0.318,2.99,0.311,6.27,2.192,-999.25,-999.25,
695.5,8.95,0.305,-999.25,88.31,0.338,2.95,0.322,6.66,2.189,-999.25,-999.25,
696,8.9,0.3,-999.25,92.02,0.352,2.88,0.327,7.37,2.196,-999.25,-999.25,
696.5,8.88,0.288,-999.25,95.74,0.358,2.79,0.325,6.19,2.217,-999.25,-999.25,
697,8.88,0.282,-999.25,88.72,0.393,2.77,0.342,5.53,2.227,-999.25,-999.25,
697.5,8.9,0.285,-999.25,88.3,0.392,2.82,0.343,4.78,2.222,-999.25,-999.25,
698,8.95,0.293,-999.25,83.65,0.435,2.92,0.371,5.57,2.208,-999.25,-999.25,
698.5,8.91,0.295,-999.25,89.9,0.466,2.96,0.39,6.91,2.206,-999.25,-999.25,
699,8.95,0.291,-999.25,90.41,0.541,2.96,0.434,5.67,2.212,-999.25,-999.25,
699.5,8.92,0.289,-999.25,92.69,0.444,2.97,0.375,4.72,2.217,-999.25,-999.25,
700,8.92,0.278,-999.25,89.74,0.438,2.96,0.367,5.53,2.234,-999.25,-999.25,
700.5,8.88,0.268,-999.25,89.32,0.513,3.03,0.409,7.68,2.252,-999.25,-999.25,
701,8.88,0.252,-999.25,94.72,0.389,3.11,0.328,8.25,2.28,-999.25,-999.25,
701.5,8.8,0.245,-999.25,103.5,0.282,3.25,0.264,6.61,2.291,-999.25,-999.25,
702,8.78,0.241,-999.25,99.02,0.298,3.3,0.271,6.25,2.298,-999.25,-999.25,
702.5,8.77,0.243,-999.25,91.34,0.386,3.3,0.323,5.61,2.294,-999.25,-999.25,
703,8.79,0.255,-999.25,81.8,0.332,3.34,0.296,4.97,2.273,-999.25,-999.25,
703.5,8.79,0.266,-999.25,95.51,0.357,3.33,0.315,4.41,2.256,-999.25,-999.25,
704,8.83,0.282,-999.25,107.14,0.397,3.35,0.344,4.22,2.228,-999.25,-999.25,
704.5,8.86,0.288,-999.25,106.63,0.356,3.28,0.324,4.22,2.218,-999.25,-999.25,
705,8.92,0.294,-999.25,92.33,0.395,3.2,0.348,4.28,2.208,-999.25,-999.25,
705.5,8.9,0.294,-999.25,89.74,0.479,3.13,0.397,4.3,2.207,-999.25,-999.25,
706,8.9,0.291,-999.25,83.92,0.434,3.06,0.369,4.45,2.212,-999.25,-999.25,
706.5,8.9,0.29,-999.25,91.01,0.454,3.03,0.381,4.98,2.215,-999.25,-999.25,
707,8.88,0.288,-999.25,86.37,0.451,3.03,0.378,5.05,2.217,-999.25,-999.25,
707.5,8.88,0.289,-999.25,86.3,0.383,3.06,0.339,5.38,2.216,-999.25,-999.25,
708,8.88,0.285,-999.25,94.18,0.39,3.07,0.342,5.55,2.223,-999.25,-999.25,
708.5,8.9,0.279,-999.25,91.98,0.365,3.08,0.325,5.89,2.233,-999.25,-999.25,
709,8.86,0.276,-999.25,105.32,0.395,3.12,0.341,6.5,2.238,-999.25,-999.25,
709.5,8.79,0.281,-999.25,104.2,0.369,3.22,0.328,5.78,2.229,-999.25,-999.25,
710,8.77,0.29,-999.25,108.33,0.388,3.28,0.343,4.59,2.214,-999.25,-999.25,
710.5,8.77,0.299,-999.25,100.47,0.308,3.31,0.304,4.03,2.198,-999.25,-999.25,
711,8.81,0.3,-999.25,86.62,0.384,3.25,0.345,3.86,2.197,-999.25,-999.25,
711.5,8.81,0.295,-999.25,85.93,0.38,3.18,0.34,3.76,2.205,-999.25,-999.25,
712,8.81,0.293,-999.25,90.41,0.414,3.12,0.359,3.96,2.208,-999.25,-999.25,
712.5,8.86,0.293,-999.25,95.39,0.479,3.08,0.397,4.08,2.208,-999.25,-999.25,
713,8.88,0.292,-999.25,99.9,0.474,3.04,0.394,4.25,2.211,-999.25,-999.25,
713.5,8.86,0.291,-999.25,95,0.473,3.01,0.393,4.39,2.212,-999.25,-999.25,
714,8.86,0.29,-999.25,98.89,0.444,3.03,0.375,4.49,2.214,-999.25,-999.25,
714.5,8.9,0.289,-999.25,98.79,0.458,3.06,0.383,4.47,2.216,-999.25,-999.25,
715,8.9,0.285,-999.25,100.56,0.488,3.06,0.4,4.45,2.223,-999.25,-999.25,
715.5,8.91,0.286,-999.25,105.19,0.436,3.1,0.369,4.36,2.22,-999.25,-999.25,
716,8.93,0.289,-999.25,107.22,0.525,3.11,0.424,4.17,2.216,-999.25,-999.25,
716.5,8.95,0.294,-999.25,111.03,0.41,3.12,0.357,4.06,2.207,-999.25,-999.25,
717,8.92,0.296,-999.25,103.17,0.371,3.09,0.336,3.98,2.204,-999.25,-999.25,
717.5,8.96,0.297,-999.25,89.4,0.344,3.07,0.321,3.86,2.202,-999.25,-999.25,
718,8.99,0.294,-999.25,91.24,0.353,3.07,0.325,3.84,2.207,-999.25,-999.25,
718.5,9.06,0.294,-999.25,92.42,0.399,3.12,0.35,3.88,2.208,-999.25,-999.25,
719,9.1,0.299,-999.25,99.35,0.395,3.21,0.35,3.91,2.199,-999.25,-999.25,
719.5,9.13,0.302,-999.25,95.15,0.422,3.25,0.367,3.91,2.194,-999.25,-999.25,
720,9.17,0.303,-999.25,97.42,0.41,3.26,0.36,3.92,2.193,-999.25,-999.25,
720.5,9.19,0.301,-999.25,101.23,0.389,3.24,0.348,3.9,2.196,-999.25,-999.25,
721,9.26,0.298,-999.25,100.47,0.414,3.23,0.361,3.97,2.201,-999.25,-999.25,
721.5,9.31,0.29,-999.25,100.47,0.333,3.16,0.312,4.18,2.215,-999.25,-999.25,
722,9.33,0.282,-999.25,100.23,0.347,3.11,0.316,4.38,2.228,-999.25,-999.25,
722.5,9.4,0.281,-999.25,100.48,0.421,3.12,0.358,4.24,2.229,-999.25,-999.25,
723,9.37,0.284,-999.25,95.16,0.433,3.14,0.366,4.28,2.225,-999.25,-999.25,
723.5,9.35,0.284,-999.25,89.23,0.376,3.11,0.333,4.8,2.224,-999.25,-999.25,
724,9.33,0.286,-999.25,92.45,0.397,3.1,0.346,5.14,2.222,-999.25,-999.25,
724.5,9.33,0.285,-999.25,90.68,0.409,3.08,0.352,5.75,2.222,-999.25,-999.25,
725,9.26,0.284,-999.25,93.47,0.34,3.06,0.313,5.72,2.225,-999.25,-999.25,
725.5,9.24,0.28,-999.25,88.31,0.351,3.03,0.317,5.51,2.232,-999.25,-999.25,
726,9.13,0.275,-999.25,100.47,0.347,3.01,0.313,5.28,2.24,-999.25,-999.25,
726.5,9.13,0.276,-999.25,98.72,0.38,3.04,0.332,4.92,2.238,-999.25,-999.25,
727,9.1,0.277,-999.25,103.93,0.428,3.05,0.36,4.63,2.237,-999.25,-999.25,
727.5,9.06,0.28,-999.25,89.48,0.353,3.06,0.319,4.31,2.232,-999.25,-999.25,
728,9.04,0.283,-999.25,95.18,0.384,3.09,0.337,4.32,2.226,-999.25,-999.25,
728.5,9.06,0.28,-999.25,95.8,0.366,3.08,0.326,4.47,2.231,-999.25,-999.25,
729,9.1,0.281,-999.25,101.51,0.368,3.11,0.327,4.62,2.23,-999.25,-999.25,
729.5,9.08,0.284,-999.25,95.87,0.321,3.13,0.303,4.85,2.224,-999.25,-999.25,
730,9.1,0.285,-999.25,93.41,0.386,3.12,0.339,5.13,2.222,-999.25,-999.25,
730.5,9.08,0.281,-999.25,93.71,0.396,3.06,0.343,4.98,2.23,-999.25,-999.25,
731,9.06,0.279,-999.25,94.39,0.373,3.05,0.329,4.82,2.232,-999.25,-999.25,
731.5,9.01,0.283,-999.25,93.46,0.349,3.1,0.318,5.07,2.227,-999.25,-999.25,
732,9.06,0.287,-999.25,92.7,0.368,3.15,0.33,5.25,2.218,-999.25,-999.25,
732.5,9.06,0.289,-999.25,90.76,0.405,3.14,0.352,4.93,2.215,-999.25,-999.25,
733,9.06,0.292,-999.25,87.89,0.342,3.12,0.318,4.75,2.211,-999.25,-999.25,
733.5,9.04,0.298,-999.25,89.48,0.393,3.13,0.349,4.68,2.2,-999.25,-999.25,
734,9.06,0.306,-999.25,92.52,0.405,3.18,0.359,4.57,2.187,-999.25,-999.25,
734.5,9.01,0.307,-999.25,98.59,0.389,3.25,0.35,4.39,2.184,-999.25,-999.25,
735,9.04,0.302,-999.25,95.79,0.383,3.28,0.345,4.36,2.194,-999.25,-999.25,
735.5,9.08,0.292,-999.25,96.38,0.404,3.24,0.352,4.36,2.211,-999.25,-999.25,
736,9.09,0.292,-999.25,94.11,0.408,3.22,0.355,4.25,2.21,-999.25,-999.25,
736.5,9.08,0.301,-999.25,97.09,0.4,3.22,0.354,4.22,2.195,-999.25,-999.25,
737,9.06,0.307,-999.25,96.84,0.352,3.2,0.33,4.34,2.184,-999.25,-999.25,
737.5,9.06,0.309,-999.25,97.43,0.369,3.2,0.34,4.34,2.181,-999.25,-999.25,
738,9.01,0.308,-999.25,97.18,0.429,3.23,0.373,4.32,2.184,-999.25,-999.25,
738.5,9.01,0.309,-999.25,96.66,0.499,3.32,0.415,4.32,2.181,-999.25,-999.25,
739,9.06,0.309,-999.25,92.77,0.401,3.34,0.358,4.26,2.182,-999.25,-999.25,
739.5,9.06,0.312,-999.25,89.31,0.452,3.36,0.388,4.22,2.177,-999.25,-999.25,
740,9.01,0.31,-999.25,81.97,0.46,3.32,0.392,4.18,2.179,-999.25,-999.25,
740.5,9.01,0.304,-999.25,86.62,0.495,3.26,0.411,4.28,2.191,-999.25,-999.25,
741,8.92,0.292,-999.25,89.32,0.448,3.19,0.378,4.32,2.211,-999.25,-999.25,
741.5,8.88,0.284,-999.25,92.36,0.454,3.17,0.379,4.44,2.225,-999.25,-999.25,
742,8.88,0.285,-999.25,98.1,0.444,3.2,0.373,4.22,2.223,-999.25,-999.25,
742.5,8.97,0.291,-999.25,100.9,0.425,3.2,0.364,4.01,2.212,-999.25,-999.25,
743,8.99,0.295,-999.25,107.89,0.408,3.17,0.356,3.79,2.205,-999.25,-999.25,
743.5,8.97,0.296,-999.25,107.66,0.461,3.16,0.387,3.57,2.204,-999.25,-999.25,
744,8.97,0.292,-999.25,107.81,0.393,3.16,0.346,3.48,2.211,-999.25,-999.25,
744.5,8.97,0.295,-999.25,103.6,0.397,3.21,0.35,3.36,2.206,-999.25,-999.25,
745,8.99,0.301,-999.25,101.13,0.394,3.26,0.351,3.27,2.195,-999.25,-999.25,
745.5,9.04,0.309,-999.25,97.85,0.398,3.28,0.356,3.34,2.182,-999.25,-999.25,
746,9.1,0.308,-999.25,96.75,0.355,3.23,0.332,3.62,2.183,-999.25,-999.25,
746.5,9.08,0.3,-999.25,87.97,0.325,3.15,0.313,3.86,2.197,-999.25,-999.25,
747,9.13,0.296,-999.25,86.96,0.359,3.15,0.329,4.03,2.205,-999.25,-999.25,
747.5,9.15,0.298,-999.25,87.97,0.382,3.23,0.343,3.99,2.201,-999.25,-999.25,
748,9.19,0.303,-999.25,90.76,0.404,3.33,0.357,3.91,2.191,-999.25,-999.25,
748.5,9.17,0.305,-999.25,96.06,0.393,3.37,0.352,3.75,2.188,-999.25,-999.25,
749,9.22,0.303,-999.25,95.14,0.384,3.37,0.346,3.88,2.192,-999.25,-999.25,
749.5,9.31,0.299,-999.25,89.93,0.36,3.32,0.331,3.94,2.199,-999.25,-999.25,
750,9.33,0.295,-999.25,91.03,0.401,3.29,0.352,3.99,2.206,-999.25,-999.25,
750.5,9.42,0.289,-999.25,92.3,0.477,3.24,0.394,4,2.216,-999.25,-999.25,
751,9.44,0.289,-999.25,98.44,0.407,3.24,0.353,3.66,2.215,-999.25,-999.25,
751.5,9.42,0.292,-999.25,86.96,0.336,3.24,0.315,3.67,2.21,-999.25,-999.25,
752,9.48,0.298,-999.25,86.03,0.376,3.24,0.339,3.6,2.2,-999.25,-999.25,
752.5,9.53,0.305,-999.25,86.95,0.36,3.22,0.334,3.72,2.189,-999.25,-999.25,
753,9.55,0.31,-999.25,90.07,0.392,3.19,0.353,2.9,2.18,-999.25,-999.25,
753.5,9.62,0.316,-999.25,90.24,0.358,3.2,0.338,2.8,2.17,-999.25,-999.25,
754,9.55,0.318,-999.25,81.95,0.403,3.24,0.363,3.68,2.167,-999.25,-999.25,
754.5,9.53,0.315,-999.25,77.48,0.411,3.25,0.366,4.3,2.171,-999.25,-999.25,
755,9.53,0.31,-999.25,78.92,0.438,3.24,0.379,4.29,2.18,-999.25,-999.25,
755.5,9.51,0.304,-999.25,87.63,0.494,3.23,0.41,4.2,2.189,-999.25,-999.25,
756,9.53,0.301,-999.25,94.39,0.466,3.25,0.392,4.07,2.196,-999.25,-999.25,
756.5,9.51,0.299,-999.25,91.01,0.494,3.28,0.408,3.95,2.199,-999.25,-999.25,
757,9.44,0.298,-999.25,88.98,0.478,3.26,0.398,3.85,2.2,-999.25,-999.25,
757.5,9.42,0.301,-999.25,93.81,0.424,3.24,0.368,3.8,2.196,-999.25,-999.25,
758,9.35,0.302,-999.25,91.03,0.397,3.21,0.353,3.73,2.193,-999.25,-999.25,
758.5,9.32,0.303,-999.25,88.41,0.399,3.21,0.354,3.64,2.191,-999.25,-999.25,
759,9.31,0.304,-999.25,79.12,0.356,3.24,0.331,3.71,2.189,-999.25,-999.25,
759.5,9.35,0.306,-999.25,85.36,0.416,3.27,0.365,3.74,2.187,-999.25,-999.25,
760,9.4,0.304,-999.25,87.31,0.455,3.25,0.387,3.73,2.191,-999.25,-999.25,
760.5,9.35,0.304,-999.25,93.46,0.424,3.22,0.369,3.69,2.191,-999.25,-999.25,
761,9.35,0.306,-999.25,88.98,0.435,3.2,0.376,3.79,2.186,-999.25,-999.25,
761.5,9.35,0.309,-999.25,94.05,0.407,3.21,0.361,3.87,2.181,-999.25,-999.25,
762,9.33,0.305,-999.25,97.43,0.504,3.2,0.417,3.91,2.188,-999.25,-999.25,
762.5,9.31,0.303,-999.25,102.83,0.43,3.22,0.372,3.9,2.193,-999.25,-999.25,
763,9.35,0.3,-999.25,101.23,0.511,3.2,0.419,3.87,2.197,-999.25,-999.25,
763.5,9.31,0.304,-999.25,97.43,0.412,3.19,0.362,3.78,2.191,-999.25,-999.25,
764,9.33,0.303,-999.25,93.8,0.374,3.1,0.34,3.69,2.191,-999.25,-999.25,
764.5,9.31,0.306,-999.25,88.23,0.361,3.05,0.335,3.68,2.187,-999.25,-999.25,
765,9.33,0.308,-999.25,89.08,0.346,3.06,0.328,3.67,2.183,-999.25,-999.25,
765.5,9.35,0.307,-999.25,89.67,0.383,3.1,0.347,3.67,2.184,-999.25,-999.25,
766,9.35,0.301,-999.25,86.71,0.445,3.12,0.38,3.76,2.195,-999.25,-999.25,
766.5,9.35,0.291,-999.25,87.29,0.4,3.09,0.35,3.83,2.212,-999.25,-999.25,
767,9.37,0.291,-999.25,90.33,0.422,3.09,0.362,3.73,2.213,-999.25,-999.25,
767.5,9.37,0.296,-999.25,93.37,0.43,3.12,0.369,3.67,2.205,-999.25,-999.25,
768,9.35,0.298,-999.25,98.44,0.415,3.16,0.361,3.71,2.201,-999.25,-999.25,
768.5,9.33,0.295,-999.25,98.53,0.331,3.14,0.314,3.71,2.206,-999.25,-999.25,
769,9.33,0.291,-999.25,102.16,0.371,3.13,0.333,3.7,2.212,-999.25,-999.25,
769.5,9.31,0.291,-999.25,96.51,0.36,3.15,0.327,3.78,2.212,-999.25,-999.25,
770,9.35,0.293,-999.25,97,0.382,3.22,0.34,3.86,2.209,-999.25,-999.25,
770.5,9.35,0.298,-999.25,94.8,0.397,3.22,0.351,3.75,2.2,-999.25,-999.25,
771,9.37,0.307,-999.25,92.01,0.429,3.18,0.373,3.65,2.185,-999.25,-999.25,
771.5,9.33,0.304,-999.25,90.42,0.439,3.15,0.378,3.66,2.19,-999.25,-999.25,
772,9.22,0.301,-999.25,93.71,0.414,3.14,0.362,3.68,2.195,-999.25,-999.25,
772.5,9.19,0.292,-999.25,104.18,0.445,3.12,0.376,3.64,2.211,-999.25,-999.25,
773,9.15,0.292,-999.25,101.48,0.435,3.11,0.37,3.62,2.211,-999.25,-999.25,
773.5,9.19,0.295,-999.25,99.56,0.427,3.15,0.367,3.62,2.205,-999.25,-999.25,
774,9.26,0.306,-999.25,89.58,0.374,3.24,0.342,3.62,2.186,-999.25,-999.25,
774.5,9.28,0.318,-999.25,89.84,0.451,3.28,0.39,3.58,2.167,-999.25,-999.25,
775,9.31,0.323,-999.25,93.2,0.412,3.25,0.37,3.54,2.158,-999.25,-999.25,
775.5,9.33,0.326,-999.25,90.27,0.418,3.22,0.375,3.49,2.152,-999.25,-999.25,
776,9.33,0.323,-999.25,86.03,0.408,3.18,0.368,3.42,2.157,-999.25,-999.25,
776.5,9.37,0.315,-999.25,80.86,0.378,3.14,0.348,3.37,2.172,-999.25,-999.25,
777,9.42,0.307,-999.25,86,0.396,3.11,0.354,3.47,2.186,-999.25,-999.25,
777.5,9.48,0.303,-999.25,93.02,0.447,3.12,0.382,3.68,2.192,-999.25,-999.25,
778,9.46,0.307,-999.25,99.89,0.479,3.18,0.402,3.86,2.185,-999.25,-999.25,
778.5,9.48,0.306,-999.25,96.09,0.551,3.22,0.446,4.08,2.187,-999.25,-999.25,
779,9.53,0.305,-999.25,93.14,0.463,3.28,0.392,4.12,2.188,-999.25,-999.25,
779.5,9.46,0.301,-999.25,91.59,0.432,3.35,0.372,4.13,2.195,-999.25,-999.25,
780,9.51,0.293,-999.25,93.78,0.377,3.36,0.338,4.09,2.21,-999.25,-999.25,
780.5,9.66,0.288,-999.25,96.06,0.442,3.36,0.373,4.09,2.218,-999.25,-999.25,
781,9.71,0.284,-999.25,87.38,0.532,3.3,0.426,4.11,2.224,-999.25,-999.25,
