DEPT,CAL_N,DPHI_N,DTC_N,SGR_N,NPHI_N,PE_N,POR_N,RESDEEP_N,RESSHAL_N,RHOB_N,SP_N,K_SDR_N_PRE
401,8.08,-0.125,-999.25,71.94,0.606,-999.25,0.438,31.87,1950,-999.25,,
401.5,8.07,-0.125,-999.25,60.97,0.572,-999.25,0.414,27.58,1950,-999.25,,
402,8.07,-0.118,-999.25,76.09,0.703,-999.25,0.504,30.46,1950,-999.25,,
402.5,8.08,-0.111,-999.25,73.07,0.615,-999.25,0.442,31.14,1950,-999.25,,
403,8.09,-0.112,-999.25,69.67,0.658,-999.25,0.472,28.94,1950,-999.25,,
403.5,8.09,-0.118,-999.25,71.94,0.581,-999.25,0.419,31.2,1950,-999.25,,
404,8.09,-0.125,-999.25,72.69,0.567,-999.25,0.411,30.3,1950,-999.25,,
404.5,8.09,-0.12,-999.25,77.23,0.591,-999.25,0.426,28.72,1950,-999.25,,
405,8.09,-0.126,-999.25,71.08,0.644,-999.25,0.464,27.37,1950,-999.25,,
405.5,8.07,-0.125,-999.25,75.72,0.585,-999.25,0.423,26.86,1950,-999.25,,
406,8.08,-0.136,-999.25,74.96,0.668,-999.25,0.482,23.91,1950,-999.25,,
406.5,8.07,-0.136,-999.25,77.23,0.702,-999.25,0.506,18.86,1950,-999.25,,
407,8.09,-0.142,-999.25,76.25,0.655,-999.25,0.474,17.56,1950,-999.25,,
407.5,8.09,-0.138,-999.25,64.56,0.505,-999.25,0.37,15.56,1950,-999.25,,
408,8.09,-0.137,-999.25,70.8,0.545,-999.25,0.397,14.13,1950,-999.25,,
408.5,8.07,-0.12,-999.25,72.31,0.577,-999.25,0.417,11.08,1950,-999.25,,
409,8.08,-0.119,-999.25,83.28,0.535,-999.25,0.388,8.3,1950,-999.25,,
409.5,8.08,-0.121,-999.25,76.09,0.604,-999.25,0.436,5.47,1950,-999.25,,
410,8.08,-0.137,-999.25,76.09,0.622,-999.25,0.45,4.4,1950,-999.25,,
410.5,8.09,-0.141,-999.25,68.63,0.616,-999.25,0.447,3.84,1950,-999.25,,
411,8.08,-0.139,-999.25,63.62,0.601,-999.25,0.436,3.37,1950,-999.25,,
411.5,8.07,-0.136,-999.25,70.8,0.569,-999.25,0.414,3,1950,-999.25,,
412,8.08,-0.132,-999.25,76.09,0.639,-999.25,0.461,2.69,1950,-999.25,,
412.5,8.07,-0.132,-999.25,63.81,0.692,-999.25,0.498,2.41,1164.798,-999.25,,
413,8.07,-0.131,-999.25,76.47,0.648,-999.25,0.467,2.5,105.296,-999.25,,
413.5,8.07,-0.138,-999.25,69.67,0.626,-999.25,0.453,3.08,31.109,-999.25,,
414,8.06,-0.183,-999.25,66.64,0.547,-999.25,0.408,3.13,11.953,-999.25,,
414.5,8.07,-0.2,-999.25,65.23,0.58,-999.25,0.434,5.61,5.46,-999.25,,
415,8.06,-0.2,-999.25,69.67,0.539,-999.25,0.407,3.9,2.913,-999.25,,
415.5,8.07,-0.2,-999.25,46.14,0.526,-999.25,0.398,5.99,1.761,-999.25,,
416,8,-0.082,-999.25,57.57,0.644,-999.25,0.459,4.56,1.182,-999.25,,
416.5,8.02,0.232,-999.25,84.79,0.764,-999.25,0.565,3.43,0.788,-999.25,2.77,
417,7.96,0.37,-999.25,101.04,0.439,-999.25,0.406,3.78,0.615,-999.25,16.33,
417.5,7.97,0.414,-999.25,110.11,0.427,-999.25,0.421,4.19,0.841,-999.25,26.88,
418,8,0.421,-999.25,90.08,0.418,-999.25,0.42,4.31,0.839,-999.25,34.33,
418.5,8,0.439,-999.25,98.02,0.4,-999.25,0.42,3.33,0.935,-999.25,37.23,
419,8.66,0.445,-999.25,98.02,0.383,-999.25,0.415,3.54,0.76,-999.25,37.54,
419.5,10.51,0.407,-999.25,84.41,0.471,-999.25,0.44,3.92,0.658,-999.25,31.25,
420,11.82,0.367,-999.25,87.81,0.629,-999.25,0.515,3.42,0.66,-999.25,27.33,
420.5,12.47,0.345,-999.25,75.34,0.678,-999.25,0.538,6.39,0.681,-999.25,29.61,
421,13.37,0.377,-999.25,73.92,0.931,-999.25,0.71,7.61,0.724,-999.25,31.84,
421.5,13.62,0.445,-999.25,88.95,0.688,-999.25,0.579,9.75,0.794,-999.25,34,
422,12.07,0.491,-999.25,95.37,0.537,-999.25,0.515,56.2,0.894,-999.25,35.98,
422.5,11.08,0.471,-999.25,93.48,0.517,-999.25,0.495,48.66,1.033,-999.25,38.08,
423,8.01,0.388,-999.25,114.27,0.411,-999.25,0.4,25.84,1.232,-999.25,40.51,
423.5,7.99,0.327,-999.25,108.98,0.412,-999.25,0.372,11.35,1.357,-999.25,42.42,
424,7.97,0.304,-999.25,106.33,0.429,-999.25,0.372,5.09,1.27,-999.25,43.96,
424.5,7.97,0.308,-999.25,101.42,0.389,-999.25,0.351,3.59,1.342,-999.25,45.31,
425,8.01,0.309,-999.25,106.71,0.405,-999.25,0.36,2.89,1.473,-999.25,46.87,
425.5,8.02,0.308,-999.25,91.21,0.421,-999.25,0.369,2.8,1.556,-999.25,47.75,
426,8.02,0.306,-999.25,112.38,0.425,-999.25,0.37,2.89,1.619,-999.25,48.71,
426.5,8.06,0.305,-999.25,104.82,0.419,-999.25,0.366,3.27,1.703,-999.25,49.54,
427,8.06,0.303,-999.25,91.69,0.367,-999.25,0.337,3.9,1.78,-999.25,50.31,
427.5,8.07,0.301,-999.25,108.98,0.38,-999.25,0.343,4.74,1.834,-999.25,50.9,
428,8.09,0.298,-999.25,108.22,0.429,-999.25,0.369,5.78,1.852,-999.25,51.58,
428.5,8.04,0.301,-999.25,99.91,0.406,-999.25,0.357,5.8,1.816,-999.25,51.99,
429,8.03,0.303,-999.25,110.11,0.388,-999.25,0.348,5.8,1.843,-999.25,52.5,
429.5,8.03,0.305,-999.25,100.57,0.4,-999.25,0.356,5.68,1.835,-999.25,52.5,
430,8,0.3,-999.25,100.66,0.406,-999.25,0.357,5.62,1.854,-999.25,52.97,
430.5,8.03,0.299,-999.25,115.03,0.446,-999.25,0.38,5.74,1.882,-999.25,53,
431,8.02,0.299,-999.25,122.21,0.391,-999.25,0.348,5.48,1.893,-999.25,53.2,
431.5,8.05,0.301,-999.25,104.82,0.398,-999.25,0.353,5.7,1.907,-999.25,53.24,
432,8.02,0.299,-999.25,106.33,0.413,-999.25,0.361,5.7,1.891,-999.25,52.77,
432.5,8.02,0.298,-999.25,95.37,0.392,-999.25,0.348,5.67,1.881,-999.25,52.15,
433,8.06,0.297,-999.25,103.78,0.328,-999.25,0.313,5.56,1.859,-999.25,51.67,
433.5,8.07,0.299,-999.25,104.07,0.358,-999.25,0.33,5.53,1.833,-999.25,51.13,
434,8.07,0.302,-999.25,115.41,0.409,-999.25,0.36,5.65,1.819,-999.25,50.63,
434.5,8.08,0.306,-999.25,113.52,0.394,-999.25,0.353,5.81,1.807,-999.25,50.5,
435,8.07,0.306,-999.25,104.07,0.388,-999.25,0.349,5.88,1.801,-999.25,50.47,
435.5,8.09,0.303,-999.25,110.87,0.406,-999.25,0.358,5.94,1.799,-999.25,50.35,
436,8.09,0.301,-999.25,108.98,0.38,-999.25,0.343,6.04,1.804,-999.25,50.27,
436.5,8.1,0.298,-999.25,103.31,0.388,-999.25,0.346,6.15,1.811,-999.25,50.37,
437,8.11,0.294,-999.25,105.96,0.399,-999.25,0.35,6.21,1.819,-999.25,50.23,
437.5,8.09,0.293,-999.25,110.59,0.379,-999.25,0.339,6.15,1.803,-999.25,50.16,
438,8.09,0.295,-999.25,110.49,0.365,-999.25,0.332,6.15,1.793,-999.25,50.2,
438.5,8.17,0.299,-999.25,97.26,0.376,-999.25,0.34,6.19,1.796,-999.25,50.59,
439,8.17,0.294,-999.25,115.78,0.429,-999.25,0.368,6.26,1.811,-999.25,50.71,
439.5,8.16,0.291,-999.25,112.01,0.403,-999.25,0.351,6.31,1.816,-999.25,50.9,
440,8.15,0.29,-999.25,105.48,0.375,-999.25,0.335,6.32,1.811,-999.25,51.25,
440.5,8.13,0.295,-999.25,116.16,0.393,-999.25,0.347,6.41,1.815,-999.25,51.67,
441,8.11,0.295,-999.25,109.36,0.371,-999.25,0.335,6.45,1.815,-999.25,52.11,
441.5,8.11,0.294,-999.25,115.41,0.435,-999.25,0.371,6.43,1.815,-999.25,52.42,
442,8.11,0.294,-999.25,114.84,0.411,-999.25,0.357,6.24,1.789,-999.25,52.62,
442.5,8.12,0.296,-999.25,120.7,0.395,-999.25,0.349,6.07,1.771,-999.25,52.89,
443,8.11,0.299,-999.25,101.8,0.369,-999.25,0.336,6.05,1.761,-999.25,53.09,
443.5,8.13,0.299,-999.25,123.34,0.382,-999.25,0.343,6.07,1.738,-999.25,53.09,
444,8.11,0.301,-999.25,101.51,0.39,-999.25,0.348,6.08,1.73,-999.25,52.75,
444.5,8.08,0.298,-999.25,105.2,0.352,-999.25,0.326,6.33,1.723,-999.25,52.5,
445,8.07,0.298,-999.25,105.58,0.377,-999.25,0.34,6.51,1.713,-999.25,52.08,
445.5,8.04,0.297,-999.25,106.71,0.405,-999.25,0.355,6.76,1.702,-999.25,51.76,
446,8.09,0.3,-999.25,110.49,0.403,-999.25,0.355,6.97,1.683,-999.25,51.87,
446.5,8.09,0.297,-999.25,106.33,0.416,-999.25,0.361,6.68,1.657,-999.25,51.84,
447,8.11,0.293,-999.25,96.51,0.421,-999.25,0.363,6.29,1.621,-999.25,52.17,
447.5,8.12,0.292,-999.25,115.41,0.405,-999.25,0.353,6.23,1.612,-999.25,52.73,
448,8.14,0.296,-999.25,100.29,0.41,-999.25,0.358,7.27,1.655,-999.25,53.13,
448.5,8.18,0.299,-999.25,108.6,0.419,-999.25,0.364,8.41,1.696,-999.25,53.71,
449,8.27,0.3,-999.25,113.42,0.385,-999.25,0.345,8.88,1.701,-999.25,54.04,
449.5,8.48,0.297,-999.25,114.27,0.41,-999.25,0.358,8.72,1.76,-999.25,54.57,
450,8.09,0.296,-999.25,105.96,0.399,-999.25,0.351,8.12,1.775,-999.25,55.51,
450.5,8.02,0.295,-999.25,104.16,0.363,-999.25,0.331,6.32,1.66,-999.25,56.75,
451,8.02,0.287,-999.25,104.07,0.364,-999.25,0.328,6.15,1.648,-999.25,58.28,
451.5,7.98,0.27,-999.25,107.85,0.359,-999.25,0.318,7.72,1.827,-999.25,58.36,
452,7.93,0.258,-999.25,92.73,0.297,-999.25,0.278,10.76,2.05,-999.25,58.75,
452.5,7.9,0.26,-999.25,92.54,0.293,-999.25,0.277,8.65,1.966,-999.25,58.83,
453,8.01,0.279,-999.25,94.62,0.332,-999.25,0.307,6.46,1.775,-999.25,59.41,
453.5,7.99,0.29,-999.25,111.63,0.374,-999.25,0.335,5.73,1.736,-999.25,59.77,
454,8.01,0.29,-999.25,110.11,0.382,-999.25,0.339,5.35,1.732,-999.25,60.04,
454.5,7.96,0.285,-999.25,115.22,0.387,-999.25,0.34,5.34,1.722,-999.25,60.16,
455,8.06,0.288,-999.25,113.52,0.336,-999.25,0.313,5.69,1.761,-999.25,60.38,
455.5,8.06,0.294,-999.25,104.82,0.392,-999.25,0.346,6.28,1.802,-999.25,61.41,
456,8.04,0.301,-999.25,115.41,0.394,-999.25,0.351,6.64,1.795,-999.25,63.29,
456.5,8.05,0.303,-999.25,99.34,0.387,-999.25,0.348,6.82,1.794,-999.25,66.64,
457,8.07,0.3,-999.25,102.93,0.433,-999.25,0.372,7.58,1.838,-999.25,73.12,
457.5,8.03,0.296,-999.25,104.44,0.407,-999.25,0.356,8.37,1.882,-999.25,83.4,
458,8.01,0.296,-999.25,107.85,0.395,-999.25,0.349,7.49,1.804,-999.25,88.88,
458.5,8.02,0.3,-999.25,105.58,0.405,-999.25,0.356,6.45,1.73,-999.25,89.65,
459,8.02,0.303,-999.25,110.87,0.41,-999.25,0.36,6.07,1.694,-999.25,90.04,
459.5,8.02,0.301,-999.25,103.69,0.357,-999.25,0.33,6.06,1.691,-999.25,88.24,
460,8.03,0.301,-999.25,98.4,0.389,-999.25,0.348,5.98,1.674,-999.25,88.05,
460.5,8.06,0.299,-999.25,102.93,0.381,-999.25,0.342,5.95,1.65,-999.25,88,
461,8.03,0.303,-999.25,101.04,0.369,-999.25,0.338,6.07,1.634,-999.25,87.73,
461.5,8.02,0.3,-999.25,96.73,0.374,-999.25,0.339,6.12,1.621,-999.25,87.7,
462,8.07,0.297,-999.25,98.4,0.386,-999.25,0.344,6.65,1.636,-999.25,87.5,
462.5,8.08,0.292,-999.25,95.37,0.348,-999.25,0.321,7.19,1.65,-999.25,87.07,
463,8.05,0.292,-999.25,100.29,0.315,-999.25,0.304,7.09,1.63,-999.25,87.03,
463.5,8.05,0.292,-999.25,95.75,0.357,-999.25,0.326,7.2,1.625,-999.25,87.03,
464,8.08,0.292,-999.25,93.48,0.388,-999.25,0.343,7.28,1.621,-999.25,87.04,
464.5,8.07,0.292,-999.25,95.28,0.322,-999.25,0.307,7.28,1.633,-999.25,87.38,
465,8.05,0.291,-999.25,103.69,0.341,-999.25,0.317,7.36,1.617,-999.25,87.5,
465.5,8.07,0.29,-999.25,95.37,0.365,-999.25,0.33,6.92,1.601,-999.25,87.62,
466,8.09,0.291,-999.25,111.25,0.396,-999.25,0.347,7.17,1.619,-999.25,88.05,
466.5,8.07,0.296,-999.25,101.42,0.397,-999.25,0.35,7.6,1.652,-999.25,88.44,
467,8.09,0.3,-999.25,92.35,0.384,-999.25,0.345,7.64,1.667,-999.25,88.71,
467.5,8.09,0.3,-999.25,95.37,0.39,-999.25,0.348,7.84,1.677,-999.25,88.95,
468,8.08,0.298,-999.25,99.53,0.369,-999.25,0.335,7.24,1.657,-999.25,88.98,
468.5,8.09,0.299,-999.25,113.52,0.357,-999.25,0.329,6.87,1.643,-999.25,89.06,
469,8.09,0.297,-999.25,94.62,0.355,-999.25,0.327,6.73,1.651,-999.25,88.63,
469.5,8.05,0.293,-999.25,102.93,0.336,-999.25,0.315,7.24,1.698,-999.25,88.52,
470,8.03,0.29,-999.25,112.57,0.359,-999.25,0.326,7.1,1.715,-999.25,88.33,
470.5,8.06,0.29,-999.25,98.02,0.348,-999.25,0.32,6.86,1.701,-999.25,88.09,
471,8.03,0.291,-999.25,88.57,0.336,-999.25,0.314,6.78,1.722,-999.25,87.89,
471.5,8.05,0.289,-999.25,96.13,0.382,-999.25,0.339,6.79,1.744,-999.25,88.96,
472,8.09,0.29,-999.25,100.66,0.395,-999.25,0.347,6.77,1.735,-999.25,89.57,
472.5,8.11,0.288,-999.25,99.91,0.357,-999.25,0.324,6.65,1.731,-999.25,88.67,
473,8.09,0.283,-999.25,91.21,0.412,-999.25,0.353,6.72,1.762,-999.25,89.8,
473.5,8.05,0.276,-999.25,95.75,0.409,-999.25,0.349,7.18,1.804,-999.25,90.08,
474,8.12,0.279,-999.25,83.37,0.415,-999.25,0.354,7.32,1.784,-999.25,89.3,
474.5,8.12,0.284,-999.25,94.27,0.426,-999.25,0.362,6.41,1.731,-999.25,89.3,
475,8.15,0.289,-999.25,98.4,0.379,-999.25,0.337,5.77,1.681,-999.25,87.38,
475.5,8.14,0.289,-999.25,86.3,0.36,-999.25,0.326,6.07,1.725,-999.25,89.22,
476,8.12,0.292,-999.25,95.94,0.378,-999.25,0.338,6.49,1.754,-999.25,88.24,
476.5,8.08,0.294,-999.25,92.73,0.401,-999.25,0.352,6.18,1.723,-999.25,87,
477,8.11,0.296,-999.25,90.84,0.381,-999.25,0.341,5.92,1.691,-999.25,84.53,
477.5,8.11,0.292,-999.25,102.55,0.367,-999.25,0.332,6.01,1.711,-999.25,86.8,
478,8.05,0.291,-999.25,90.08,0.397,-999.25,0.348,6.43,1.758,-999.25,86.37,
478.5,8.04,0.289,-999.25,98.4,0.38,-999.25,0.338,6.92,1.791,-999.25,84.58,
479,8.06,0.293,-999.25,103.59,0.362,-999.25,0.329,6.83,1.777,-999.25,84.41,
479.5,8.06,0.292,-999.25,97.64,0.397,-999.25,0.348,6.73,1.768,-999.25,85.04,
480,8.06,0.292,-999.25,90.08,0.356,-999.25,0.326,6.77,1.767,-999.25,84.45,
480.5,8.05,0.288,-999.25,99.91,0.343,-999.25,0.317,6.64,1.748,-999.25,87.67,
481,8.06,0.284,-999.25,94.62,0.34,-999.25,0.313,6.33,1.708,-999.25,87.5,
481.5,8.06,0.284,-999.25,101.61,0.355,-999.25,0.321,6.28,1.7,-999.25,89,
482,8.05,0.287,-999.25,89.32,0.374,-999.25,0.333,6.41,1.686,-999.25,88.12,
482.5,8.04,0.291,-999.25,94.99,0.348,-999.25,0.321,6.34,1.664,-999.25,86.56,
483,8.06,0.294,-999.25,96.13,0.347,-999.25,0.322,6.19,1.648,-999.25,85.66,
483.5,8.02,0.296,-999.25,97.64,0.403,-999.25,0.354,6.17,1.628,-999.25,83.71,
484,8.03,0.295,-999.25,93.48,0.394,-999.25,0.348,6.2,1.621,-999.25,74.84,
484.5,8.04,0.295,-999.25,97.26,0.355,-999.25,0.326,6.1,1.608,-999.25,73.08,
485,8.05,0.292,-999.25,96.13,0.384,-999.25,0.341,6.25,1.615,-999.25,68.13,
485.5,8.02,0.289,-999.25,93.48,0.414,-999.25,0.357,6.15,1.601,-999.25,68.13,
486,8.07,0.288,-999.25,101.04,0.401,-999.25,0.349,5.86,1.574,-999.25,68.36,
486.5,8.02,0.291,-999.25,105.58,0.383,-999.25,0.34,5.89,1.568,-999.25,68.54,
487,8.06,0.294,-999.25,102.65,0.404,-999.25,0.353,6.02,1.579,-999.25,68.55,
487.5,8.05,0.292,-999.25,97.64,0.417,-999.25,0.36,6.04,1.569,-999.25,68.48,
488,8.02,0.291,-999.25,92.35,0.404,-999.25,0.352,5.61,1.52,-999.25,68.13,
488.5,8,0.291,-999.25,105.58,0.406,-999.25,0.353,5.26,1.481,-999.25,68.05,
489,7.99,0.295,-999.25,95.37,0.393,-999.25,0.347,5.24,1.477,-999.25,67.62,
489.5,8.01,0.298,-999.25,104.07,0.408,-999.25,0.357,5.43,1.503,-999.25,67.5,
490,8.01,0.298,-999.25,105.2,0.365,-999.25,0.333,5.52,1.517,-999.25,67.5,
490.5,7.99,0.297,-999.25,87.06,0.348,-999.25,0.324,5.72,1.527,-999.25,67.67,
491,7.99,0.295,-999.25,95.75,0.347,-999.25,0.322,5.87,1.549,-999.25,67.66,
491.5,8,0.293,-999.25,104.82,0.392,-999.25,0.346,5.58,1.538,-999.25,67.71,
492,7.99,0.292,-999.25,106.33,0.404,-999.25,0.352,5.45,1.529,-999.25,68.13,
492.5,8.02,0.289,-999.25,106.71,0.378,-999.25,0.336,5.34,1.544,-999.25,68.16,
493,8.03,0.291,-999.25,84.66,0.39,-999.25,0.344,5.39,1.555,-999.25,68.13,
493.5,8.01,0.291,-999.25,91.78,0.411,-999.25,0.356,5.24,1.538,-999.25,67.67,
494,8.03,0.293,-999.25,92.03,0.375,-999.25,0.337,5.06,1.526,-999.25,67.69,
494.5,8,0.292,-999.25,100.29,0.416,-999.25,0.359,4.98,1.522,-999.25,67.42,
495,7.99,0.291,-999.25,106.33,0.422,-999.25,0.362,5.21,1.543,-999.25,67.15,
495.5,8.01,0.293,-999.25,99.15,0.423,-999.25,0.364,5.29,1.545,-999.25,66.88,
496,8.02,0.296,-999.25,103.69,0.43,-999.25,0.369,5.01,1.517,-999.25,66.88,
496.5,8.05,0.299,-999.25,103.69,0.423,-999.25,0.366,4.87,1.519,-999.25,66.84,
497,8.06,0.3,-999.25,95.88,0.376,-999.25,0.34,4.77,1.495,-999.25,66.37,
497.5,8.09,0.302,-999.25,104.07,0.371,-999.25,0.338,4.93,1.482,-999.25,66.21,
498,8.05,0.299,-999.25,99.15,0.343,-999.25,0.322,4.78,1.462,-999.25,66.02,
498.5,8.06,0.284,-999.25,96.51,0.383,-999.25,0.337,5.52,1.49,-999.25,65.7,
499,8.01,0.264,-999.25,96.51,0.347,-999.25,0.308,6.49,1.578,-999.25,65.47,
499.5,7.98,0.256,-999.25,111.63,0.296,-999.25,0.277,9.16,1.675,-999.25,65.04,
500,8.01,0.267,-999.25,92.35,0.29,-999.25,0.279,9.41,1.589,-999.25,64.61,
500.5,8.01,0.285,-999.25,101.8,0.349,-999.25,0.319,6.7,1.465,-999.25,64.37,
501,8.03,0.299,-999.25,89.32,0.402,-999.25,0.354,5.31,1.362,-999.25,63.87,
501.5,8.01,0.301,-999.25,94.33,0.365,-999.25,0.335,5.37,1.346,-999.25,63.98,
502,8,0.303,-999.25,98.02,0.354,-999.25,0.329,6.01,1.367,-999.25,64.21,
502.5,8.02,0.303,-999.25,98.4,0.399,-999.25,0.354,6.83,1.379,-999.25,64.37,
503,8.02,0.31,-999.25,91.21,0.361,-999.25,0.336,7.38,1.389,-999.25,64.37,
503.5,8,0.312,-999.25,110.11,0.401,-999.25,0.359,7.57,1.392,-999.25,64.1,
504,8.02,0.31,-999.25,99.91,0.393,-999.25,0.354,7.61,1.405,-999.25,64.5,
504.5,8.02,0.303,-999.25,103.31,0.377,-999.25,0.342,7.48,1.415,-999.25,65.12,
505,8.05,0.3,-999.25,100.92,0.406,-999.25,0.357,7.07,1.428,-999.25,65.7,
505.5,8.08,0.299,-999.25,84.13,0.418,-999.25,0.363,6.85,1.45,-999.25,66.09,
506,8.09,0.299,-999.25,98.4,0.423,-999.25,0.366,6.72,1.485,-999.25,66.76,
506.5,8.05,0.301,-999.25,94.62,0.437,-999.25,0.375,6.19,1.488,-999.25,67.33,
507,8.01,0.305,-999.25,89.7,0.397,-999.25,0.354,5.44,1.484,-999.25,67.89,
507.5,7.97,0.308,-999.25,91.59,0.356,-999.25,0.333,5.51,1.54,-999.25,68.63,
508,7.95,0.311,-999.25,103.69,0.388,-999.25,0.352,5.41,1.59,-999.25,68.87,
508.5,7.97,0.311,-999.25,98.77,0.359,-999.25,0.336,4.95,1.59,-999.25,69.38,
509,7.99,0.309,-999.25,105.58,0.387,-999.25,0.35,4.81,1.593,-999.25,69.38,
509.5,8.01,0.306,-999.25,102.56,0.341,-999.25,0.324,4.66,1.605,-999.25,69.38,
510,7.97,0.305,-999.25,112,0.375,-999.25,0.342,4.49,1.611,-999.25,68.79,
510.5,7.99,0.303,-999.25,106.71,0.414,-999.25,0.363,4.39,1.596,-999.25,68.59,
511,7.97,0.298,-999.25,101.42,0.379,-999.25,0.341,4.35,1.59,-999.25,68.13,
511.5,7.98,0.296,-999.25,99.15,0.383,-999.25,0.342,4.36,1.577,-999.25,68.08,
512,8.03,0.295,-999.25,86.68,0.353,-999.25,0.325,4.54,1.562,-999.25,67.46,
512.5,7.99,0.298,-999.25,99.84,0.356,-999.25,0.328,4.66,1.544,-999.25,66.88,
513,7.99,0.297,-999.25,93.01,0.367,-999.25,0.334,5.13,1.573,-999.25,66.56,
513.5,8,0.299,-999.25,92.35,0.387,-999.25,0.346,5.59,1.596,-999.25,66.29,
514,8,0.297,-999.25,91.59,0.381,-999.25,0.342,5.68,1.573,-999.25,65.96,
514.5,8,0.294,-999.25,107.47,0.383,-999.25,0.341,5.98,1.525,-999.25,66.02,
515,7.99,0.293,-999.25,102.55,0.356,-999.25,0.326,5.97,1.495,-999.25,65.78,
515.5,8.04,0.295,-999.25,90.46,0.362,-999.25,0.33,5.79,1.464,-999.25,65.74,
516,8.04,0.297,-999.25,100.29,0.374,-999.25,0.338,5.76,1.449,-999.25,65.43,
516.5,8.05,0.294,-999.25,96.88,0.369,-999.25,0.334,6.96,1.498,-999.25,64.92,
517,7.99,0.29,-999.25,92.91,0.34,-999.25,0.316,7.74,1.514,-999.25,64.37,
517.5,8,0.289,-999.25,96.13,0.415,-999.25,0.358,6.32,1.441,-999.25,63.79,
518,7.97,0.292,-999.25,101.42,0.402,-999.25,0.351,6.27,1.419,-999.25,63.75,
518.5,7.99,0.293,-999.25,99.15,0.365,-999.25,0.331,6.65,1.445,-999.25,63.75,
519,7.97,0.294,-999.25,103.69,0.367,-999.25,0.333,6.83,1.462,-999.25,63.75,
519.5,7.99,0.291,-999.25,89.7,0.375,-999.25,0.336,6.88,1.476,-999.25,63.75,
520,7.99,0.288,-999.25,89.7,0.35,-999.25,0.321,6.91,1.483,-999.25,63.75,
520.5,8,0.288,-999.25,98.4,0.349,-999.25,0.32,7.24,1.49,-999.25,63.75,
521,8,0.289,-999.25,111.63,0.412,-999.25,0.356,6.74,1.462,-999.25,64.18,
521.5,7.99,0.293,-999.25,94.52,0.365,-999.25,0.331,6.11,1.428,-999.25,64.08,
522,7.99,0.294,-999.25,108.22,0.411,-999.25,0.357,6,1.428,-999.25,64.26,
522.5,7.96,0.295,-999.25,93.1,0.42,-999.25,0.363,6.36,1.446,-999.25,64.1,
523,7.99,0.29,-999.25,89.32,0.403,-999.25,0.351,6.68,1.451,-999.25,64.14,
523.5,8,0.284,-999.25,106.71,0.418,-999.25,0.357,6.98,1.458,-999.25,64.04,
524,8.01,0.281,-999.25,103.31,0.378,-999.25,0.333,7.01,1.46,-999.25,63.75,
524.5,8,0.283,-999.25,97.64,0.361,-999.25,0.324,6.93,1.463,-999.25,63.91,
525,8.01,0.288,-999.25,88.95,0.359,-999.25,0.325,7.39,1.473,-999.25,63.83,
525.5,8.03,0.289,-999.25,102.46,0.351,-999.25,0.321,7.36,1.485,-999.25,63.75,
526,8.03,0.286,-999.25,107.03,0.372,-999.25,0.332,7.06,1.49,-999.25,64.02,
526.5,8.05,0.284,-999.25,95.75,0.378,-999.25,0.334,7.03,1.496,-999.25,63.75,
527,8.03,0.283,-999.25,88.95,0.376,-999.25,0.333,6.91,1.506,-999.25,63.75,
527.5,8.02,0.284,-999.25,103.31,0.343,-999.25,0.315,7.18,1.515,-999.25,63.75,
528,8.03,0.282,-999.25,88.76,0.357,-999.25,0.322,6.67,1.527,-999.25,64,
528.5,8.03,0.272,-999.25,93.29,0.347,-999.25,0.312,6.35,1.515,-999.25,64.37,
529,7.97,0.257,-999.25,92.98,0.349,-999.25,0.306,7,1.611,-999.25,64.49,
529.5,7.94,0.239,-999.25,88.94,0.338,-999.25,0.293,9.77,1.788,-999.25,65,
530,7.95,0.244,-999.25,82.52,0.379,-999.25,0.319,10.06,1.821,-999.25,65,
530.5,8.01,0.259,-999.25,85.54,0.332,-999.25,0.298,6.78,1.652,-999.25,65,
531,8.06,0.28,-999.25,98.4,0.369,-999.25,0.328,5.51,1.56,-999.25,65.39,
531.5,8.05,0.287,-999.25,93.01,0.373,-999.25,0.333,5.16,1.536,-999.25,65.62,
532,8.07,0.288,-999.25,102.55,0.364,-999.25,0.328,5.43,1.548,-999.25,65.62,
532.5,8.08,0.286,-999.25,99.91,0.348,-999.25,0.319,5.63,1.543,-999.25,65.62,
533,8.06,0.284,-999.25,95.75,0.358,-999.25,0.323,5.92,1.53,-999.25,65.62,
533.5,8.06,0.287,-999.25,94.62,0.391,-999.25,0.343,6.13,1.539,-999.25,65.62,
534,8.06,0.289,-999.25,94.99,0.383,-999.25,0.339,6.63,1.561,-999.25,66.02,
534.5,8.07,0.287,-999.25,101.04,0.372,-999.25,0.332,6.82,1.555,-999.25,66.25,
535,8.07,0.286,-999.25,95.75,0.371,-999.25,0.331,6.45,1.542,-999.25,66.25,
535.5,8.09,0.287,-999.25,93.48,0.403,-999.25,0.35,6.47,1.571,-999.25,66.25,
536,8.06,0.288,-999.25,91.88,0.411,-999.25,0.355,7,1.6,-999.25,66.52,
536.5,7.99,0.286,-999.25,87.06,0.339,-999.25,0.314,6.31,1.58,-999.25,66.48,
537,7.98,0.285,-999.25,100.66,0.343,-999.25,0.315,6.09,1.552,-999.25,66.29,
537.5,7.95,0.29,-999.25,98.02,0.385,-999.25,0.341,5.42,1.518,-999.25,66.75,
538,7.99,0.295,-999.25,89.7,0.387,-999.25,0.344,5.55,1.541,-999.25,66.41,
538.5,7.99,0.294,-999.25,90.08,0.363,-999.25,0.33,6.19,1.585,-999.25,66.33,
539,8.01,0.288,-999.25,94.61,0.38,-999.25,0.337,6.56,1.62,-999.25,66.64,
539.5,8.01,0.286,-999.25,106.71,0.4,-999.25,0.348,6.35,1.593,-999.25,66.37,
540,8.03,0.285,-999.25,102.18,0.399,-999.25,0.347,6.1,1.575,-999.25,66.25,
540.5,7.99,0.284,-999.25,93.1,0.356,-999.25,0.322,5.98,1.558,-999.25,66.25,
541,7.97,0.282,-999.25,93.48,0.346,-999.25,0.316,5.56,1.528,-999.25,66.37,
541.5,8,0.281,-999.25,95.75,0.355,-999.25,0.32,5.93,1.558,-999.25,66.37,
542,7.99,0.282,-999.25,88.19,0.367,-999.25,0.327,6.44,1.585,-999.25,66.72,
542.5,8,0.284,-999.25,105.77,0.347,-999.25,0.317,6.03,1.557,-999.25,66.88,
543,7.99,0.286,-999.25,93.86,0.393,-999.25,0.344,5.96,1.538,-999.25,66.88,
543.5,7.96,0.286,-999.25,105.58,0.37,-999.25,0.331,5.66,1.523,-999.25,67.03,
544,8,0.287,-999.25,97.64,0.357,-999.25,0.324,5.69,1.54,-999.25,67.5,
544.5,8.03,0.288,-999.25,96.88,0.374,-999.25,0.334,6.16,1.582,-999.25,67.5,
545,8.02,0.29,-999.25,96.88,0.369,-999.25,0.332,6.43,1.614,-999.25,67.83,
545.5,8.05,0.286,-999.25,99.53,0.358,-999.25,0.324,6.37,1.611,-999.25,68.13,
546,8.03,0.283,-999.25,94.99,0.4,-999.25,0.346,6.08,1.593,-999.25,68.13,
546.5,8.03,0.285,-999.25,95.75,0.399,-999.25,0.347,5.68,1.578,-999.25,68.13,
547,8.01,0.287,-999.25,90.08,0.391,-999.25,0.343,5.34,1.563,-999.25,67.93,
547.5,8.01,0.288,-999.25,98.02,0.403,-999.25,0.35,5.29,1.571,-999.25,67.79,
548,8,0.285,-999.25,93.29,0.368,-999.25,0.329,5.49,1.592,-999.25,67.54,
548.5,8.04,0.286,-999.25,92.57,0.361,-999.25,0.326,5.76,1.607,-999.25,67.5,
549,8.01,0.286,-999.25,102.87,0.336,-999.25,0.312,5.87,1.615,-999.25,67.42,
549.5,8.02,0.287,-999.25,87.34,0.352,-999.25,0.321,5.5,1.596,-999.25,67.34,
550,8.01,0.289,-999.25,92.25,0.358,-999.25,0.325,5.34,1.584,-999.25,66.88,
550.5,8,0.288,-999.25,94.9,0.388,-999.25,0.342,5.4,1.597,-999.25,66.88,
551,8.01,0.288,-999.25,105.39,0.354,-999.25,0.323,5.43,1.598,-999.25,67.19,
551.5,7.99,0.286,-999.25,97.51,0.362,-999.25,0.326,5.31,1.582,-999.25,66.88,
552,8.01,0.286,-999.25,99.44,0.401,-999.25,0.348,5.27,1.572,-999.25,66.88,
552.5,8.01,0.281,-999.25,98.4,0.361,-999.25,0.323,5.35,1.564,-999.25,66.88,
553,8.02,0.28,-999.25,105.58,0.375,-999.25,0.331,5.23,1.54,-999.25,66.5,
553.5,8.03,0.283,-999.25,98.02,0.378,-999.25,0.334,5.22,1.521,-999.25,66.45,
554,8.03,0.29,-999.25,93.48,0.376,-999.25,0.336,5.43,1.521,-999.25,66.02,
554.5,8.03,0.295,-999.25,101.04,0.393,-999.25,0.347,5.66,1.522,-999.25,65.78,
555,8.02,0.295,-999.25,100.66,0.37,-999.25,0.335,5.69,1.5,-999.25,65.27,
555.5,8.02,0.295,-999.25,112,0.376,-999.25,0.338,5.52,1.468,-999.25,65,
556,8.02,0.292,-999.25,104.07,0.359,-999.25,0.327,5.74,1.464,-999.25,64.37,
556.5,8.02,0.288,-999.25,97.26,0.379,-999.25,0.337,6.03,1.47,-999.25,64.37,
557,8.01,0.279,-999.25,95.37,0.376,-999.25,0.331,6.43,1.476,-999.25,63.98,
557.5,8.02,0.272,-999.25,90.84,0.364,-999.25,0.321,7,1.517,-999.25,63.98,
558,8.02,0.265,-999.25,110.11,0.326,-999.25,0.297,9.74,1.608,-999.25,63.75,
558.5,7.96,0.266,-999.25,102.93,0.298,-999.25,0.282,8.76,1.542,-999.25,63.75,
559,8.01,0.27,-999.25,88.19,0.355,-999.25,0.315,6.38,1.469,-999.25,63.75,
559.5,8.01,0.274,-999.25,99.15,0.369,-999.25,0.325,6.97,1.497,-999.25,63.75,
560,7.99,0.279,-999.25,98.02,0.376,-999.25,0.331,6.95,1.502,-999.25,63.75,
560.5,8.03,0.287,-999.25,105.7,0.371,-999.25,0.332,6.36,1.443,-999.25,63.71,
561,8.06,0.295,-999.25,96.88,0.372,-999.25,0.336,6.64,1.472,-999.25,63.52,
561.5,8.05,0.297,-999.25,102.62,0.384,-999.25,0.343,7.68,1.492,-999.25,63.67,
562,8.06,0.297,-999.25,103.21,0.341,-999.25,0.32,6.59,1.456,-999.25,63.67,
562.5,8.05,0.296,-999.25,91.59,0.319,-999.25,0.308,6.05,1.427,-999.25,63.75,
563,8.07,0.293,-999.25,109.36,0.324,-999.25,0.309,6.18,1.456,-999.25,64.04,
563.5,8.06,0.294,-999.25,101.42,0.352,-999.25,0.324,6.53,1.487,-999.25,64.37,
564,8.07,0.295,-999.25,92.35,0.388,-999.25,0.345,6.37,1.514,-999.25,64.37,
564.5,8.08,0.295,-999.25,104.44,0.376,-999.25,0.338,6.43,1.543,-999.25,64.84,
565,8.08,0.291,-999.25,105.96,0.341,-999.25,0.317,6.2,1.566,-999.25,65,
565.5,8.01,0.291,-999.25,97.26,0.358,-999.25,0.326,6.02,1.601,-999.25,65,
566,7.99,0.287,-999.25,100.29,0.376,-999.25,0.334,5.98,1.632,-999.25,65,
566.5,7.99,0.285,-999.25,114.34,0.35,-999.25,0.319,5.85,1.647,-999.25,65,
567,7.99,0.284,-999.25,107.47,0.344,-999.25,0.315,5.62,1.635,-999.25,65,
567.5,7.99,0.288,-999.25,117.3,0.39,-999.25,0.343,5.42,1.65,-999.25,64.96,
568,7.96,0.292,-999.25,100.66,0.385,-999.25,0.342,5.34,1.657,-999.25,65,
568.5,7.99,0.29,-999.25,93.48,0.369,-999.25,0.332,5.36,1.658,-999.25,64.65,
569,7.96,0.286,-999.25,114.27,0.381,-999.25,0.337,5.74,1.677,-999.25,64.37,
569.5,7.95,0.282,-999.25,103.69,0.406,-999.25,0.35,6.14,1.701,-999.25,64.21,
570,7.97,0.279,-999.25,105.2,0.377,-999.25,0.332,6.45,1.718,-999.25,63.98,
570.5,7.96,0.279,-999.25,108.98,0.427,-999.25,0.361,6.23,1.689,-999.25,63.91,
571,7.95,0.283,-999.25,102.93,0.394,-999.25,0.343,6.03,1.657,-999.25,63.75,
571.5,7.96,0.29,-999.25,104.44,0.368,-999.25,0.331,5.8,1.639,-999.25,63.75,
572,7.95,0.289,-999.25,117.3,0.396,-999.25,0.347,6.07,1.678,-999.25,63.71,
572.5,7.96,0.282,-999.25,102.59,0.37,-999.25,0.329,6.25,1.715,-999.25,63.16,
573,7.97,0.276,-999.25,100,0.377,-999.25,0.33,6.31,1.718,-999.25,63.4,
573.5,7.94,0.278,-999.25,106.71,0.408,-999.25,0.349,6.33,1.72,-999.25,63.71,
574,7.96,0.282,-999.25,92.35,0.398,-999.25,0.345,6.1,1.723,-999.25,63.52,
574.5,8.01,0.284,-999.25,104.44,0.404,-999.25,0.349,6.01,1.724,-999.25,63.36,
575,7.98,0.285,-999.25,102.93,0.406,-999.25,0.351,5.9,1.724,-999.25,63.12,
575.5,7.96,0.285,-999.25,106.71,0.358,-999.25,0.324,5.87,1.701,-999.25,63.12,
576,7.96,0.285,-999.25,103.25,0.363,-999.25,0.326,5.79,1.676,-999.25,63.16,
576.5,7.99,0.285,-999.25,108.6,0.358,-999.25,0.324,5.44,1.637,-999.25,63.12,
577,8,0.285,-999.25,101.42,0.376,-999.25,0.334,5.63,1.65,-999.25,63.12,
577.5,8.01,0.284,-999.25,114.65,0.361,-999.25,0.325,5.75,1.644,-999.25,63.12,
578,7.99,0.281,-999.25,99.15,0.348,-999.25,0.316,5.73,1.616,-999.25,62.93,
578.5,7.99,0.282,-999.25,96.13,0.331,-999.25,0.307,5.63,1.572,-999.25,62.5,
579,8.02,0.287,-999.25,102.18,0.35,-999.25,0.32,5.55,1.551,-999.25,62.5,
579.5,8.01,0.291,-999.25,92.72,0.36,-999.25,0.327,5.74,1.572,-999.25,62.11,
580,7.97,0.29,-999.25,94.87,0.373,-999.25,0.334,6.21,1.59,-999.25,61.88,
580.5,8,0.289,-999.25,90.08,0.361,-999.25,0.327,6.31,1.571,-999.25,61.88,
581,8.02,0.292,-999.25,100.66,0.393,-999.25,0.346,6.21,1.536,-999.25,61.88,
581.5,7.97,0.292,-999.25,94.24,0.382,-999.25,0.34,6.15,1.513,-999.25,61.88,
582,8.02,0.29,-999.25,92.85,0.365,-999.25,0.33,6.26,1.501,-999.25,61.8,
582.5,8.02,0.286,-999.25,101.42,0.388,-999.25,0.341,6.41,1.49,-999.25,61.88,
583,8.02,0.286,-999.25,97.26,0.392,-999.25,0.343,6.44,1.464,-999.25,61.84,
583.5,8,0.286,-999.25,98.02,0.35,-999.25,0.32,6.36,1.444,-999.25,61.6,
584,8.01,0.287,-999.25,101.04,0.393,-999.25,0.344,6.58,1.432,-999.25,61.29,
584.5,8,0.291,-999.25,93.86,0.371,-999.25,0.333,6.62,1.419,-999.25,61.25,
585,8,0.293,-999.25,91.97,0.353,-999.25,0.324,6.56,1.403,-999.25,61.41,
585.5,7.96,0.294,-999.25,97.64,0.392,-999.25,0.346,6.74,1.396,-999.25,61.64,
586,7.97,0.294,-999.25,97.32,0.376,-999.25,0.337,6.65,1.394,-999.25,61.8,
586.5,8.01,0.295,-999.25,118.43,0.388,-999.25,0.345,6.66,1.393,-999.25,61.88,
587,8.01,0.295,-999.25,95.75,0.394,-999.25,0.348,6.55,1.397,-999.25,62.3,
587.5,8.01,0.293,-999.25,98.4,0.385,-999.25,0.342,6.51,1.399,-999.25,62.5,
588,8.02,0.29,-999.25,93.48,0.384,-999.25,0.34,6.63,1.413,-999.25,62.5,
588.5,8.02,0.292,-999.25,93.23,0.343,-999.25,0.319,6.38,1.417,-999.25,63.01,
589,7.99,0.297,-999.25,103.31,0.35,-999.25,0.325,5.95,1.404,-999.25,63.12,
589.5,8.01,0.304,-999.25,98.77,0.406,-999.25,0.359,5.84,1.406,-999.25,63.63,
590,7.97,0.304,-999.25,94.05,0.38,-999.25,0.344,5.5,1.409,-999.25,63.75,
590.5,7.99,0.301,-999.25,107.09,0.381,-999.25,0.343,5.37,1.398,-999.25,63.48,
591,7.99,0.296,-999.25,92.35,0.318,-999.25,0.307,5.53,1.393,-999.25,63.44,
591.5,7.99,0.29,-999.25,97.64,0.349,-999.25,0.321,5.02,1.372,-999.25,63.71,
592,8.01,0.279,-999.25,108.23,0.383,-999.25,0.335,6.05,1.431,-999.25,63.87,
592.5,7.99,0.266,-999.25,88.95,0.36,-999.25,0.317,8.52,1.567,-999.25,64.14,
593,7.96,0.263,-999.25,101.42,0.345,-999.25,0.307,11.15,1.636,-999.25,64.26,
593.5,8.05,0.271,-999.25,100.66,0.345,-999.25,0.31,7.08,1.46,-999.25,64.34,
594,8.03,0.282,-999.25,95.28,0.378,-999.25,0.333,5.78,1.379,-999.25,63.91,
594.5,8.03,0.29,-999.25,106.15,0.388,-999.25,0.343,5.9,1.385,-999.25,63.92,
595,8.05,0.293,-999.25,94.99,0.372,-999.25,0.335,5.72,1.367,-999.25,64.37,
595.5,8.07,0.293,-999.25,87.81,0.375,-999.25,0.337,5.7,1.348,-999.25,64.37,
596,8.06,0.29,-999.25,111.69,0.375,-999.25,0.335,6.46,1.371,-999.25,64.73,
596.5,8.03,0.284,-999.25,90.08,0.365,-999.25,0.327,7.25,1.396,-999.25,65,
597,8.03,0.282,-999.25,102.18,0.376,-999.25,0.332,7.36,1.393,-999.25,65.2,
597.5,7.98,0.284,-999.25,99.91,0.388,-999.25,0.34,7.18,1.388,-999.25,65.2,
598,7.99,0.288,-999.25,89.32,0.394,-999.25,0.345,6.93,1.39,-999.25,65.55,
598.5,8.01,0.289,-999.25,97.45,0.357,-999.25,0.325,6.66,1.385,-999.25,65.62,
599,8,0.289,-999.25,99.53,0.378,-999.25,0.336,6.57,1.398,-999.25,65.62,
599.5,8,0.289,-999.25,97.26,0.331,-999.25,0.311,6.69,1.418,-999.25,65.62,
600,7.97,0.291,-999.25,85.17,0.346,-999.25,0.32,7.24,1.444,-999.25,65.62,
600.5,7.97,0.291,-999.25,95.37,0.359,-999.25,0.327,6.68,1.424,-999.25,65.82,
601,7.99,0.289,-999.25,96.13,0.37,-999.25,0.332,6.12,1.402,-999.25,65.94,
601.5,7.99,0.29,-999.25,80.25,0.342,-999.25,0.317,6.33,1.422,-999.25,66.09,
602,7.95,0.291,-999.25,98.59,0.337,-999.25,0.315,6.55,1.438,-999.25,66.29,
602.5,7.97,0.291,-999.25,103.69,0.361,-999.25,0.328,6.5,1.448,-999.25,66.33,
603,7.98,0.287,-999.25,102.18,0.34,-999.25,0.315,6.59,1.46,-999.25,66.76,
603.5,7.95,0.279,-999.25,91.21,0.342,-999.25,0.312,7.43,1.51,-999.25,66.76,
604,7.92,0.276,-999.25,102.93,0.334,-999.25,0.306,8.1,1.552,-999.25,67.07,
604.5,7.94,0.279,-999.25,97.26,0.312,-999.25,0.296,6.92,1.5,-999.25,66.88,
605,7.98,0.284,-999.25,88.19,0.354,-999.25,0.321,6.14,1.459,-999.25,67.19,
605.5,8,0.289,-999.25,97.64,0.35,-999.25,0.321,6.39,1.488,-999.25,67.38,
606,8.02,0.289,-999.25,94.62,0.345,-999.25,0.318,6.8,1.517,-999.25,67.5,
606.5,8,0.289,-999.25,103.31,0.327,-999.25,0.309,6.7,1.522,-999.25,67.73,
607,7.98,0.287,-999.25,93.1,0.354,-999.25,0.322,6.45,1.512,-999.25,68.13,
607.5,7.98,0.286,-999.25,99.15,0.362,-999.25,0.326,6.82,1.544,-999.25,68.59,
608,7.99,0.286,-999.25,92.72,0.335,-999.25,0.311,7.4,1.584,-999.25,68.75,
608.5,8,0.287,-999.25,84.03,0.356,-999.25,0.323,6.98,1.582,-999.25,69.22,
609,7.97,0.286,-999.25,109.74,0.36,-999.25,0.325,6.82,1.591,-999.25,69.38,
609.5,7.96,0.281,-999.25,103.69,0.328,-999.25,0.305,6.84,1.605,-999.25,69.57,
610,7.99,0.277,-999.25,95.37,0.315,-999.25,0.297,6.63,1.595,-999.25,69.96,
610.5,7.96,0.275,-999.25,88.95,0.345,-999.25,0.312,6.24,1.577,-999.25,70,
611,8.01,0.278,-999.25,99.15,0.336,-999.25,0.308,6.21,1.569,-999.25,70.38,
611.5,8.02,0.279,-999.25,103.31,0.36,-999.25,0.322,6.48,1.585,-999.25,70.62,
612,8.01,0.281,-999.25,108.22,0.342,-999.25,0.313,6.29,1.568,-999.25,70.62,
612.5,8.01,0.282,-999.25,101.42,0.368,-999.25,0.328,5.78,1.522,-999.25,70.62,
613,8,0.285,-999.25,94.24,0.365,-999.25,0.327,6.13,1.54,-999.25,70.94,
613.5,8.01,0.284,-999.25,98.4,0.367,-999.25,0.328,6.42,1.56,-999.25,71.17,
614,7.99,0.284,-999.25,101.8,0.382,-999.25,0.337,6.51,1.562,-999.25,71.45,
614.5,7.99,0.281,-999.25,103.69,0.386,-999.25,0.338,6.79,1.574,-999.25,71.48,
615,7.97,0.277,-999.25,94.62,0.376,-999.25,0.33,6.85,1.568,-999.25,71.87,
615.5,7.97,0.275,-999.25,102.55,0.367,-999.25,0.324,6.37,1.541,-999.25,71.91,
616,8.03,0.274,-999.25,100.29,0.388,-999.25,0.336,6.6,1.546,-999.25,72.11,
616.5,8.05,0.275,-999.25,94.62,0.417,-999.25,0.353,6.66,1.557,-999.25,72.42,
617,8.05,0.277,-999.25,88.19,0.388,-999.25,0.337,6.59,1.533,-999.25,72.58,
617.5,8.08,0.28,-999.25,102.55,0.371,-999.25,0.329,6.03,1.513,-999.25,73.12,
618,8.04,0.283,-999.25,92.73,0.36,-999.25,0.324,6.13,1.528,-999.25,73.32,
618.5,8.02,0.286,-999.25,105.2,0.369,-999.25,0.33,6.42,1.562,-999.25,73.59,
619,8.03,0.287,-999.25,97.26,0.4,-999.25,0.348,6.39,1.582,-999.25,73.75,
619.5,8.02,0.289,-999.25,97.26,0.379,-999.25,0.337,6.2,1.597,-999.25,73.83,
620,8.01,0.287,-999.25,94.99,0.362,-999.25,0.327,6.16,1.613,-999.25,74.23,
620.5,8.04,0.284,-999.25,98.4,0.371,-999.25,0.33,6.07,1.609,-999.25,74.38,
621,8.07,0.286,-999.25,105.96,0.36,-999.25,0.325,5.9,1.599,-999.25,74.41,
621.5,8.05,0.283,-999.25,101.04,0.362,-999.25,0.325,5.82,1.626,-999.25,74.92,
622,8.05,0.285,-999.25,104,0.379,-999.25,0.335,5.9,1.637,-999.25,75,
622.5,8.02,0.282,-999.25,94.24,0.379,-999.25,0.334,5.92,1.654,-999.25,75,
623,8.03,0.282,-999.25,101.04,0.341,-999.25,0.313,5.86,1.651,-999.25,75.63,
623.5,8.06,0.283,-999.25,97.92,0.344,-999.25,0.315,5.74,1.655,-999.25,75.63,
624,8.07,0.28,-999.25,98.77,0.342,-999.25,0.313,5.98,1.684,-999.25,75.9,
624.5,8.1,0.28,-999.25,91.97,0.351,-999.25,0.317,5.87,1.686,-999.25,75.63,
625,8.1,0.281,-999.25,94.99,0.337,-999.25,0.31,5.8,1.68,-999.25,76.07,
625.5,8.08,0.284,-999.25,88.19,0.377,-999.25,0.334,5.8,1.673,-999.25,76.17,
626,8.09,0.285,-999.25,96.51,0.363,-999.25,0.326,5.83,1.671,-999.25,76.25,
626.5,8.02,0.283,-999.25,101.8,0.392,-999.25,0.342,5.72,1.673,-999.25,76.25,
627,8.01,0.284,-999.25,103.31,0.374,-999.25,0.332,5.59,1.656,-999.25,76.25,
627.5,8,0.286,-999.25,91.97,0.386,-999.25,0.34,5.59,1.659,-999.25,76.33,
628,8,0.289,-999.25,110.11,0.359,-999.25,0.326,5.64,1.661,-999.25,76.6,
628.5,8.02,0.285,-999.25,99.53,0.357,-999.25,0.323,5.38,1.642,-999.25,76.64,
629,8.01,0.283,-999.25,93.86,0.347,-999.25,0.317,5.21,1.63,-999.25,76.64,
629.5,8.01,0.284,-999.25,95.69,0.346,-999.25,0.317,5.1,1.622,-999.25,76.72,
630,8.01,0.29,-999.25,102.65,0.362,-999.25,0.328,5.24,1.63,-999.25,76.88,
630.5,8.02,0.291,-999.25,101.42,0.331,-999.25,0.312,5.27,1.643,-999.25,76.88,
631,7.99,0.286,-999.25,109.8,0.332,-999.25,0.31,5.47,1.659,-999.25,77.03,
631.5,8,0.28,-999.25,99.28,0.38,-999.25,0.334,5.39,1.64,-999.25,77.15,
632,8,0.282,-999.25,90.46,0.378,-999.25,0.333,5.14,1.619,-999.25,77.15,
632.5,7.99,0.285,-999.25,98.77,0.363,-999.25,0.326,4.94,1.599,-999.25,77.34,
633,8.01,0.29,-999.25,90.84,0.408,-999.25,0.354,5.01,1.611,-999.25,77.42,
633.5,8,0.292,-999.25,90.46,0.406,-999.25,0.354,4.93,1.606,-999.25,77.31,
634,8.01,0.296,-999.25,107.47,0.356,-999.25,0.327,4.74,1.579,-999.25,77.5,
634.5,8.02,0.297,-999.25,83.65,0.351,-999.25,0.325,4.64,1.565,-999.25,77.5,
635,8.02,0.292,-999.25,102.18,0.375,-999.25,0.336,4.57,1.556,-999.25,77.62,
635.5,8.03,0.291,-999.25,87.81,0.356,-999.25,0.325,4.66,1.567,-999.25,77.58,
636,8.01,0.294,-999.25,93.1,0.382,-999.25,0.341,4.73,1.571,-999.25,77.77,
636.5,8.04,0.301,-999.25,100.41,0.429,-999.25,0.371,4.79,1.575,-999.25,78.05,
637,8.01,0.3,-999.25,97.26,0.403,-999.25,0.355,5,1.592,-999.25,78.05,
637.5,8.02,0.298,-999.25,108.6,0.383,-999.25,0.343,4.88,1.57,-999.25,78.13,
638,8.03,0.296,-999.25,95.75,0.385,-999.25,0.343,4.61,1.538,-999.25,78.13,
638.5,8,0.297,-999.25,86.3,0.382,-999.25,0.342,4.67,1.545,-999.25,78.2,
639,8.01,0.297,-999.25,97.26,0.348,-999.25,0.324,4.91,1.572,-999.25,78.32,
639.5,7.99,0.298,-999.25,90.46,0.351,-999.25,0.326,4.82,1.547,-999.25,78.24,
640,8.01,0.301,-999.25,90.08,0.373,-999.25,0.339,4.6,1.511,-999.25,78.71,
640.5,8.03,0.306,-999.25,107.47,0.386,-999.25,0.348,4.44,1.484,-999.25,78.75,
641,8.03,0.309,-999.25,98.77,0.381,-999.25,0.347,4.51,1.479,-999.25,78.75,
641.5,8.04,0.308,-999.25,94.62,0.394,-999.25,0.354,4.65,1.478,-999.25,79.06,
642,8.07,0.297,-999.25,106.46,0.406,-999.25,0.356,4.76,1.472,-999.25,79.37,
642.5,8.07,0.284,-999.25,102.93,0.378,-999.25,0.334,4.88,1.471,-999.25,79.69,
643,8.01,0.273,-999.25,84.41,0.324,-999.25,0.3,5.2,1.494,-999.25,80,
643.5,8.02,0.281,-999.25,97.26,0.339,-999.25,0.311,4.85,1.461,-999.25,80.12,
644,8.02,0.297,-999.25,99.53,0.381,-999.25,0.342,4.27,1.373,-999.25,80.62,
644.5,8.01,0.314,-999.25,116.16,0.38,-999.25,0.349,3.82,1.321,-999.25,80.7,
645,8.01,0.322,-999.25,110.11,0.377,-999.25,0.351,3.54,1.28,-999.25,81.25,
645.5,8.05,0.327,-999.25,117.3,0.435,-999.25,0.385,3.08,1.21,-999.25,81.25,
646,8.05,0.33,-999.25,115.03,0.456,-999.25,0.398,2.73,1.123,-999.25,80.96,
646.5,8,0.324,-999.25,122.27,0.443,-999.25,0.388,2.92,1.195,-999.25,80.39,
647,8.02,0.313,-999.25,113.14,0.377,-999.25,0.346,4.04,1.354,-999.25,80,
647.5,8,0.304,-999.25,104.07,0.397,-999.25,0.354,4.91,1.454,-999.25,79.41,
648,7.99,0.301,-999.25,100.29,0.425,-999.25,0.368,4.63,1.443,-999.25,79.26,
648.5,7.99,0.295,-999.25,98.4,0.407,-999.25,0.355,4.42,1.435,-999.25,79.02,
649,7.99,0.288,-999.25,115.78,0.415,-999.25,0.357,4.52,1.449,-999.25,78.91,
649.5,8,0.284,-999.25,98.02,0.403,-999.25,0.349,4.7,1.481,-999.25,78.75,
650,7.99,0.286,-999.25,101.42,0.374,-999.25,0.333,4.88,1.51,-999.25,78.71,
650.5,7.98,0.288,-999.25,108.98,0.352,-999.25,0.322,4.91,1.519,-999.25,78.36,
651,7.99,0.287,-999.25,100.85,0.342,-999.25,0.316,4.87,1.531,-999.25,78.4,
651.5,8,0.288,-999.25,96.51,0.381,-999.25,0.338,5.06,1.562,-999.25,78.4,
652,7.97,0.291,-999.25,109.36,0.383,-999.25,0.34,5.31,1.597,-999.25,78.13,
652.5,7.97,0.291,-999.25,82.9,0.368,-999.25,0.332,5.25,1.599,-999.25,78.13,
653,8,0.29,-999.25,108.22,0.363,-999.25,0.329,5.1,1.572,-999.25,78.13,
653.5,8,0.285,-999.25,97.07,0.353,-999.25,0.321,4.89,1.586,-999.25,78.13,
654,8,0.284,-999.25,95.75,0.341,-999.25,0.314,5.13,1.62,-999.25,78.13,
654.5,8.01,0.282,-999.25,101.8,0.341,-999.25,0.313,5.22,1.648,-999.25,78.05,
655,8.02,0.282,-999.25,92.35,0.371,-999.25,0.33,5.37,1.646,-999.25,78.13,
655.5,8.05,0.28,-999.25,95.75,0.347,-999.25,0.315,5.27,1.643,-999.25,77.62,
656,7.98,0.276,-999.25,108.6,0.338,-999.25,0.309,5.41,1.668,-999.25,77.5,
656.5,7.94,0.271,-999.25,98.4,0.339,-999.25,0.307,5.98,1.723,-999.25,77.38,
657,7.94,0.271,-999.25,94.99,0.326,-999.25,0.3,5.75,1.702,-999.25,77.28,
657.5,7.93,0.274,-999.25,91.43,0.439,-999.25,0.366,5.29,1.647,-999.25,76.91,
658,7.94,0.276,-999.25,97.26,0.422,-999.25,0.357,5.21,1.653,-999.25,76.84,
658.5,7.96,0.274,-999.25,101.42,0.364,-999.25,0.322,5.28,1.656,-999.25,76.52,
659,7.96,0.27,-999.25,102.18,0.342,-999.25,0.308,5.35,1.645,-999.25,76.41,
659.5,7.97,0.27,-999.25,106.71,0.35,-999.25,0.313,5.37,1.639,-999.25,76.29,
660,7.97,0.272,-999.25,101.8,0.388,-999.25,0.335,5.47,1.631,-999.25,76.25,
660.5,7.96,0.277,-999.25,102.84,0.412,-999.25,0.351,5.51,1.617,-999.25,76.17,
661,7.98,0.281,-999.25,97.64,0.337,-999.25,0.31,5.49,1.601,-999.25,75.98,
661.5,8.01,0.286,-999.25,110.49,0.355,-999.25,0.322,5.48,1.578,-999.25,75.88,
662,7.99,0.285,-999.25,104.44,0.377,-999.25,0.334,5.37,1.555,-999.25,75.63,
662.5,8,0.281,-999.25,89.42,0.385,-999.25,0.337,5.41,1.553,-999.25,75.63,
663,8,0.278,-999.25,91.97,0.356,-999.25,0.319,5.41,1.544,-999.25,75.48,
663.5,7.99,0.278,-999.25,92.41,0.353,-999.25,0.318,5.59,1.549,-999.25,75.63,
664,7.96,0.281,-999.25,94.99,0.347,-999.25,0.316,5.81,1.555,-999.25,75.31,
664.5,7.96,0.282,-999.25,96.51,0.344,-999.25,0.315,5.68,1.532,-999.25,75.27,
665,7.98,0.283,-999.25,93.77,0.368,-999.25,0.328,5.68,1.521,-999.25,75,
665.5,7.97,0.279,-999.25,101.8,0.37,-999.25,0.328,5.81,1.52,-999.25,74.96,
666,7.96,0.277,-999.25,112.76,0.364,-999.25,0.323,5.79,1.496,-999.25,74.6,
666.5,8,0.275,-999.25,98.4,0.328,-999.25,0.303,5.5,1.461,-999.25,74.38,
667,8.05,0.281,-999.25,101.42,0.352,-999.25,0.318,5.86,1.476,-999.25,74.38,
667.5,8.01,0.285,-999.25,93.48,0.342,-999.25,0.315,6.37,1.504,-999.25,74.23,
668,8.01,0.284,-999.25,109.45,0.371,-999.25,0.33,5.98,1.46,-999.25,74.14,
668.5,7.99,0.279,-999.25,96.51,0.346,-999.25,0.314,5.73,1.444,-999.25,74.26,
669,8.01,0.275,-999.25,102.93,0.333,-999.25,0.305,5.81,1.466,-999.25,74.38,
669.5,8.03,0.276,-999.25,101.42,0.343,-999.25,0.311,6.74,1.523,-999.25,74.38,
670,8,0.276,-999.25,88.57,0.373,-999.25,0.328,7.25,1.571,-999.25,74.77,
670.5,8,0.278,-999.25,94.62,0.335,-999.25,0.308,6.21,1.542,-999.25,75.27,
671,7.99,0.28,-999.25,109.07,0.317,-999.25,0.299,5.99,1.529,-999.25,75.39,
671.5,7.98,0.277,-999.25,98.77,0.305,-999.25,0.291,5.26,1.506,-999.25,75.92,
672,7.98,0.262,-999.25,91.21,0.352,-999.25,0.31,6.09,1.566,-999.25,76.25,
672.5,7.96,0.242,-999.25,97.64,0.318,-999.25,0.283,6.88,1.679,-999.25,76.44,
673,7.9,0.233,-999.25,99.15,0.284,-999.25,0.26,8.85,1.759,-999.25,76.25,
673.5,7.94,0.241,-999.25,98.4,0.296,-999.25,0.27,7.41,1.639,-999.25,76.25,
674,8.02,0.258,-999.25,93.1,0.38,-999.25,0.325,5.14,1.481,-999.25,76.25,
674.5,8.02,0.273,-999.25,100.29,0.382,-999.25,0.332,4.6,1.411,-999.25,76.68,
675,8.06,0.283,-999.25,86.3,0.346,-999.25,0.316,4.87,1.425,-999.25,76.88,
675.5,8.06,0.289,-999.25,88.57,0.356,-999.25,0.324,5.12,1.419,-999.25,77.38,
676,8.03,0.289,-999.25,97.64,0.367,-999.25,0.33,5.41,1.41,-999.25,77.77,
676.5,8.02,0.288,-999.25,102.56,0.354,-999.25,0.323,5.57,1.414,-999.25,78.12,
677,8.03,0.283,-999.25,108.98,0.367,-999.25,0.328,5.9,1.417,-999.25,78.42,
677.5,8.01,0.283,-999.25,104.82,0.342,-999.25,0.314,6.24,1.419,-999.25,78.75,
678,7.97,0.285,-999.25,94.24,0.386,-999.25,0.339,5.91,1.425,-999.25,78.87,
678.5,7.96,0.288,-999.25,96.13,0.368,-999.25,0.33,5.68,1.421,-999.25,79.34,
679,7.96,0.291,-999.25,102.11,0.391,-999.25,0.345,5.77,1.421,-999.25,79.37,
679.5,7.96,0.291,-999.25,94.62,0.35,-999.25,0.322,5.49,1.401,-999.25,79.37,
680,7.96,0.289,-999.25,95.75,0.351,-999.25,0.321,5.06,1.373,-999.25,79.37,
680.5,7.97,0.288,-999.25,89.7,0.364,-999.25,0.328,5.16,1.377,-999.25,79.89,
681,7.99,0.29,-999.25,94.62,0.335,-999.25,0.313,5.48,1.414,-999.25,80.08,
681.5,7.99,0.292,-999.25,98.77,0.383,-999.25,0.341,5.73,1.434,-999.25,80.2,
682,7.96,0.292,-999.25,85.92,0.365,-999.25,0.331,5.69,1.436,-999.25,80.62,
682.5,7.98,0.29,-999.25,94.74,0.383,-999.25,0.34,5.41,1.434,-999.25,80.62,
683,7.97,0.29,-999.25,102.05,0.386,-999.25,0.341,5.22,1.443,-999.25,81.18,
683.5,7.98,0.293,-999.25,93.48,0.372,-999.25,0.335,5.1,1.451,-999.25,81.25,
684,8.02,0.3,-999.25,105.2,0.38,-999.25,0.342,4.94,1.448,-999.25,81.48,
684.5,8.03,0.301,-999.25,95.75,0.416,-999.25,0.363,4.76,1.442,-999.25,81.99,
685,8.03,0.296,-999.25,99.53,0.365,-999.25,0.332,4.82,1.468,-999.25,82.42,
685.5,7.96,0.284,-999.25,95.37,0.355,-999.25,0.321,4.94,1.518,-999.25,82.5,
686,7.94,0.28,-999.25,91.97,0.354,-999.25,0.319,5,1.53,-999.25,82.5,
686.5,7.94,0.283,-999.25,86.68,0.423,-999.25,0.36,4.54,1.468,-999.25,82.5,
687,7.94,0.285,-999.25,96.88,0.431,-999.25,0.365,4.51,1.453,-999.25,82.19,
687.5,7.94,0.276,-999.25,91.59,0.403,-999.25,0.345,4.88,1.508,-999.25,82.46,
688,7.93,0.269,-999.25,93.1,0.387,-999.25,0.333,5.45,1.565,-999.25,82.5,
688.5,7.91,0.272,-999.25,100.98,0.356,-999.25,0.317,5.43,1.542,-999.25,82.5,
689,7.94,0.281,-999.25,91.21,0.369,-999.25,0.328,4.81,1.475,-999.25,82.5,
689.5,7.95,0.291,-999.25,94.24,0.36,-999.25,0.327,4.69,1.431,-999.25,82.5,
690,7.95,0.298,-999.25,87.43,0.351,-999.25,0.326,4.61,1.426,-999.25,82.5,
690.5,7.94,0.299,-999.25,82.52,0.37,-999.25,0.336,4.53,1.426,-999.25,82.5,
691,7.91,0.299,-999.25,92.35,0.452,-999.25,0.383,4.72,1.458,-999.25,83.05,
691.5,7.91,0.295,-999.25,91.21,0.398,-999.25,0.35,4.96,1.48,-999.25,83.13,
692,7.94,0.295,-999.25,99.91,0.383,-999.25,0.342,5,1.48,-999.25,83.13,
692.5,7.94,0.296,-999.25,93.1,0.404,-999.25,0.354,4.86,1.486,-999.25,83.13,
693,7.93,0.298,-999.25,82.33,0.352,-999.25,0.326,4.83,1.494,-999.25,83.13,
693.5,7.92,0.297,-999.25,90.84,0.438,-999.25,0.374,4.71,1.493,-999.25,83.2,
694,7.91,0.3,-999.25,81.01,0.37,-999.25,0.337,4.61,1.475,-999.25,83.75,
694.5,7.92,0.301,-999.25,100.29,0.402,-999.25,0.355,4.38,1.46,-999.25,83.48,
695,7.94,0.301,-999.25,79.5,0.379,-999.25,0.342,4.37,1.454,-999.25,83.48,
695.5,7.92,0.295,-999.25,91.59,0.459,-999.25,0.386,4.45,1.455,-999.25,83.75,
696,7.95,0.295,-999.25,85.54,0.398,-999.25,0.35,4.56,1.461,-999.25,83.75,
696.5,7.94,0.296,-999.25,92.73,0.396,-999.25,0.35,4.64,1.458,-999.25,83.75,
697,7.93,0.299,-999.25,96.51,0.418,-999.25,0.363,4.66,1.458,-999.25,83.75,
697.5,7.94,0.299,-999.25,82.33,0.435,-999.25,0.373,4.81,1.458,-999.25,83.75,
698,7.94,0.299,-999.25,91.15,0.508,-999.25,0.417,4.8,1.444,-999.25,83.75,
698.5,7.96,0.296,-999.25,78.74,0.395,-999.25,0.349,4.63,1.423,-999.25,83.75,
699,7.96,0.294,-999.25,94.24,0.395,-999.25,0.348,4.61,1.426,-999.25,83.75,
699.5,7.96,0.295,-999.25,95.75,0.361,-999.25,0.33,4.65,1.423,-999.25,83.75,
700,7.99,0.299,-999.25,79.12,0.358,-999.25,0.33,4.62,1.417,-999.25,83.94,
700.5,7.96,0.301,-999.25,84.79,0.389,-999.25,0.348,4.55,1.411,-999.25,84.34,
701,7.97,0.294,-999.25,98.02,0.408,-999.25,0.356,4.96,1.444,-999.25,84.38,
701.5,7.97,0.285,-999.25,85.17,0.405,-999.25,0.35,5.57,1.5,-999.25,84.38,
702,7.93,0.281,-999.25,81.76,0.447,-999.25,0.373,6.02,1.534,-999.25,84.34,
702.5,7.95,0.29,-999.25,87.43,0.39,-999.25,0.344,5.03,1.445,-999.25,84.06,
703,7.94,0.3,-999.25,94.24,0.416,-999.25,0.363,4.57,1.407,-999.25,84.08,
703.5,7.95,0.306,-999.25,88.19,0.388,-999.25,0.349,4.48,1.403,-999.25,83.98,
704,7.96,0.303,-999.25,90.84,0.384,-999.25,0.346,4.65,1.424,-999.25,84.38,
704.5,7.99,0.301,-999.25,91.21,0.387,-999.25,0.347,4.85,1.439,-999.25,84.38,
705,7.95,0.301,-999.25,85.17,0.503,-999.25,0.414,4.74,1.424,-999.25,84.38,
705.5,7.96,0.302,-999.25,73.45,0.494,-999.25,0.409,4.65,1.409,-999.25,84.38,
706,7.97,0.302,-999.25,87.81,0.457,-999.25,0.387,4.65,1.413,-999.25,84.57,
706.5,7.97,0.302,-999.25,84.85,0.502,-999.25,0.414,4.82,1.438,-999.25,84.8,
707,7.99,0.302,-999.25,82.52,0.489,-999.25,0.406,4.95,1.453,-999.25,85,
707.5,8.01,0.303,-999.25,86.3,0.44,-999.25,0.378,4.8,1.449,-999.25,85.07,
708,8.03,0.302,-999.25,86.68,0.372,-999.25,0.339,4.76,1.458,-999.25,85.51,
708.5,7.99,0.3,-999.25,94.99,0.369,-999.25,0.336,4.82,1.479,-999.25,85.63,
709,7.97,0.3,-999.25,98.77,0.387,-999.25,0.346,4.52,1.459,-999.25,85.63,
709.5,7.97,0.303,-999.25,94.62,0.385,-999.25,0.346,4.34,1.452,-999.25,85.7,
710,7.97,0.304,-999.25,90.14,0.382,-999.25,0.345,4.52,1.483,-999.25,86.03,
710.5,8,0.303,-999.25,88.57,0.349,-999.25,0.327,4.64,1.5,-999.25,86.25,
711,8,0.295,-999.25,83.28,0.393,-999.25,0.347,4.57,1.492,-999.25,86.25,
711.5,7.97,0.288,-999.25,93.48,0.383,-999.25,0.339,4.54,1.511,-999.25,86.25,
712,7.92,0.28,-999.25,89.7,0.346,-999.25,0.315,4.71,1.552,-999.25,86.25,
712.5,7.94,0.284,-999.25,87.05,0.38,-999.25,0.335,4.81,1.547,-999.25,86.25,
713,7.96,0.292,-999.25,96,0.396,-999.25,0.348,4.68,1.539,-999.25,86.25,
713.5,7.96,0.299,-999.25,90.08,0.378,-999.25,0.341,4.66,1.543,-999.25,86.25,
714,7.97,0.3,-999.25,96.88,0.386,-999.25,0.346,4.66,1.549,-999.25,86.25,
714.5,7.99,0.299,-999.25,86.3,0.383,-999.25,0.344,4.66,1.542,-999.25,86.21,
715,8.02,0.297,-999.25,94.62,0.398,-999.25,0.351,4.61,1.554,-999.25,86.25,
715.5,7.95,0.296,-999.25,84.41,0.364,-999.25,0.332,4.66,1.566,-999.25,86.25,
716,7.94,0.294,-999.25,86.68,0.39,-999.25,0.345,4.58,1.558,-999.25,86.25,
716.5,7.96,0.294,-999.25,97.64,0.38,-999.25,0.34,4.59,1.549,-999.25,86.41,
717,7.94,0.297,-999.25,91.59,0.386,-999.25,0.344,4.53,1.544,-999.25,86.47,
717.5,7.95,0.301,-999.25,95.31,0.405,-999.25,0.357,4.58,1.562,-999.25,86.87,
718,7.96,0.298,-999.25,85.54,0.397,-999.25,0.351,4.6,1.572,-999.25,86.87,
718.5,7.94,0.293,-999.25,98.77,0.442,-999.25,0.375,4.58,1.574,-999.25,86.87,
719,7.94,0.29,-999.25,84.41,0.372,-999.25,0.334,4.6,1.578,-999.25,86.87,
719.5,7.95,0.29,-999.25,99.15,0.406,-999.25,0.353,4.56,1.581,-999.25,86.91,
720,7.94,0.289,-999.25,83.34,0.422,-999.25,0.362,4.55,1.594,-999.25,86.99,
720.5,7.93,0.285,-999.25,95.37,0.376,-999.25,0.334,4.7,1.616,-999.25,87.25,
721,7.91,0.284,-999.25,83.28,0.383,-999.25,0.337,4.75,1.621,-999.25,87.42,
721.5,7.95,0.287,-999.25,92.35,0.368,-999.25,0.33,4.52,1.585,-999.25,86.96,
722,7.95,0.292,-999.25,96.13,0.379,-999.25,0.338,4.37,1.563,-999.25,87.27,
722.5,7.95,0.297,-999.25,93.48,0.424,-999.25,0.366,4.38,1.559,-999.25,86.99,
723,7.96,0.299,-999.25,94.62,0.384,-999.25,0.344,4.41,1.569,-999.25,87.15,
723.5,7.95,0.3,-999.25,91.97,0.38,-999.25,0.342,4.45,1.581,-999.25,87.25,
724,7.94,0.298,-999.25,89.32,0.361,-999.25,0.331,4.46,1.576,-999.25,87.19,
724.5,7.96,0.299,-999.25,94.24,0.352,-999.25,0.327,4.42,1.546,-999.25,87.19,
725,7.96,0.3,-999.25,97.17,0.376,-999.25,0.34,4.32,1.534,-999.25,87.5,
725.5,7.95,0.301,-999.25,92.03,0.382,-999.25,0.344,4.46,1.563,-999.25,87.5,
726,7.98,0.305,-999.25,99.91,0.368,-999.25,0.338,4.62,1.588,-999.25,87.62,
726.5,7.95,0.307,-999.25,91.59,0.35,-999.25,0.329,4.56,1.566,-999.25,87.54,
727,7.96,0.305,-999.25,89.32,0.443,-999.25,0.38,4.33,1.536,-999.25,87.66,
727.5,7.96,0.297,-999.25,93.07,0.434,-999.25,0.372,4.19,1.513,-999.25,87.58,
728,7.96,0.289,-999.25,103.06,0.39,-999.25,0.343,4.19,1.529,-999.25,88.01,
728.5,7.94,0.288,-999.25,81.39,0.367,-999.25,0.33,4.33,1.55,-999.25,87.92,
729,7.96,0.296,-999.25,88.57,0.354,-999.25,0.326,4.22,1.534,-999.25,88.12,
729.5,7.94,0.305,-999.25,90.84,0.407,-999.25,0.36,4.12,1.506,-999.25,88.12,
730,7.96,0.308,-999.25,93.1,0.417,-999.25,0.367,4.12,1.503,-999.25,88.12,
730.5,7.96,0.307,-999.25,90.46,0.446,-999.25,0.383,4.09,1.497,-999.25,88.12,
731,7.95,0.305,-999.25,82.52,0.435,-999.25,0.376,4.09,1.492,-999.25,88.16,
731.5,7.97,0.302,-999.25,104.82,0.431,-999.25,0.372,4.05,1.499,-999.25,88.12,
732,7.96,0.299,-999.25,90.46,0.422,-999.25,0.366,4.22,1.513,-999.25,88.32,
732.5,7.99,0.3,-999.25,95.56,0.407,-999.25,0.358,4.05,1.482,-999.25,88.36,
733,8.02,0.303,-999.25,104.44,0.407,-999.25,0.359,3.87,1.444,-999.25,88.2,
733.5,8.02,0.305,-999.25,84.79,0.367,-999.25,0.337,3.92,1.451,-999.25,88.75,
734,8.03,0.304,-999.25,101.04,0.377,-999.25,0.342,4,1.462,-999.25,88.75,
734.5,7.97,0.307,-999.25,88.95,0.41,-999.25,0.362,3.95,1.454,-999.25,88.87,
735,8,0.308,-999.25,103.31,0.391,-999.25,0.352,3.9,1.443,-999.25,89.26,
735.5,7.96,0.311,-999.25,97.26,0.375,-999.25,0.344,3.87,1.437,-999.25,89.37,
736,7.98,0.311,-999.25,85.54,0.362,-999.25,0.337,3.74,1.419,-999.25,89.37,
736.5,7.98,0.312,-999.25,98.46,0.383,-999.25,0.349,3.65,1.396,-999.25,89.37,
737,8.01,0.313,-999.25,87.06,0.393,-999.25,0.355,3.61,1.393,-999.25,89.37,
737.5,7.99,0.315,-999.25,101.42,0.373,-999.25,0.345,3.69,1.412,-999.25,89.37,
738,7.99,0.316,-999.25,101.04,0.418,-999.25,0.371,3.77,1.424,-999.25,89.26,
738.5,7.99,0.318,-999.25,94.62,0.422,-999.25,0.374,3.78,1.413,-999.25,89.37,
739,7.99,0.314,-999.25,94.49,0.391,-999.25,0.355,3.75,1.403,-999.25,89.37,
739.5,8.01,0.312,-999.25,87.43,0.372,-999.25,0.343,3.75,1.4,-999.25,89.37,
740,8,0.313,-999.25,93.48,0.432,-999.25,0.377,3.77,1.405,-999.25,89.37,
740.5,8.01,0.314,-999.25,88.38,0.433,-999.25,0.378,3.78,1.409,-999.25,89.34,
741,8.01,0.313,-999.25,88.19,0.407,-999.25,0.363,3.76,1.401,-999.25,89.34,
741.5,8.01,0.312,-999.25,93.86,0.4,-999.25,0.359,3.62,1.383,-999.25,89.37,
742,8,0.312,-999.25,87.06,0.426,-999.25,0.373,3.77,1.381,-999.25,89.37,
742.5,7.99,0.3,-999.25,83.02,0.413,-999.25,0.361,3.97,1.436,-999.25,89.57,
743,7.95,0.282,-999.25,89.32,0.364,-999.25,0.326,4.73,1.532,-999.25,89.73,
743.5,7.92,0.271,-999.25,94.74,0.318,-999.25,0.295,5.07,1.541,-999.25,89.57,
744,7.91,0.284,-999.25,88.19,0.322,-999.25,0.304,4.05,1.431,-999.25,89.37,
744.5,7.95,0.312,-999.25,93.48,0.394,-999.25,0.355,3.28,1.304,-999.25,89.1,
745,7.97,0.339,-999.25,102.18,0.409,-999.25,0.376,2.65,1.199,-999.25,88.75,
745.5,8.02,0.351,-999.25,100.29,0.449,-999.25,0.403,2.37,1.136,-999.25,88.08,
746,8.08,0.344,-999.25,99.15,0.424,-999.25,0.386,2.69,1.18,-999.25,87.38,
746.5,8.05,0.33,-999.25,102.24,0.41,-999.25,0.372,3.38,1.307,-999.25,86.87,
747,8.06,0.32,-999.25,92.73,0.407,-999.25,0.366,4.15,1.411,-999.25,86.6,
747.5,7.97,0.318,-999.25,91.21,0.372,-999.25,0.346,4.54,1.475,-999.25,86.21,
748,7.98,0.321,-999.25,92.35,0.357,-999.25,0.339,4.22,1.416,-999.25,86.02,
748.5,7.95,0.32,-999.25,87.06,0.393,-999.25,0.358,3.98,1.396,-999.25,85.7,
749,7.95,0.318,-999.25,103.88,0.388,-999.25,0.355,4.13,1.407,-999.25,85.63,
749.5,7.94,0.314,-999.25,100.29,0.372,-999.25,0.344,4.29,1.441,-999.25,85.63,
750,7.96,0.315,-999.25,89.32,0.379,-999.25,0.348,4.29,1.458,-999.25,85.18,
750.5,7.96,0.313,-999.25,91.4,0.361,-999.25,0.338,4.15,1.448,-999.25,85,
751,7.96,0.316,-999.25,88.95,0.362,-999.25,0.34,4.14,1.417,-999.25,84.96,
751.5,7.94,0.315,-999.25,91.97,0.382,-999.25,0.35,3.94,1.409,-999.25,84.38,
752,7.95,0.314,-999.25,104.07,0.405,-999.25,0.362,4.04,1.41,-999.25,84.38,
752.5,7.96,0.31,-999.25,94.24,0.368,-999.25,0.34,4.08,1.406,-999.25,83.87,
753,7.96,0.308,-999.25,94.24,0.373,-999.25,0.342,4.1,1.404,-999.25,83.75,
753.5,7.95,0.307,-999.25,86.68,0.388,-999.25,0.35,4.22,1.413,-999.25,83.75,
754,7.94,0.306,-999.25,91.21,0.434,-999.25,0.375,4.4,1.429,-999.25,83.75,
754.5,7.96,0.305,-999.25,99.15,0.4,-999.25,0.356,4.56,1.437,-999.25,83.75,
755,7.94,0.306,-999.25,99.91,0.397,-999.25,0.354,4.53,1.432,-999.25,83.75,
755.5,7.96,0.304,-999.25,85.54,0.423,-999.25,0.368,4.47,1.429,-999.25,83.55,
756,7.99,0.307,-999.25,91.59,0.41,-999.25,0.362,4.29,1.416,-999.25,83.59,
756.5,7.96,0.306,-999.25,96.51,0.35,-999.25,0.329,4.15,1.407,-999.25,83.32,
757,7.98,0.308,-999.25,92.6,0.376,-999.25,0.344,4.22,1.43,-999.25,83.13,
757.5,7.97,0.306,-999.25,96.88,0.386,-999.25,0.348,4.32,1.447,-999.25,83.13,
758,7.96,0.306,-999.25,90.84,0.375,-999.25,0.342,4.37,1.463,-999.25,83.13,
758.5,7.97,0.307,-999.25,103.88,0.389,-999.25,0.35,4.49,1.478,-999.25,83.13,
759,7.98,0.313,-999.25,95.37,0.376,-999.25,0.346,4.41,1.476,-999.25,83.13,
759.5,7.98,0.315,-999.25,85.92,0.431,-999.25,0.377,4.3,1.481,-999.25,83.13,
760,7.97,0.314,-999.25,101.42,0.395,-999.25,0.357,4.24,1.486,-999.25,83.13,
760.5,7.96,0.308,-999.25,98.84,0.404,-999.25,0.359,4.05,1.474,-999.25,83.13,
761,7.97,0.306,-999.25,95.75,0.417,-999.25,0.366,3.98,1.481,-999.25,83.13,
761.5,7.97,0.307,-999.25,87.81,0.394,-999.25,0.353,4,1.481,-999.25,83.09,
762,7.99,0.306,-999.25,92.54,0.367,-999.25,0.338,4.04,1.47,-999.25,83.01,
762.5,8,0.301,-999.25,100.29,0.377,-999.25,0.341,4.15,1.46,-999.25,82.77,
763,8,0.293,-999.25,96.88,0.352,-999.25,0.324,4.37,1.461,-999.25,82.54,
763.5,8,0.275,-999.25,100.66,0.34,-999.25,0.309,4.63,1.524,-999.25,82.43,
764,7.95,0.268,-999.25,90.84,0.32,-999.25,0.295,6.12,1.61,-999.25,81.95,
764.5,7.93,0.272,-999.25,95.75,0.32,-999.25,0.297,5.57,1.516,-999.25,81.45,
765,7.99,0.288,-999.25,86.17,0.356,-999.25,0.324,4.53,1.408,-999.25,81.09,
765.5,8.04,0.297,-999.25,102.56,0.355,-999.25,0.327,4.49,1.367,-999.25,80.77,
766,8.02,0.301,-999.25,102.93,0.43,-999.25,0.371,4.39,1.346,-999.25,80.62,
766.5,8.06,0.304,-999.25,99.91,0.424,-999.25,0.369,4.32,1.328,-999.25,80.62,
767,8.01,0.306,-999.25,92.35,0.38,-999.25,0.345,4.57,1.346,-999.25,80.62,
767.5,8.03,0.303,-999.25,99.66,0.406,-999.25,0.358,5.07,1.386,-999.25,80.62,
768,8.06,0.304,-999.25,95.37,0.418,-999.25,0.365,5.6,1.425,-999.25,80.62,
768.5,8,0.309,-999.25,93.1,0.394,-999.25,0.354,4.93,1.397,-999.25,80.62,
769,7.99,0.313,-999.25,98.02,0.401,-999.25,0.36,4.5,1.396,-999.25,81.13,
769.5,8.02,0.309,-999.25,98.77,0.393,-999.25,0.354,4.36,1.413,-999.25,81.25,
770,8.06,0.303,-999.25,106.34,0.378,-999.25,0.343,4.28,1.434,-999.25,81.25,
770.5,8.04,0.302,-999.25,93.86,0.411,-999.25,0.361,4.27,1.446,-999.25,81.6,
771,8.1,0.304,-999.25,102.3,0.37,-999.25,0.339,4.31,1.463,-999.25,81.84,
771.5,8.09,0.299,-999.25,90.46,0.353,-999.25,0.327,4.26,1.471,-999.25,81.72,
772,8.06,0.291,-999.25,90.08,0.38,-999.25,0.338,4.17,1.473,-999.25,81.8,
772.5,7.96,0.285,-999.25,98.84,0.393,-999.25,0.343,4.46,1.509,-999.25,81.29,
773,7.99,0.286,-999.25,102.18,0.395,-999.25,0.345,4.49,1.51,-999.25,81.25,
773.5,8,0.295,-999.25,91.59,0.395,-999.25,0.349,4.19,1.452,-999.25,81.25,
774,8,0.304,-999.25,97.45,0.409,-999.25,0.36,3.98,1.413,-999.25,80.81,
774.5,8.03,0.309,-999.25,98.77,0.389,-999.25,0.351,4.07,1.419,-999.25,80.62,
775,8.03,0.305,-999.25,98.77,0.371,-999.25,0.34,4.33,1.444,-999.25,80.62,
775.5,8.03,0.298,-999.25,100.66,0.347,-999.25,0.323,4.53,1.464,-999.25,80.59,
776,7.99,0.295,-999.25,98.59,0.337,-999.25,0.317,4.62,1.458,-999.25,80.59,
776.5,8.01,0.293,-999.25,94.62,0.385,-999.25,0.342,4.66,1.452,-999.25,80.62,
777,8.01,0.289,-999.25,102.55,0.393,-999.25,0.345,4.81,1.48,-999.25,80.62,
777.5,7.99,0.281,-999.25,91.28,0.388,-999.25,0.339,5.14,1.52,-999.25,80.62,
778,8,0.277,-999.25,101.8,0.334,-999.25,0.307,5.4,1.57,-999.25,80.62,
778.5,8.01,0.281,-999.25,103.31,0.36,-999.25,0.323,5.44,1.544,-999.25,80.98,
779,8,0.288,-999.25,95.81,0.379,-999.25,0.337,4.83,1.503,-999.25,80.77,
779.5,7.96,0.291,-999.25,93.48,0.396,-999.25,0.347,4.72,1.487,-999.25,80.66,
780,7.96,0.291,-999.25,107.09,0.419,-999.25,0.361,4.36,1.462,-999.25,80.82,
780.5,7.94,0.291,-999.25,98.21,0.402,-999.25,0.351,4.53,1.478,-999.25,80.78,
781,7.96,0.295,-999.25,95.75,0.408,-999.25,0.356,4.75,1.514,-999.25,80.7,
781.5,7.96,0.298,-999.25,90.46,0.371,-999.25,0.336,4.92,1.523,-999.25,80.77,
782,7.96,0.3,-999.25,84.41,0.383,-999.25,0.344,4.92,1.526,-999.25,80.94,
782.5,7.94,0.297,-999.25,99.09,0.368,-999.25,0.334,4.89,1.547,-999.25,80.94,
783,7.96,0.295,-999.25,99.91,0.38,-999.25,0.34,4.91,1.559,-999.25,81.25,
783.5,7.96,0.296,-999.25,91.21,0.398,-999.25,0.351,4.79,1.565,-999.25,81.25,
784,7.97,0.296,-999.25,97.64,0.407,-999.25,0.356,4.72,1.568,-999.25,81.25,
784.5,7.96,0.293,-999.25,88.19,0.373,-999.25,0.335,4.76,1.588,-999.25,81.25,
785,7.95,0.283,-999.25,84.79,0.398,-999.25,0.345,4.72,1.608,-999.25,81.25,
785.5,7.93,0.271,-999.25,86.3,0.375,-999.25,0.327,5.1,1.681,-999.25,81.8,
786,7.92,0.259,-999.25,98.4,0.338,-999.25,0.301,5.75,1.757,-999.25,81.87,
786.5,7.92,0.256,-999.25,91.59,0.36,-999.25,0.312,5.88,1.773,-999.25,81.87,
787,7.93,0.26,-999.25,100.66,0.342,-999.25,0.304,5.97,1.757,-999.25,81.84,
787.5,7.94,0.272,-999.25,102.99,0.356,-999.25,0.317,5.29,1.671,-999.25,81.29,
788,7.96,0.28,-999.25,106.71,0.395,-999.25,0.342,4.88,1.574,-999.25,81.02,
788.5,7.95,0.282,-999.25,85.23,0.372,-999.25,0.33,4.61,1.563,-999.25,80.66,
789,7.97,0.276,-999.25,93.67,0.316,-999.25,0.297,5.33,1.616,-999.25,80.62,
789.5,7.94,0.277,-999.25,92.72,0.328,-999.25,0.304,5.49,1.618,-999.25,80.33,
790,7.99,0.28,-999.25,92.91,0.363,-999.25,0.324,5.33,1.534,-999.25,80,
790.5,7.96,0.282,-999.25,96.88,0.377,-999.25,0.333,5.12,1.483,-999.25,80.08,
791,7.96,0.277,-999.25,93.1,0.381,-999.25,0.333,5.77,1.536,-999.25,80.55,
791.5,7.95,0.273,-999.25,94.24,0.331,-999.25,0.303,6.41,1.579,-999.25,80.62,
792,7.96,0.276,-999.25,94.52,0.357,-999.25,0.319,5.79,1.529,-999.25,80.62,
792.5,7.98,0.28,-999.25,92.03,0.38,-999.25,0.334,5.85,1.524,-999.25,80.62,
793,7.97,0.282,-999.25,102.55,0.366,-999.25,0.327,6,1.545,-999.25,80.62,
793.5,7.97,0.282,-999.25,109.42,0.406,-999.25,0.35,5.59,1.524,-999.25,80.66,
794,8.02,0.279,-999.25,96.13,0.383,-999.25,0.335,5.55,1.523,-999.25,80.98,
794.5,8.01,0.277,-999.25,107.09,0.32,-999.25,0.299,5.57,1.528,-999.25,81.25,
795,8,0.275,-999.25,101.42,0.358,-999.25,0.319,5.31,1.501,-999.25,81.25,
795.5,8.02,0.278,-999.25,92.73,0.379,-999.25,0.332,5.08,1.48,-999.25,81.47,
796,7.99,0.282,-999.25,93.1,0.368,-999.25,0.328,5.1,1.486,-999.25,81.56,
796.5,7.99,0.287,-999.25,84.03,0.386,-999.25,0.34,5.37,1.518,-999.25,81.95,
797,8,0.284,-999.25,93.48,0.355,-999.25,0.321,5.63,1.541,-999.25,82.15,
797.5,8.02,0.279,-999.25,95.75,0.345,-999.25,0.314,5.51,1.54,-999.25,82.5,
798,7.97,0.275,-999.25,107.47,0.391,-999.25,0.338,5.39,1.533,-999.25,82.5,
798.5,8,0.281,-999.25,90.46,0.352,-999.25,0.318,5.23,1.536,-999.25,82.93,
799,7.98,0.283,-999.25,90.27,0.363,-999.25,0.325,5.17,1.537,-999.25,83.13,
799.5,7.99,0.282,-999.25,103.31,0.418,-999.25,0.357,5.14,1.543,-999.25,83.24,
800,8.01,0.281,-999.25,96.51,0.39,-999.25,0.34,5.01,1.54,-999.25,83.42,
800.5,8,0.283,-999.25,90.08,0.395,-999.25,0.344,4.93,1.536,-999.25,83.48,
801,8,0.286,-999.25,96.51,0.375,-999.25,0.333,4.91,1.53,-999.25,83.59,
801.5,8.02,0.287,-999.25,90.46,0.356,-999.25,0.323,4.81,1.525,-999.25,83.75,
802,8.01,0.287,-999.25,98.4,0.358,-999.25,0.324,4.86,1.549,-999.25,83.79,
802.5,8.01,0.284,-999.25,91.97,0.378,-999.25,0.334,5.04,1.58,-999.25,84.26,
803,8.07,0.28,148.02,118.81,0.372,-999.25,0.329,5.41,1.617,-999.25,83.98,
803.5,8.05,0.276,-999.25,86.05,0.399,-999.25,0.343,5.27,1.597,-999.25,84.38,
804,8.05,0.272,-999.25,96.13,0.388,-999.25,0.335,5.05,1.596,-999.25,84.41,
804.5,8.02,0.271,-999.25,96.88,0.347,-999.25,0.311,5.18,1.628,-999.25,84.57,
805,8.01,0.273,-999.25,100.22,0.347,-999.25,0.312,5.17,1.653,-999.25,84.96,
805.5,8.01,0.275,-999.25,99.53,0.376,-999.25,0.329,4.93,1.635,-999.25,85,
806,8.02,0.277,-999.25,105.58,0.357,-999.25,0.32,4.87,1.624,-999.25,85.35,
806.5,8.03,0.278,-999.25,101.04,0.367,-999.25,0.326,4.78,1.619,-999.25,85.63,
807,7.99,0.28,-999.25,103,0.386,-999.25,0.337,4.51,1.606,-999.25,85.63,
807.5,7.99,0.277,-999.25,87.05,0.359,-999.25,0.321,4.59,1.633,-999.25,85.63,
808,7.96,0.268,-999.25,98.4,0.339,-999.25,0.306,4.84,1.668,-999.25,85.86,
808.5,7.99,0.265,-999.25,94.11,0.347,-999.25,0.309,5.06,1.691,-999.25,85.96,
809,7.99,0.266,150,88.19,0.354,-999.25,0.313,5.11,1.698,-999.25,85.98,
809.5,8.02,0.274,150,103.5,0.358,-999.25,0.319,4.7,1.646,-999.25,85.63,
810,8.05,0.282,150,96.13,0.382,-999.25,0.336,4.45,1.61,-999.25,85.63,
810.5,8.02,0.288,150,90.84,0.406,-999.25,0.352,4.48,1.601,-999.25,85.43,
811,8.06,0.29,150,90.08,0.4,-999.25,0.349,4.52,1.616,-999.25,85.55,
811.5,8.01,0.288,150,95.37,0.416,-999.25,0.358,4.64,1.628,-999.25,85.23,
812,7.96,0.287,-999.25,95.37,0.419,-999.25,0.359,4.62,1.611,-999.25,85,
812.5,7.96,0.283,-999.25,94.55,0.382,-999.25,0.336,4.63,1.6,-999.25,85,
813,8,0.284,150,105.96,0.38,-999.25,0.335,4.67,1.607,-999.25,85,
813.5,7.97,0.285,150,90.46,0.393,-999.25,0.343,4.74,1.623,-999.25,84.96,
814,7.99,0.286,150,96.13,0.376,-999.25,0.334,4.84,1.645,-999.25,84.45,
814.5,7.96,0.282,150,94.62,0.349,-999.25,0.317,4.79,1.643,-999.25,84.6,
815,7.94,0.277,150,91.53,0.336,-999.25,0.308,4.85,1.662,-999.25,84.49,
815.5,7.93,0.276,150,106.71,0.335,-999.25,0.307,5.15,1.698,-999.25,84.53,
816,7.91,0.279,150,94.24,0.354,-999.25,0.319,4.81,1.662,-999.25,84.63,
816.5,7.91,0.28,150,94.62,0.348,-999.25,0.316,4.56,1.625,-999.25,84.61,
817,7.91,0.284,150,95.25,0.377,-999.25,0.334,4.55,1.639,-999.25,85,
817.5,7.91,0.287,150,102.18,0.381,-999.25,0.337,4.54,1.651,-999.25,85,
818,7.93,0.293,150,102.18,0.383,-999.25,0.341,4.45,1.637,-999.25,85,
818.5,7.93,0.297,150,97.45,0.396,-999.25,0.35,4.35,1.626,-999.25,85,
819,7.92,0.299,150,95.37,0.418,-999.25,0.363,4.27,1.619,-999.25,85,
819.5,7.93,0.295,8.25,89.58,0.402,-999.25,0.353,4.35,1.633,-999.25,85,
820,7.93,0.292,150,92.73,0.379,-999.25,0.338,4.39,1.643,-999.25,85.16,
820.5,7.91,0.291,150,94.99,0.321,-999.25,0.306,4.39,1.651,-999.25,85.63,
821,7.91,0.291,150,102.18,0.369,-999.25,0.332,4.43,1.66,-999.25,85.63,
821.5,7.89,0.289,150,102.56,0.389,-999.25,0.343,4.46,1.653,-999.25,85.77,
822,7.91,0.289,150,97.83,0.396,-999.25,0.347,4.54,1.642,-999.25,85.94,
822.5,7.92,0.288,150,93.86,0.423,-999.25,0.362,4.52,1.634,-999.25,85.78,
823,7.93,0.282,150,107.59,0.39,-999.25,0.34,4.58,1.638,-999.25,85.86,
823.5,7.93,0.274,150,105.96,0.331,-999.25,0.304,4.74,1.667,-999.25,85.81,
824,7.91,0.272,150,104.89,0.334,-999.25,0.305,5.28,1.725,-999.25,85.86,
824.5,7.89,0.281,150,102.55,0.331,-999.25,0.307,4.49,1.64,-999.25,85.74,
825,7.91,0.291,150,104.07,0.352,-999.25,0.323,3.98,1.526,-999.25,85.63,
825.5,7.92,0.297,150,97.51,0.417,-999.25,0.362,3.62,1.486,-999.25,85.74,
826,7.94,0.295,150,105.2,0.364,-999.25,0.331,4.18,1.595,-999.25,85.63,
826.5,7.95,0.289,150,105.2,0.395,-999.25,0.346,4.78,1.679,-999.25,85.63,
827,7.98,0.285,138.68,95.81,0.384,-999.25,0.338,5.05,1.719,-999.25,85.39,
827.5,7.96,0.282,138.17,111.25,0.363,-999.25,0.325,5.05,1.732,-999.25,85.47,
828,7.94,0.282,150,111.63,0.363,-999.25,0.325,5.01,1.741,-999.25,85.59,
828.5,7.96,0.282,150,109.04,0.349,-999.25,0.317,4.9,1.742,-999.25,85.48,
829,7.94,0.282,135.65,103.31,0.347,-999.25,0.316,4.85,1.747,-999.25,85.63,
829.5,7.99,0.282,150,92.6,0.368,-999.25,0.328,4.81,1.749,-999.25,85.66,
830,7.98,0.279,150,104.44,0.355,-999.25,0.319,4.72,1.741,-999.25,86.03,
830.5,7.96,0.276,135.52,105.2,0.365,-999.25,0.324,4.7,1.735,-999.25,86.25,
831,7.94,0.279,150,102.36,0.34,-999.25,0.311,4.72,1.73,-999.25,86.62,
831.5,7.94,0.286,136.03,110.11,0.328,-999.25,0.308,4.53,1.693,-999.25,86.87,
832,7.96,0.29,138.25,107.47,0.361,-999.25,0.327,4.32,1.645,-999.25,87.03,
832.5,7.98,0.29,150,119,0.375,-999.25,0.335,4.06,1.602,-999.25,87.03,
833,8,0.284,150,103.31,0.362,-999.25,0.325,4.32,1.63,-999.25,87.28,
833.5,7.96,0.28,150,98.77,0.349,-999.25,0.316,4.56,1.671,-999.25,87.42,
834,7.96,0.276,150,102.74,0.321,-999.25,0.299,4.71,1.696,-999.25,87.39,
834.5,7.97,0.279,136.37,114.46,0.396,-999.25,0.343,4.59,1.669,-999.25,87.5,
835,8.01,0.285,137.61,106.33,0.41,-999.25,0.353,4.43,1.636,-999.25,87.42,
835.5,8.04,0.288,137.39,91.59,0.394,-999.25,0.345,4.29,1.607,-999.25,87.5,
836,8.07,0.285,138.22,102.55,0.385,-999.25,0.339,4.2,1.593,-999.25,87.54,
836.5,8.06,0.284,138.62,103.31,0.381,-999.25,0.336,4.35,1.618,-999.25,87.77,
837,8.03,0.286,150,96.13,0.353,-999.25,0.321,4.51,1.641,-999.25,87.77,
837.5,8.01,0.286,150,85.17,0.35,-999.25,0.32,4.42,1.616,-999.25,88.12,
838,8.07,0.284,150,95.37,0.358,-999.25,0.323,4.36,1.606,-999.25,88.12,
838.5,7.98,0.282,140.32,99.78,0.405,-999.25,0.349,4.36,1.609,-999.25,88.12,
839,7.97,0.285,138.19,107.09,0.389,-999.25,0.341,4.32,1.603,-999.25,88.12,
839.5,8,0.288,138.69,94.99,0.37,-999.25,0.332,4.2,1.599,-999.25,88.59,
840,7.97,0.289,138.63,85.54,0.372,-999.25,0.333,4.22,1.593,-999.25,88.64,
840.5,7.95,0.286,138.03,93.86,0.405,-999.25,0.351,3.99,1.592,-999.25,88.32,
841,7.99,0.282,140.82,103.31,0.398,-999.25,0.345,3.69,1.516,-999.25,88.12,
841.5,7.97,0.286,140.54,95.37,0.415,-999.25,0.356,3.27,1.442,-999.25,87.65,
842,8.32,0.287,143.12,100.66,0.382,-999.25,0.338,3.66,1.515,-999.25,86.76,
842.5,8.03,0.285,150,93.29,0.367,-999.25,0.329,4.36,1.615,-999.25,86.17,
843,7.95,0.278,150,94.62,0.376,-999.25,0.331,5.13,1.741,-999.25,85.63,
843.5,7.94,0.275,150,83.28,0.354,-999.25,0.317,5.1,1.713,-999.25,85.22,
844,7.93,0.277,150,93.48,0.397,-999.25,0.342,4.95,1.692,-999.25,85.04,
844.5,7.93,0.277,150,88.38,0.421,-999.25,0.356,4.91,1.696,-999.25,84.92,
845,7.91,0.279,150,102.18,0.375,-999.25,0.331,4.93,1.713,-999.25,84.41,
845.5,7.96,0.274,137.09,94.24,0.338,-999.25,0.308,5.1,1.745,-999.25,84.89,
846,7.95,0.269,150,98.52,0.34,-999.25,0.307,5.29,1.78,-999.25,85,
846.5,7.91,0.263,150,92.35,0.351,-999.25,0.31,5.45,1.792,-999.25,85.27,
847,7.94,0.266,150,97.64,0.321,-999.25,0.295,5.22,1.761,-999.25,85.16,
847.5,7.93,0.27,150,90.08,0.343,-999.25,0.309,5.05,1.749,-999.25,85.63,
848,7.91,0.274,150,101.8,0.36,-999.25,0.32,5.09,1.766,-999.25,85.63,
848.5,7.91,0.27,150,96.88,0.351,-999.25,0.313,5.19,1.785,-999.25,85.63,
849,7.91,0.268,150,92.29,0.378,-999.25,0.328,5.09,1.77,-999.25,85.66,
849.5,7.94,0.266,150,90.46,0.352,-999.25,0.312,4.82,1.722,-999.25,85.74,
850,7.92,0.267,150,100.66,0.374,-999.25,0.325,4.82,1.721,-999.25,85.77,
850.5,7.94,0.269,150,91.97,0.357,-999.25,0.316,5.03,1.757,-999.25,86.17,
851,7.94,0.271,150,85.92,0.351,-999.25,0.314,5.26,1.793,-999.25,86.25,
851.5,7.91,0.273,150,88.19,0.346,-999.25,0.312,5.16,1.78,-999.25,86.64,
852,7.95,0.271,150,87.05,0.363,-999.25,0.32,5.05,1.765,-999.25,86.72,
852.5,7.93,0.269,150,100.66,0.36,-999.25,0.318,5,1.757,-999.25,86.87,
853,7.91,0.267,150,90.58,0.358,-999.25,0.316,4.9,1.746,-999.25,86.87,
853.5,7.92,0.268,150,102.18,0.344,-999.25,0.308,4.8,1.737,-999.25,86.87,
854,7.91,0.271,150,83.65,0.368,-999.25,0.323,4.66,1.714,-999.25,86.87,
854.5,7.94,0.276,150,96.63,0.374,-999.25,0.329,4.53,1.685,-999.25,86.87,
855,7.94,0.276,150,96.13,0.363,-999.25,0.322,4.47,1.675,-999.25,86.98,
855.5,7.93,0.274,150,91.97,0.345,-999.25,0.312,4.53,1.674,-999.25,87.5,
856,7.94,0.276,150,92.35,0.356,-999.25,0.319,4.51,1.67,-999.25,87.5,
856.5,7.96,0.278,150,90.08,0.346,-999.25,0.314,4.5,1.664,-999.25,87.76,
857,7.97,0.281,150,93.86,0.36,-999.25,0.323,4.47,1.65,-999.25,88.09,
857.5,7.95,0.278,150,108.29,0.402,-999.25,0.346,4.45,1.633,-999.25,88.12,
858,7.97,0.279,150,103.31,0.379,-999.25,0.333,4.42,1.624,-999.25,88.12,
858.5,7.98,0.28,150,105.01,0.348,-999.25,0.316,4.35,1.615,-999.25,88.35,
859,7.96,0.284,-999.25,98.77,0.372,-999.25,0.331,4.26,1.602,-999.25,88.56,
859.5,7.97,0.285,-999.25,90.21,0.398,-999.25,0.346,4.22,1.588,-999.25,88.75,
860,7.98,0.287,-999.25,105.96,0.364,-999.25,0.328,4.21,1.581,-999.25,89.1,
860.5,8.01,0.289,-999.25,112.01,0.416,-999.25,0.358,4.19,1.572,-999.25,89.37,
861,8,0.294,-999.25,105.58,0.428,-999.25,0.367,4.15,1.566,-999.25,89.37,
861.5,8.01,0.293,-999.25,87.43,0.433,-999.25,0.37,4.13,1.563,-999.25,89.73,
862,7.97,0.292,-999.25,103.63,0.387,-999.25,0.343,4.19,1.573,-999.25,89.93,
862.5,7.99,0.288,-999.25,99.91,0.343,-999.25,0.317,4.1,1.554,-999.25,90.23,
863,7.99,0.293,-999.25,99.47,0.355,-999.25,0.325,3.97,1.532,-999.25,90.59,
863.5,8.01,0.293,-999.25,96.88,0.369,-999.25,0.333,3.76,1.496,-999.25,90.63,
864,8.01,0.299,-999.25,94.74,0.376,-999.25,0.34,3.52,1.436,-999.25,90.63,
864.5,7.98,0.299,-999.25,99.15,0.38,-999.25,0.342,3.74,1.482,-999.25,90.63,
865,7.99,0.303,-999.25,104.82,0.404,-999.25,0.357,4.09,1.569,-999.25,90.55,
865.5,7.95,0.303,-999.25,105.77,0.386,-999.25,0.347,4.17,1.575,-999.25,90.63,
866,7.99,0.305,-999.25,99.15,0.402,-999.25,0.357,4.13,1.561,-999.25,90.63,
866.5,7.98,0.307,-999.25,100.92,0.42,-999.25,0.368,4.13,1.559,-999.25,90.63,
867,8,0.309,-999.25,108.6,0.426,-999.25,0.372,4.13,1.561,-999.25,90.63,
867.5,8,0.309,-999.25,95.88,0.4,-999.25,0.357,4.07,1.563,-999.25,90.66,
868,7.97,0.31,-999.25,121.45,0.389,-999.25,0.352,4.01,1.565,-999.25,90.81,
868.5,7.97,0.311,-999.25,118.05,0.411,-999.25,0.364,3.98,1.56,-999.25,91.17,
869,7.97,0.311,-999.25,111.5,0.406,-999.25,0.362,3.94,1.551,-999.25,91.25,
869.5,7.97,0.31,-999.25,104.38,0.414,-999.25,0.366,3.84,1.527,-999.25,91.36,
870,7.97,0.31,-999.25,112.76,0.405,-999.25,0.361,3.78,1.512,-999.25,91.52,
870.5,7.99,0.307,-999.25,106.33,0.407,-999.25,0.36,3.85,1.525,-999.25,91.88,
871,7.97,0.302,-999.25,106.02,0.397,-999.25,0.353,3.89,1.536,-999.25,91.88,
871.5,7.96,0.299,-999.25,108.48,0.407,-999.25,0.357,3.88,1.534,-999.25,92.15,
872,7.97,0.297,-999.25,110.49,0.479,-999.25,0.399,3.85,1.524,-999.25,92.21,
872.5,7.96,0.298,150,93.99,0.401,-999.25,0.353,3.82,1.519,-999.25,91.91,
873,7.99,0.297,148.59,111.56,0.377,-999.25,0.339,3.89,1.532,-999.25,92.03,
873.5,8.05,0.295,150,108.79,0.383,-999.25,0.342,4.04,1.546,-999.25,91.99,
874,8.06,0.297,144.83,117.55,0.372,-999.25,0.337,3.98,1.536,-999.25,92.23,
874.5,8.05,0.3,142.46,106.84,0.382,-999.25,0.343,3.82,1.513,-999.25,92.3,
875,8.02,0.304,143.66,116.54,0.413,-999.25,0.363,3.78,1.509,-999.25,92.5,
875.5,7.95,0.305,148.08,102.05,0.342,-999.25,0.324,3.81,1.511,-999.25,92.5,
876,7.98,0.303,147.37,96.69,0.401,-999.25,0.355,3.74,1.493,-999.25,92.43,
876.5,8.01,0.303,147.63,108.92,0.392,-999.25,0.35,3.64,1.474,-999.25,92.5,
877,8,0.303,146.18,104.82,0.387,-999.25,0.348,3.53,1.466,-999.25,92.5,
877.5,7.99,0.301,146.14,98.96,0.384,-999.25,0.345,3.52,1.467,-999.25,92.76,
878,7.98,0.299,146.19,106.71,0.382,-999.25,0.343,3.54,1.479,-999.25,92.93,
878.5,8.01,0.294,145.58,92.92,0.429,-999.25,0.368,3.63,1.502,-999.25,92.5,
879,7.94,0.29,144.24,90.46,0.372,-999.25,0.334,3.71,1.524,-999.25,92.5,
879.5,7.94,0.286,145.59,93.86,0.34,-999.25,0.314,3.78,1.533,-999.25,92.5,
880,7.94,0.282,146.58,94.36,0.367,-999.25,0.327,3.87,1.551,-999.25,92.5,
880.5,7.93,0.281,150,96.88,0.395,-999.25,0.343,3.95,1.572,-999.25,92.5,
881,7.94,0.277,146.35,91.28,0.365,-999.25,0.324,3.87,1.555,-999.25,92.57,
881.5,7.92,0.274,150,94.55,0.396,-999.25,0.341,3.78,1.543,-999.25,92.54,
882,7.93,0.276,142.93,90.52,0.392,-999.25,0.339,3.81,1.552,-999.25,92.58,
882.5,7.91,0.274,141.88,82.27,0.389,-999.25,0.336,3.86,1.564,-999.25,92.61,
883,7.91,0.277,150,89.45,0.413,-999.25,0.352,3.9,1.57,-999.25,92.66,
883.5,7.91,0.275,150,106.46,0.407,-999.25,0.347,3.91,1.573,-999.25,92.76,
884,7.92,0.276,141.07,102.11,0.375,-999.25,0.329,3.93,1.578,-999.25,92.58,
884.5,7.94,0.275,140.63,88.95,0.392,-999.25,0.339,3.92,1.578,-999.25,93.09,
885,7.93,0.277,140.74,95.5,0.371,-999.25,0.327,3.89,1.571,-999.25,93.13,
885.5,7.92,0.281,150,90.14,0.382,-999.25,0.335,3.84,1.562,-999.25,93.13,
886,7.91,0.281,150,96.07,0.391,-999.25,0.34,3.82,1.562,-999.25,93.24,
886.5,7.93,0.28,150,97.64,0.409,-999.25,0.35,3.86,1.57,-999.25,93.24,
887,7.94,0.276,150,90.02,0.412,-999.25,0.351,3.91,1.574,-999.25,93.13,
887.5,7.92,0.275,150,96.07,0.347,-999.25,0.313,3.95,1.58,-999.25,93.13,
888,7.93,0.271,150,91.78,0.381,-999.25,0.331,3.92,1.572,-999.25,92.93,
888.5,7.93,0.273,150,89.95,0.337,-999.25,0.307,3.89,1.565,-999.25,92.9,
889,7.93,0.275,139.77,88.25,0.369,-999.25,0.325,3.9,1.568,-999.25,92.73,
889.5,7.94,0.279,150,87.75,0.355,-999.25,0.319,3.93,1.575,-999.25,92.72,
890,7.95,0.28,136.29,104.57,0.332,-999.25,0.307,3.97,1.578,-999.25,92.69,
890.5,8.01,0.277,150,88.25,0.365,-999.25,0.324,4.05,1.586,-999.25,92.66,
891,8,0.271,150,85.73,0.372,-999.25,0.325,4.16,1.598,-999.25,92.68,
891.5,7.96,0.266,137.48,84.41,0.384,-999.25,0.33,4.2,1.605,-999.25,92.73,
892,7.99,0.264,135.2,94.3,0.399,-999.25,0.338,4.19,1.603,-999.25,92.73,
892.5,7.96,0.265,132.83,92.85,0.38,-999.25,0.328,4.13,1.587,-999.25,92.94,
893,7.99,0.269,130.97,91.34,0.364,-999.25,0.32,4.05,1.573,-999.25,92.97,
893.5,8.01,0.269,131.17,97.7,0.368,-999.25,0.322,4.03,1.567,-999.25,93.13,
894,8.01,0.271,131.16,97.96,0.392,-999.25,0.337,4,1.559,-999.25,93.13,
894.5,8.03,0.272,129.96,97.83,0.333,-999.25,0.304,3.97,1.553,-999.25,93.13,
895,8.01,0.276,131.23,100.66,0.348,-999.25,0.314,3.93,1.548,-999.25,93.13,
895.5,8,0.278,131.66,90.52,0.351,-999.25,0.317,3.89,1.544,-999.25,93.13,
896,8.01,0.282,131.76,98.9,0.341,-999.25,0.313,3.93,1.546,-999.25,93.13,
896.5,8.02,0.281,131.53,91.59,0.368,-999.25,0.327,3.99,1.549,-999.25,93.13,
897,8.02,0.284,129.66,92.16,0.383,-999.25,0.337,4.02,1.555,-999.25,93.13,
897.5,8.06,0.282,129.48,88.63,0.388,-999.25,0.339,4.03,1.563,-999.25,93.13,
898,8.04,0.283,129.01,94.93,0.349,-999.25,0.318,4.04,1.565,-999.25,93.13,
898.5,8.03,0.279,129.87,94.74,0.37,-999.25,0.328,4.04,1.56,-999.25,93.13,
899,8.06,0.274,130.24,94.49,0.395,-999.25,0.34,3.99,1.55,-999.25,93.13,
899.5,8.07,0.272,130.23,85.67,0.37,-999.25,0.325,3.99,1.55,-999.25,93.13,
900,8.04,0.27,130.03,102.55,0.354,-999.25,0.315,3.99,1.553,-999.25,93.13,
900.5,8.03,0.272,129.92,93.23,0.364,-999.25,0.321,3.95,1.54,-999.25,93.02,
901,8.06,0.273,129.85,89.45,0.381,-999.25,0.331,3.92,1.535,-999.25,93.01,
901.5,8.06,0.278,130.41,87.88,0.396,-999.25,0.342,3.92,1.534,-999.25,93.01,
902,8.03,0.275,131.38,91.21,0.377,-999.25,0.33,3.88,1.531,-999.25,92.72,
902.5,8.03,0.276,132.14,97.64,0.376,-999.25,0.33,3.86,1.529,-999.25,92.97,
903,8.03,0.279,130.65,98.08,0.347,-999.25,0.315,3.85,1.529,-999.25,92.76,
903.5,8.02,0.281,131.18,105.58,0.375,-999.25,0.331,3.86,1.53,-999.25,92.89,
904,8.01,0.275,130.76,91.4,0.383,-999.25,0.333,3.87,1.533,-999.25,92.54,
904.5,8.02,0.269,131.06,91.4,0.416,-999.25,0.35,3.92,1.539,-999.25,92.5,
905,8.05,0.269,131.25,98.96,0.388,-999.25,0.334,3.88,1.522,-999.25,92.72,
905.5,8.05,0.273,130.95,104.44,0.379,-999.25,0.33,3.83,1.509,-999.25,92.62,
906,8.03,0.272,132.39,87.75,0.391,-999.25,0.337,3.8,1.503,-999.25,92.61,
906.5,8.01,0.274,132.43,91.59,0.398,-999.25,0.342,3.77,1.498,-999.25,92.85,
907,8.01,0.276,132.68,87.06,0.422,-999.25,0.357,3.77,1.481,-999.25,92.81,
907.5,8.01,0.283,133.21,107.09,0.422,-999.25,0.359,3.72,1.46,-999.25,93.09,
908,8.09,0.283,132.82,101.48,0.407,-999.25,0.351,3.69,1.434,-999.25,92.97,
908.5,8.09,0.286,133.04,100.35,0.402,-999.25,0.349,3.7,1.426,-999.25,92.97,
909,8.07,0.286,133.28,102.93,0.421,-999.25,0.36,3.65,1.434,-999.25,93.13,
909.5,8.05,0.288,133.87,101.29,0.408,-999.25,0.353,3.73,1.435,-999.25,93.13,
910,8.11,0.284,133.86,105.7,0.398,-999.25,0.346,3.66,1.398,-999.25,93.13,
910.5,8.23,0.28,133.68,90.46,0.407,-999.25,0.349,3.6,1.382,-999.25,93.27,
911,8.26,0.277,134.4,98.65,0.41,-999.25,0.35,3.59,1.375,-999.25,93.16,
911.5,8.28,0.279,134.08,102.36,0.385,-999.25,0.336,3.57,1.37,-999.25,93.13,
912,8.27,0.285,134.94,98.02,0.37,-999.25,0.33,3.57,1.365,-999.25,93.32,
912.5,8.23,0.289,134.48,103.94,0.39,-999.25,0.343,3.58,1.36,-999.25,93.63,
913,8.26,0.291,134.93,90.39,0.381,-999.25,0.339,3.58,1.352,-999.25,93.71,
913.5,8.26,0.292,135.01,90.84,0.377,-999.25,0.337,3.57,1.349,-999.25,93.67,
914,8.26,0.296,134.84,97.14,0.419,-999.25,0.363,3.56,1.349,-999.25,93.68,
914.5,8.23,0.298,134.87,95.75,0.436,-999.25,0.373,3.49,1.339,-999.25,93.63,
915,8.28,0.298,134.66,97.83,0.402,-999.25,0.354,3.44,1.331,-999.25,93.75,
915.5,8.26,0.293,134.79,82.27,0.393,-999.25,0.347,3.42,1.328,-999.25,94.08,
916,8.24,0.288,134.71,89.7,0.432,-999.25,0.367,3.36,1.32,-999.25,94.26,
916.5,8.24,0.284,134.13,94.68,0.452,-999.25,0.377,3.3,1.304,-999.25,94.37,
917,8.23,0.285,134.57,97.26,0.406,-999.25,0.351,3.19,1.289,-999.25,94.48,
917.5,8.26,0.286,134.4,102.18,0.38,-999.25,0.336,3.19,1.287,-999.25,94.69,
918,8.22,0.285,134.65,87.81,0.409,-999.25,0.352,3.3,1.307,-999.25,94.6,
918.5,8.22,0.286,133.8,88.5,0.383,-999.25,0.338,3.35,1.319,-999.25,94.41,
919,8.23,0.287,133.54,83.15,0.372,-999.25,0.332,3.35,1.317,-999.25,94.41,
919.5,8.22,0.287,133.45,89.7,0.381,-999.25,0.337,3.36,1.316,-999.25,94.48,
920,8.2,0.284,133.87,95.62,0.395,-999.25,0.344,3.34,1.316,-999.25,94.77,
920.5,8.22,0.282,133.74,90.14,0.385,-999.25,0.337,3.28,1.303,-999.25,94.93,
921,8.26,0.283,133.49,103.69,0.414,-999.25,0.355,3.21,1.297,-999.25,94.92,
921.5,8.23,0.284,134.02,112.51,0.383,-999.25,0.337,3.22,1.291,-999.25,95,
922,8.24,0.285,134.28,102.55,0.437,-999.25,0.369,3.14,1.285,-999.25,94.82,
922.5,8.23,0.28,134.74,108.73,0.405,-999.25,0.348,3.03,1.27,-999.25,94.53,
923,8.23,0.276,134.18,95.62,0.401,-999.25,0.344,3.03,1.276,-999.25,94.37,
923.5,8.22,0.274,133.38,109.36,0.402,-999.25,0.344,3.24,1.317,-999.25,93.83,
924,8.22,0.275,132.72,111.18,0.385,-999.25,0.335,3.5,1.366,-999.25,93.75,
924.5,8.26,0.278,131.89,85.54,0.352,-999.25,0.317,3.7,1.403,-999.25,93.75,
925,8.23,0.282,131.13,107.85,0.351,-999.25,0.318,3.73,1.421,-999.25,93.48,
925.5,8.24,0.284,130.76,88.32,0.376,-999.25,0.333,3.73,1.424,-999.25,93.31,
926,8.27,0.282,130.17,93.1,0.358,-999.25,0.322,3.73,1.424,-999.25,93.16,
926.5,8.25,0.277,130.11,96.51,0.354,-999.25,0.318,3.74,1.428,-999.25,93.13,
927,8.24,0.273,129.8,93.61,0.359,-999.25,0.319,3.75,1.43,-999.25,93.13,
927.5,8.23,0.272,129.26,87.94,0.381,-999.25,0.331,3.84,1.454,-999.25,92.83,
928,8.21,0.271,128.69,91.21,0.391,-999.25,0.336,3.96,1.478,-999.25,92.58,
928.5,8.23,0.269,127.97,91.91,0.405,-999.25,0.344,4,1.484,-999.25,92.5,
929,8.23,0.266,128.09,92.73,0.371,-999.25,0.323,3.96,1.483,-999.25,92.5,
929.5,8.23,0.264,128.12,103.5,0.398,-999.25,0.338,3.93,1.482,-999.25,92.46,
930,8.27,0.264,128.29,86.43,0.403,-999.25,0.341,4,1.489,-999.25,92.24,
930.5,8.23,0.269,127.99,88.57,0.366,-999.25,0.321,4.07,1.501,-999.25,92.3,
931,8.27,0.272,127.39,96.13,0.355,-999.25,0.316,4.14,1.511,-999.25,92.35,
931.5,8.26,0.272,126.54,91.97,0.385,-999.25,0.333,4.25,1.528,-999.25,92.38,
932,8.29,0.266,125.86,87.81,0.408,-999.25,0.344,4.38,1.542,-999.25,92.35,
932.5,8.26,0.263,125.67,85.04,0.366,-999.25,0.319,4.43,1.551,-999.25,92.5,
933,8.24,0.261,125.97,93.99,0.368,-999.25,0.319,4.42,1.545,-999.25,92.5,
933.5,8.22,0.261,126.58,93.1,0.415,-999.25,0.347,4.27,1.525,-999.25,92.5,
934,8.23,0.265,127.29,102.74,0.368,-999.25,0.321,4.15,1.512,-999.25,92.5,
934.5,8.23,0.267,127.56,89.64,0.347,-999.25,0.31,4.17,1.512,-999.25,92.5,
935,8.25,0.27,127.06,100.29,0.382,-999.25,0.331,4.13,1.51,-999.25,92.42,
935.5,8.23,0.267,126.79,87.5,0.382,-999.25,0.33,4.12,1.51,-999.25,92.46,
936,8.23,0.263,126.81,89.7,0.39,-999.25,0.333,4.04,1.503,-999.25,92.23,
936.5,8.26,0.26,126.92,96.51,0.4,-999.25,0.337,3.93,1.482,-999.25,92.3,
937,8.27,0.261,127.18,84.03,0.425,-999.25,0.353,3.89,1.477,-999.25,91.99,
937.5,8.25,0.264,127.02,111.5,0.387,-999.25,0.331,4.02,1.498,-999.25,91.68,
938,8.26,0.266,126.64,98.4,0.378,-999.25,0.327,4.23,1.53,-999.25,91.29,
938.5,8.27,0.266,125.79,78.55,0.42,-999.25,0.352,4.42,1.561,-999.25,91.25,
939,8.22,0.268,125.26,92.35,0.367,-999.25,0.321,4.54,1.585,-999.25,91.18,
939.5,8.25,0.271,124.96,91.47,0.345,-999.25,0.31,4.58,1.579,-999.25,90.82,
940,8.28,0.272,124.45,96.88,0.349,-999.25,0.313,4.57,1.579,-999.25,90.7,
940.5,8.26,0.269,124.83,95.56,0.349,-999.25,0.312,4.57,1.583,-999.25,90.82,
941,8.27,0.266,124.99,87.81,0.38,-999.25,0.328,4.52,1.577,-999.25,90.88,
941.5,8.25,0.263,124.92,90.33,0.387,-999.25,0.331,4.47,1.57,-999.25,90.82,
942,8.29,0.26,124.46,99.53,0.366,-999.25,0.317,4.55,1.58,-999.25,90.66,
942.5,8.29,0.261,123.94,103.31,0.374,-999.25,0.322,4.65,1.592,-999.25,90.63,
943,8.27,0.263,123.58,99.15,0.377,-999.25,0.325,4.68,1.602,-999.25,90.63,
943.5,8.28,0.267,122.98,99.03,0.343,-999.25,0.307,4.72,1.604,-999.25,90.77,
944,8.27,0.269,123.02,93.86,0.38,-999.25,0.329,4.74,1.606,-999.25,90.63,
944.5,8.26,0.265,123.08,93.86,0.386,-999.25,0.331,4.72,1.603,-999.25,90.63,
945,8.25,0.26,123,102.56,0.404,-999.25,0.34,4.68,1.596,-999.25,90.63,
945.5,8.25,0.258,123.69,90.84,0.355,-999.25,0.31,4.61,1.589,-999.25,90.63,
946,8.25,0.26,123.95,91.09,0.38,-999.25,0.326,4.55,1.581,-999.25,90.7,
946.5,8.19,0.261,123.82,86.68,0.373,-999.25,0.322,4.54,1.579,-999.25,91.07,
947,8.21,0.261,123.91,85.54,0.465,-999.25,0.377,4.53,1.573,-999.25,91.25,
947.5,8.26,0.264,124.01,79.94,0.348,-999.25,0.309,4.52,1.565,-999.25,91.25,
948,8.27,0.269,124.07,100.35,0.361,-999.25,0.318,4.51,1.557,-999.25,91.54,
948.5,8.29,0.271,124.15,89.7,0.384,-999.25,0.332,4.49,1.55,-999.25,91.54,
949,8.26,0.27,124.25,89.64,0.38,-999.25,0.33,4.46,1.545,-999.25,91.62,
949.5,8.27,0.267,124.19,87.81,0.38,-999.25,0.328,4.47,1.539,-999.25,91.62,
950,8.24,0.272,123.94,87.31,0.37,-999.25,0.325,4.45,1.541,-999.25,91.69,
950.5,8.27,0.277,125.77,91.59,0.355,-999.25,0.318,4.62,1.545,-999.25,91.69,
951,8.27,0.283,126.05,92.1,0.377,-999.25,0.333,4.38,1.493,-999.25,91.62,
951.5,8.27,0.279,125.87,92.35,0.389,-999.25,0.338,4.18,1.484,-999.25,91.62,
952,8.25,0.275,126.34,87.56,0.37,-999.25,0.326,4.47,1.552,-999.25,91.4,
952.5,8.29,0.267,125.48,91.59,0.393,-999.25,0.336,4.57,1.548,-999.25,91.84,
953,8.3,0.262,125.79,98.65,0.369,-999.25,0.32,4.49,1.525,-999.25,91.69,
953.5,8.26,0.26,126.85,86.3,0.37,-999.25,0.32,4.45,1.524,-999.25,91.8,
954,8.25,0.263,127.43,92.29,0.405,-999.25,0.341,4.38,1.521,-999.25,91.88,
954.5,8.25,0.269,127.71,85.54,0.385,-999.25,0.332,4.29,1.515,-999.25,91.88,
955,8.22,0.274,128.17,97.51,0.392,-999.25,0.338,4.22,1.516,-999.25,91.88,
955.5,8.22,0.274,128.33,95.75,0.374,-999.25,0.328,4.16,1.512,-999.25,91.88,
956,8.23,0.27,128.66,89.26,0.365,-999.25,0.321,4.13,1.507,-999.25,91.88,
956.5,8.27,0.272,129.04,81.76,0.359,-999.25,0.318,4.14,1.504,-999.25,91.88,
957,8.26,0.277,129.35,94.62,0.384,-999.25,0.335,4.15,1.501,-999.25,91.88,
957.5,8.29,0.282,129.45,96.57,0.395,-999.25,0.343,4.14,1.494,-999.25,91.88,
958,8.3,0.282,129.52,89.64,0.374,-999.25,0.331,4.14,1.49,-999.25,92.03,
958.5,8.32,0.278,129.94,93.48,0.373,-999.25,0.329,4.16,1.486,-999.25,92.13,
959,8.31,0.276,129.75,99.53,0.391,-999.25,0.338,4.17,1.48,-999.25,92.06,
959.5,8.3,0.276,129.95,99.91,0.343,-999.25,0.311,4.15,1.477,-999.25,92.26,
960,8.32,0.279,130.23,99.91,0.356,-999.25,0.32,4.12,1.466,-999.25,92.5,
960.5,8.37,0.281,130.19,95.37,0.416,-999.25,0.355,4.05,1.451,-999.25,92.5,
961,8.35,0.283,130.68,85.54,0.388,-999.25,0.34,3.98,1.438,-999.25,92.54,
961.5,8.37,0.282,130.92,85.98,0.419,-999.25,0.357,3.93,1.436,-999.25,92.65,
962,8.36,0.281,130.97,86.68,0.438,-999.25,0.368,3.92,1.43,-999.25,92.76,
962.5,8.38,0.279,131.04,86.99,0.387,-999.25,0.337,3.92,1.425,-999.25,93.13,
963,8.38,0.281,130.61,96.51,0.383,-999.25,0.336,3.95,1.429,-999.25,93.13,
963.5,8.38,0.283,130.02,91.72,0.403,-999.25,0.348,4.06,1.438,-999.25,93.13,
964,8.37,0.283,129.6,89.32,0.361,-999.25,0.324,4.13,1.448,-999.25,93.57,
964.5,8.35,0.28,128.82,97.45,0.394,-999.25,0.342,4.07,1.437,-999.25,93.68,
965,8.36,0.28,128.98,95.37,0.348,-999.25,0.316,3.97,1.425,-999.25,93.9,
965.5,8.38,0.28,129.84,96.51,0.318,-999.25,0.3,3.89,1.409,-999.25,94.37,
966,8.38,0.279,130.18,95.75,0.344,-999.25,0.313,3.76,1.385,-999.25,94.63,
966.5,8.4,0.276,130.73,95.88,0.402,-999.25,0.345,3.62,1.365,-999.25,95,
967,8.4,0.277,130.92,96.1,0.404,-999.25,0.346,3.57,1.357,-999.25,95.48,
967.5,8.39,0.28,130.86,90.46,0.393,-999.25,0.341,3.48,1.34,-999.25,95.62,
968,8.4,0.283,130.97,82.96,0.355,-999.25,0.321,3.42,1.32,-999.25,95.86,
968.5,8.32,0.283,131.15,93.48,0.394,-999.25,0.343,3.38,1.312,-999.25,96.03,
969,8.36,0.284,131.02,90.46,0.409,-999.25,0.352,3.32,1.301,-999.25,96.25,
969.5,8.34,0.285,131.14,88.95,0.382,-999.25,0.337,3.3,1.287,-999.25,96.32,
970,8.34,0.282,131.07,89.58,0.413,-999.25,0.354,3.16,1.27,-999.25,96.8,
970.5,8.31,0.277,130.54,91.97,0.402,-999.25,0.345,3.16,1.281,-999.25,96.84,
971,8.29,0.275,130.01,99.91,0.398,-999.25,0.342,3.24,1.299,-999.25,96.62,
971.5,8.35,0.286,130.4,85.73,0.383,-999.25,0.338,3.23,1.291,-999.25,96.47,
972,8.35,0.292,130.89,88.95,0.394,-999.25,0.347,2.96,1.244,-999.25,96.4,
972.5,8.34,0.298,130.74,94.68,0.388,-999.25,0.346,2.92,1.234,-999.25,95.85,
973,8.36,0.288,131.19,100.29,0.383,-999.25,0.339,3.28,1.314,-999.25,95.55,
973.5,8.36,0.283,130.41,80.31,0.368,-999.25,0.328,3.63,1.367,-999.25,95,
974,8.38,0.274,129.12,83.65,0.385,-999.25,0.334,3.74,1.377,-999.25,95,
974.5,8.4,0.275,129.01,95.75,0.367,-999.25,0.324,3.87,1.398,-999.25,94.45,
975,8.36,0.275,128.51,93.48,0.357,-999.25,0.319,4,1.423,-999.25,94.37,
975.5,8.34,0.277,128.15,90.58,0.342,-999.25,0.311,3.97,1.425,-999.25,94.37,
976,8.36,0.278,128.37,89.7,0.332,-999.25,0.306,3.9,1.424,-999.25,94.37,
976.5,8.36,0.282,128.89,87.81,0.327,-999.25,0.305,3.85,1.424,-999.25,94.37,
977,8.36,0.279,129.17,85.73,0.384,-999.25,0.336,3.85,1.42,-999.25,94.6,
977.5,8.37,0.277,129.42,98.02,0.39,-999.25,0.338,3.78,1.411,-999.25,95,
978,8.36,0.276,129.75,91.97,0.389,-999.25,0.337,3.73,1.406,-999.25,95,
978.5,8.36,0.277,129.65,97.26,0.36,-999.25,0.321,3.68,1.401,-999.25,95.04,
979,8.34,0.277,129.9,91.97,0.374,-999.25,0.329,3.63,1.391,-999.25,95.15,
979.5,8.35,0.275,130.14,86.93,0.37,-999.25,0.326,3.61,1.38,-999.25,95,
980,8.15,0.27,129.78,87.43,0.389,-999.25,0.335,3.6,1.384,-999.25,95.11,
980.5,8.2,0.268,129.4,85.54,0.38,-999.25,0.329,3.69,1.4,-999.25,94.93,
981,8.33,0.266,128.73,86.3,0.472,-999.25,0.383,3.77,1.414,-999.25,94.77,
981.5,8.36,0.268,128.08,85.54,0.393,-999.25,0.336,3.77,1.421,-999.25,94.89,
982,8.4,0.268,127.76,90.71,0.392,-999.25,0.336,3.75,1.413,-999.25,94.96,
982.5,8.38,0.266,127.71,88.57,0.365,-999.25,0.319,3.74,1.407,-999.25,94.96,
983,8.44,0.264,127.68,91.78,0.466,-999.25,0.379,3.77,1.407,-999.25,95,
983.5,8.43,0.263,127.37,77.61,0.459,-999.25,0.374,3.81,1.413,-999.25,95,
984,8.44,0.26,127.12,77.23,0.441,-999.25,0.362,3.82,1.411,-999.25,95,
984.5,8.44,0.262,126.87,85.17,0.446,-999.25,0.366,3.77,1.401,-999.25,95.18,
985,8.46,0.267,126.52,93.42,0.37,-999.25,0.323,3.77,1.388,-999.25,95.35,
985.5,8.49,0.274,126.69,83.28,0.357,-999.25,0.318,3.78,1.381,-999.25,95.44,
986,8.48,0.275,126.87,84.03,0.358,-999.25,0.319,3.78,1.374,-999.25,95.62,
986.5,8.48,0.27,126.76,95.37,0.368,-999.25,0.323,3.76,1.365,-999.25,95.62,
987,8.47,0.266,127.1,88.57,0.357,-999.25,0.315,3.67,1.353,-999.25,95.92,
987.5,8.47,0.266,127.31,96.95,0.366,-999.25,0.32,3.56,1.341,-999.25,96.25,
988,8.49,0.27,127.49,78.74,0.369,-999.25,0.323,3.52,1.324,-999.25,96.25,
988.5,8.48,0.274,128.01,93.86,0.36,-999.25,0.32,3.3,1.305,-999.25,96.25,
989,8.49,0.283,130.22,86.68,0.396,-999.25,0.344,3.18,1.256,-999.25,96.25,
989.5,8.49,0.29,132.34,93.1,0.425,-999.25,0.364,2.72,1.188,-999.25,96.07,
990,8.48,0.291,132.21,91.34,0.445,-999.25,0.376,2.7,1.195,-999.25,95.62,
990.5,8.46,0.285,132.04,87.81,0.512,-999.25,0.414,3.14,1.287,-999.25,95.04,
991,8.47,0.278,129.25,77.92,0.386,-999.25,0.336,3.61,1.36,-999.25,95,
991.5,8.48,0.272,127.31,91.97,0.413,-999.25,0.35,3.76,1.382,-999.25,95,
992,8.49,0.271,127.32,87.06,0.364,-999.25,0.321,3.79,1.384,-999.25,95,
992.5,8.48,0.27,127.27,82.14,0.383,-999.25,0.331,3.78,1.386,-999.25,95,
993,8.52,0.273,127.39,89.32,0.439,-999.25,0.366,3.76,1.384,-999.25,94.93,
993.5,8.52,0.275,127.75,81.32,0.371,-999.25,0.327,3.78,1.388,-999.25,94.53,
994,8.48,0.275,127.84,89.7,0.448,-999.25,0.372,3.78,1.389,-999.25,94.67,
994.5,8.53,0.272,127.73,87.06,0.355,-999.25,0.316,3.79,1.388,-999.25,94.67,
995,8.52,0.269,127.64,90.08,0.365,-999.25,0.321,3.81,1.388,-999.25,94.48,
995.5,8.52,0.267,127.07,82.39,0.448,-999.25,0.369,3.83,1.39,-999.25,94.37,
996,8.5,0.265,126.98,82.14,0.441,-999.25,0.364,3.85,1.394,-999.25,94.48,
996.5,8.5,0.265,126.86,89.32,0.479,-999.25,0.387,3.86,1.394,-999.25,94.48,
997,8.47,0.269,126.87,84.66,0.381,-999.25,0.33,3.83,1.39,-999.25,94.37,
997.5,8.5,0.266,127.27,85.92,0.368,-999.25,0.321,3.8,1.385,-999.25,94.74,
998,8.52,0.265,127.23,92.72,0.343,-999.25,0.306,3.79,1.385,-999.25,94.93,
998.5,8.52,0.261,127.24,82.52,0.402,-999.25,0.339,3.79,1.39,-999.25,94.96,
999,8.52,0.262,127,81.76,0.437,-999.25,0.36,3.82,1.393,-999.25,95,
999.5,8.56,0.264,126.66,78.24,0.418,-999.25,0.35,3.85,1.392,-999.25,94.96,
1000,8.59,0.265,126.84,84.79,0.454,-999.25,0.372,3.89,1.39,-999.25,95,
1000.5,8.56,0.268,126.85,84.16,0.444,-999.25,0.367,3.89,1.387,-999.25,95,
1001,8.53,0.269,127.18,87.81,0.4,-999.25,0.341,3.86,1.385,-999.25,95,
1001.5,8.5,0.268,127.44,92.73,0.378,-999.25,0.328,3.81,1.383,-999.25,95.07,
1002,8.49,0.264,127.68,90.77,0.374,-999.25,0.324,3.81,1.378,-999.25,95,
1002.5,8.52,0.261,127.8,97.64,0.397,-999.25,0.336,3.79,1.376,-999.25,95.04,
1003,8.5,0.261,127.9,88.95,0.384,-999.25,0.328,3.76,1.372,-999.25,95.04,
1003.5,8.56,0.261,127.92,86.3,0.434,-999.25,0.358,3.73,1.372,-999.25,94.93,
1004,8.56,0.262,127.76,80.63,0.454,-999.25,0.371,3.77,1.379,-999.25,95,
1004.5,8.55,0.262,127.86,88.88,0.459,-999.25,0.374,3.8,1.383,-999.25,95,
1005,8.52,0.264,127.84,86.68,0.346,-999.25,0.308,3.81,1.382,-999.25,95,
1005.5,8.52,0.264,127.91,93.92,0.359,-999.25,0.315,3.83,1.381,-999.25,95,
1006,8.53,0.267,127.83,106.33,0.399,-999.25,0.339,3.84,1.384,-999.25,95,
1006.5,8.51,0.27,127.51,81.01,0.375,-999.25,0.327,3.86,1.386,-999.25,95,
1007,8.53,0.273,127.3,100.6,0.327,-999.25,0.301,3.87,1.388,-999.25,95,
1007.5,8.51,0.272,126.99,91.21,0.352,-999.25,0.315,3.85,1.39,-999.25,95,
1008,8.5,0.27,126.81,82.52,0.354,-999.25,0.315,3.86,1.391,-999.25,95.2,
1008.5,8.52,0.268,126.79,89.45,0.353,-999.25,0.313,3.85,1.393,-999.25,95.48,
1009,8.49,0.268,126.22,94.24,0.345,-999.25,0.309,3.84,1.394,-999.25,95.27,
1009.5,8.48,0.267,126.07,93.67,0.337,-999.25,0.304,3.87,1.397,-999.25,95.55,
1010,8.52,0.266,125.89,81.01,0.371,-999.25,0.323,3.89,1.402,-999.25,95.44,
1010.5,8.48,0.263,125.69,92.35,0.385,-999.25,0.33,3.9,1.404,-999.25,95.27,
1011,8.47,0.259,125.92,90.77,0.338,-999.25,0.301,3.9,1.403,-999.25,95.29,
1011.5,8.48,0.259,125.82,83.28,0.414,-999.25,0.345,3.88,1.402,-999.25,95.39,
1012,8.48,0.257,126.05,80.63,0.439,-999.25,0.36,3.86,1.403,-999.25,95.59,
1012.5,8.43,0.26,126.28,87.43,0.368,-999.25,0.319,3.8,1.397,-999.25,95.47,
1013,8.44,0.259,126.36,96.13,0.408,-999.25,0.342,3.79,1.395,-999.25,95.44,
1013.5,8.44,0.261,126.27,91.21,0.352,-999.25,0.31,3.82,1.4,-999.25,95.44,
1014,8.44,0.262,126.01,85.17,0.347,-999.25,0.307,3.83,1.404,-999.25,95.59,
1014.5,8.42,0.263,125.76,89.64,0.38,-999.25,0.327,3.85,1.407,-999.25,95.62,
1015,8.47,0.264,126,88.95,0.365,-999.25,0.319,3.84,1.399,-999.25,95.62,
1015.5,8.47,0.264,126.38,93.48,0.395,-999.25,0.336,3.78,1.392,-999.25,95.77,
1016,8.42,0.266,126.77,87.94,0.381,-999.25,0.329,3.74,1.386,-999.25,95.85,
1016.5,8.42,0.268,127.1,88.57,0.375,-999.25,0.326,3.67,1.378,-999.25,96.25,
1017,8.44,0.27,127.3,91.97,0.4,-999.25,0.341,3.64,1.374,-999.25,96.25,
1017.5,8.34,0.268,127.15,91.97,0.405,-999.25,0.343,3.62,1.371,-999.25,96.25,
1018,8.46,0.267,126.78,102.87,0.358,-999.25,0.316,3.63,1.371,-999.25,96.25,
1018.5,8.46,0.266,126.65,97.26,0.333,-999.25,0.301,3.65,1.375,-999.25,96.25,
1019,8.48,0.268,126.29,97.77,0.311,-999.25,0.29,3.66,1.379,-999.25,96.25,
1019.5,8.47,0.269,126.07,86.68,0.351,-999.25,0.313,3.67,1.383,-999.25,96.29,
1020,8.42,0.272,126,86.74,0.359,-999.25,0.318,3.7,1.388,-999.25,96.41,
1020.5,8.4,0.27,125.79,95.75,0.376,-999.25,0.327,3.73,1.39,-999.25,96.47,
1021,8.41,0.269,125.83,89.7,0.385,-999.25,0.332,3.71,1.387,-999.25,96.58,
1021.5,8.38,0.273,126.01,82.77,0.377,-999.25,0.329,3.64,1.379,-999.25,96.84,
1022,8.39,0.274,126.52,96.51,0.376,-999.25,0.329,3.55,1.368,-999.25,96.87,
1022.5,8.37,0.278,126.94,79.12,0.453,-999.25,0.376,3.45,1.356,-999.25,96.8,
1023,8.38,0.276,127.33,85.73,0.391,-999.25,0.338,3.48,1.361,-999.25,96.76,
1023.5,8.4,0.273,127.29,101.8,0.401,-999.25,0.343,3.54,1.374,-999.25,96.72,
1024,8.33,0.268,127.2,88.44,0.388,-999.25,0.333,3.59,1.387,-999.25,96.76,
1024.5,8.32,0.264,127.16,96.88,0.387,-999.25,0.331,3.58,1.379,-999.25,96.69,
1025,8.35,0.264,127.02,94.62,0.377,-999.25,0.325,3.54,1.37,-999.25,96.8,
1025.5,8.33,0.265,127.19,100.85,0.379,-999.25,0.327,3.52,1.37,-999.25,96.87,
1026,8.35,0.266,126.96,81.01,0.353,-999.25,0.313,3.51,1.373,-999.25,96.87,
1026.5,8.36,0.268,126.71,90.96,0.353,-999.25,0.313,3.52,1.374,-999.25,96.87,
1027,8.39,0.271,126.55,87.05,0.39,-999.25,0.336,3.52,1.37,-999.25,96.87,
1027.5,8.42,0.274,126.71,86.99,0.366,-999.25,0.323,3.51,1.364,-999.25,96.87,
1028,8.41,0.274,126.89,96.13,0.382,-999.25,0.332,3.51,1.363,-999.25,96.87,
1028.5,8.41,0.267,126.92,89.32,0.382,-999.25,0.33,3.52,1.363,-999.25,96.87,
1029,8.4,0.262,127.11,80.94,0.451,-999.25,0.369,3.52,1.357,-999.25,96.87,
1029.5,8.43,0.263,127.01,86.3,0.39,-999.25,0.333,3.49,1.351,-999.25,96.87,
1030,8.45,0.268,126.88,100.03,0.418,-999.25,0.351,3.49,1.345,-999.25,96.87,
1030.5,8.47,0.271,127.15,87.06,0.434,-999.25,0.362,3.48,1.344,-999.25,96.87,
1031,8.48,0.27,127.27,101.04,0.397,-999.25,0.339,3.46,1.341,-999.25,96.87,
1031.5,8.5,0.271,127.43,93.86,0.371,-999.25,0.325,3.44,1.339,-999.25,97.17,
1032,8.52,0.275,127.73,91.65,0.366,-999.25,0.324,3.45,1.335,-999.25,96.99,
1032.5,8.56,0.271,127.65,90.46,0.362,-999.25,0.32,3.48,1.33,-999.25,96.99,
1033,8.53,0.269,127.38,88.69,0.347,-999.25,0.31,3.49,1.333,-999.25,96.95,
1033.5,8.46,0.27,127.35,102.18,0.327,-999.25,0.3,3.5,1.338,-999.25,97.02,
1034,8.46,0.272,127.28,105.45,0.323,-999.25,0.299,3.48,1.331,-999.25,96.95,
1034.5,8.45,0.271,127.15,87.43,0.342,-999.25,0.309,3.45,1.327,-999.25,96.95,
1035,8.44,0.267,127.36,96.13,0.341,-999.25,0.306,3.48,1.329,-999.25,96.87,
1035.5,8.47,0.267,127.45,94.49,0.394,-999.25,0.337,3.49,1.328,-999.25,96.87,
1036,8.48,0.268,127.71,79.12,0.394,-999.25,0.337,3.46,1.325,-999.25,96.87,
1036.5,8.47,0.267,128.11,93.1,0.362,-999.25,0.318,3.42,1.316,-999.25,96.91,
1037,8.46,0.269,128.42,98.46,0.365,-999.25,0.321,3.41,1.316,-999.25,96.87,
1037.5,8.44,0.271,128.73,85.54,0.376,-999.25,0.328,3.45,1.321,-999.25,96.87,
1038,8.42,0.276,128.99,88,0.353,-999.25,0.317,3.47,1.324,-999.25,96.87,
1038.5,8.43,0.277,129.13,96.13,0.346,-999.25,0.313,3.46,1.317,-999.25,97.06,
1039,8.43,0.278,129.5,91.59,0.358,-999.25,0.321,3.45,1.313,-999.25,97.34,
1039.5,8.42,0.279,129.66,89.83,0.382,-999.25,0.334,3.43,1.314,-999.25,97.46,
1040,8.39,0.28,129.91,93.48,0.394,-999.25,0.342,3.39,1.316,-999.25,97.5,
1040.5,8.39,0.28,130.19,100.73,0.383,-999.25,0.335,3.36,1.306,-999.25,97.5,
1041,8.38,0.28,130.36,113.52,0.39,-999.25,0.339,3.23,1.29,-999.25,97.5,
1041.5,8.39,0.283,130.47,91.59,0.405,-999.25,0.349,3.15,1.282,-999.25,97.03,
1042,8.37,0.285,130.3,110.3,0.405,-999.25,0.35,3.19,1.293,-999.25,96.95,
1042.5,8.37,0.284,129.85,88.95,0.383,-999.25,0.337,3.37,1.333,-999.25,96.68,
1043,8.35,0.28,129.35,103.69,0.38,-999.25,0.334,3.51,1.36,-999.25,96.21,
1043.5,8.37,0.281,128.85,98.14,0.381,-999.25,0.335,3.51,1.365,-999.25,96.21,
1044,8.36,0.283,128.37,89.7,0.378,-999.25,0.334,3.64,1.388,-999.25,95.74,
1044.5,8.32,0.285,127.9,89.58,0.39,-999.25,0.342,3.8,1.418,-999.25,95.62,
1045,8.33,0.282,127.18,96.13,0.37,-999.25,0.329,3.97,1.445,-999.25,95.62,
1045.5,8.31,0.279,126.79,97.58,0.387,-999.25,0.337,4.01,1.456,-999.25,95.47,
1046,8.32,0.275,127.36,89.32,0.402,-999.25,0.344,3.93,1.438,-999.25,95.62,
1046.5,8.34,0.269,127.38,88.95,0.394,-999.25,0.337,3.78,1.421,-999.25,95.66,
1047,8.38,0.264,127.34,88.95,0.402,-999.25,0.34,3.76,1.421,-999.25,95.85,
1047.5,8.32,0.264,127.16,84.41,0.349,-999.25,0.309,3.81,1.435,-999.25,95.86,
1048,8.35,0.266,126.28,89.45,0.363,-999.25,0.318,3.87,1.452,-999.25,96.07,
1048.5,8.35,0.268,126.31,90.08,0.363,-999.25,0.319,3.81,1.432,-999.25,96.13,
1049,8.35,0.267,126.23,97.83,0.351,-999.25,0.312,3.63,1.413,-999.25,96.21,
1049.5,8.37,0.264,126.06,98.4,0.398,-999.25,0.338,3.74,1.435,-999.25,95.74,
1050,8.33,0.26,125.66,90.46,0.399,-999.25,0.337,4,1.474,-999.25,95.62,
1050.5,8.32,0.259,125.07,85.8,0.386,-999.25,0.329,4.15,1.504,-999.25,95.62,
1051,8.31,0.258,124.93,87.81,0.381,-999.25,0.325,4.12,1.506,-999.25,95.62,
1051.5,8.3,0.257,124.84,89.32,0.42,-999.25,0.348,4.13,1.513,-999.25,95.62,
1052,8.29,0.255,124.77,78.74,0.409,-999.25,0.341,4.13,1.516,-999.25,95.62,
1052.5,8.3,0.251,124.6,87.75,0.389,-999.25,0.327,4.12,1.512,-999.25,95.62,
1053,8.3,0.25,124.34,93.1,0.409,-999.25,0.339,4.09,1.518,-999.25,95.62,
1053.5,8.29,0.251,124.26,82.52,0.371,-999.25,0.317,4.13,1.529,-999.25,95.62,
1054,8.29,0.252,124.05,89.83,0.378,-999.25,0.321,4.14,1.531,-999.25,95.62,
1054.5,8.3,0.252,123.9,93.86,0.345,-999.25,0.302,4.14,1.533,-999.25,95.62,
1055,8.27,0.249,123.62,88.82,0.358,-999.25,0.308,4.13,1.533,-999.25,95.62,
1055.5,8.27,0.246,123.42,102.18,0.391,-999.25,0.327,4.11,1.531,-999.25,95.62,
1056,8.29,0.246,123.58,98.02,0.341,-999.25,0.297,4.07,1.526,-999.25,95.62,
1056.5,8.35,0.25,123.82,78.17,0.377,-999.25,0.32,4.03,1.518,-999.25,95.62,
1057,8.34,0.261,124.32,89.32,0.467,-999.25,0.378,4.02,1.513,-999.25,95.48,
1057.5,8.34,0.261,124.88,87.05,0.387,-999.25,0.33,4,1.503,-999.25,95.16,
1058,8.33,0.26,125.18,97.64,0.396,-999.25,0.335,3.99,1.498,-999.25,94.88,
1058.5,8.34,0.261,125.44,94.93,0.415,-999.25,0.347,4.03,1.481,-999.25,94.3,
1059,8.36,0.266,125.62,88.57,0.382,-999.25,0.329,4.13,1.472,-999.25,92.11,
1059.5,8.38,0.272,125.01,104.82,0.354,-999.25,0.316,4.34,1.466,-999.25,91.95,
1060,8.35,0.27,124.63,85.54,0.355,-999.25,0.315,4.6,1.463,-999.25,91.88,
1060.5,8.36,0.269,124.58,91.78,0.362,-999.25,0.319,4.8,1.46,-999.25,91.88,
1061,8.4,0.266,125.5,94.99,0.368,-999.25,0.321,4.81,1.447,-999.25,91.88,
1061.5,8.38,0.268,127.93,102.56,0.355,-999.25,0.315,4.44,1.372,-999.25,92.43,
1062,8.46,0.265,129.95,99.91,0.386,-999.25,0.331,4.1,1.295,-999.25,92.73,
1062.5,8.58,0.27,132.23,100.35,0.422,-999.25,0.354,3.69,1.269,-999.25,93.05,
1063,8.59,0.285,133.62,92.73,0.373,-999.25,0.332,3.61,1.253,-999.25,93.13,
1063.5,8.66,0.299,131.61,107.41,0.366,-999.25,0.334,3.45,1.177,-999.25,93.13,
1064,8.61,0.302,130.33,110.49,0.464,-999.25,0.391,3.17,1.137,-999.25,93.01,
1064.5,8.68,0.278,129.42,92.35,0.458,-999.25,0.379,3.87,1.239,-999.25,92.54,
1065,8.69,0.262,128.85,89.89,0.355,-999.25,0.312,4.68,1.346,-999.25,92.27,
1065.5,8.55,0.252,130.49,105.2,0.37,-999.25,0.317,4.94,1.335,-999.25,91.88,
1066,8.53,0.259,130.28,99.53,0.36,-999.25,0.314,4.56,1.312,-999.25,91.88,
1066.5,8.53,0.262,130.79,92.72,0.379,-999.25,0.326,4.16,1.31,-999.25,91.88,
1067,8.52,0.262,130.52,97.45,0.391,-999.25,0.333,3.87,1.314,-999.25,91.84,
1067.5,8.53,0.259,130.45,93.86,0.398,-999.25,0.336,3.64,1.315,-999.25,91.88,
1068,8.53,0.255,130.63,91.59,0.383,-999.25,0.325,3.52,1.324,-999.25,91.88,
1068.5,8.52,0.257,130.7,101.04,0.36,-999.25,0.313,3.49,1.323,-999.25,91.88,
1069,8.49,0.259,130.71,93.55,0.379,-999.25,0.325,3.52,1.325,-999.25,91.88,
1069.5,8.49,0.261,130.58,94.62,0.387,-999.25,0.33,3.58,1.33,-999.25,92.07,
